{"learner":{"attributes":{"best_iteration":"20","best_score":"0.49505832270937916"},"feature_names":["education_match","experience_ratio","intent_match_score","job_avg_salary","location_match","required_education","required_experience","resume_desc_sim","resume_req_sim","resume_title_sim","salary_months","salary_negotiable","salary_ratio","school_211","school_985","school_level","user_education","user_expect_salary","user_experience","willingness_relocate"],"feature_types":[],"gradient_booster":{"model":{"gbtree_model_param":{"num_parallel_tree":"1","num_trees":"71"},"iteration_indptr":[0,1,2,3,4,5,6,7,8,9,10,11,12,13,14,15,16,17,18,19,20,21,22,23,24,25,26,27,28,29,30,31,32,33,34,35,36,37,38,39,40,41,42,43,44,45,46,47,48,49,50,51,52,53,54,55,56,57,58,59,60,61,62,63,64,65,66,67,68,69,70,71],"tree_info":[0,0,0,0,0,0,0,0,0,0,0,0,0,0,0,0,0,0,0,0,0,0,0,0,0,0,0,0,0,0,0,0,0,0,0,0,0,0,0,0,0,0,0,0,0,0,0,0,0,0,0,0,0,0,0,0,0,0,0,0,0,0,0,0,0,0,0,0,0,0,0],"trees":[{"base_weights":[6.237525E-3,-3.9811645E-2,7.0489846E-2,-4.5334507E-2,1.5151516E-1,1.3995485E-1,-7.5949365E-3,-2.1612148E-3,-1.1743772E-2,2.3214286E-2,-2.5E-2,6.402439E-3,1.8392857E-2,-1.9148936E-2,1.7191976E-3],"categories":[],"categories_nodes":[],"categories_segments":[],"categories_sizes":[],"default_left":[0,0,0,0,0,0,0,0,0,0,0,0,0,0,0],"id":0,"left_children":[1,3,5,7,9,11,13,-1,-1,-1,-1,-1,-1,-1,-1],"loss_changes":[5.9321733E0,1.2410613E0,4.5410857E0,1.9405425E0,1.1263528E0,1.4673767E0,1.8037714E0,0E0,0E0,0E0,0E0,0E0,0E0,0E0,0E0],"parents":[2147483647,0,0,1,1,2,2,3,3,4,4,5,5,6,6],"right_children":[2,4,6,8,10,12,14,-1,-1,-1,-1,-1,-1,-1,-1],"split_conditions":[9.2727274E-1,4.34E0,1.6216216E0,6.333333E-1,3E0,1.1337209E0,2.1E0,-2.1612148E-3,-1.1743772E-2,2.3214286E-2,-2.5E-2,6.402439E-3,1.8392857E-2,-1.9148936E-2,1.7191976E-3],"split_indices":[12,3,12,12,5,12,17,0,0,0,0,0,0,0,0],"split_type":[0,0,0,0,0,0,0,0,0,0,0,0,0,0,0],"sum_hessian":[2.003E3,1.167E3,8.36E2,1.135E3,3.2E1,4.42E2,3.94E2,8.55E2,2.8E2,2.7E1,5E0,1.63E2,2.79E2,4.6E1,3.48E2],"tree_param":{"num_deleted":"0","num_feature":"20","num_nodes":"15","size_leaf_vector":"1"}},{"base_weights":[5.6468346E-3,-2.1895282E-2,4.5463204E-2,-1.6093045E-2,-1.9659118E-1,8.90029E-2,-7.7842034E-2,1.4001772E-2,-2.001576E-3,-3.6423486E-2,-1.1772278E-2,2.0871772E-3,1.3322373E-2,-8.642758E-3,9.314041E-3],"categories":[],"categories_nodes":[],"categories_segments":[],"categories_sizes":[],"default_left":[0,0,0,0,0,0,0,0,0,0,0,0,0,0,0],"id":1,"left_children":[1,3,5,7,9,11,13,-1,-1,-1,-1,-1,-1,-1,-1],"loss_changes":[2.2556608E0,1.2294067E0,4.5219812E0,7.241834E-1,4.7277105E-1,1.8711905E0,3.3100498E-1,0E0,0E0,0E0,0E0,0E0,0E0,0E0,0E0],"parents":[2147483647,0,0,1,1,2,2,3,3,4,4,5,5,6,6],"right_children":[2,4,6,8,10,12,14,-1,-1,-1,-1,-1,-1,-1,-1],"split_conditions":[9.2727274E-1,8.857143E-1,2.2941177E0,9.593023E-2,1E0,1E0,1.9E1,1.4001772E-2,-2.001576E-3,-3.6423486E-2,-1.1772278E-2,2.0871772E-3,1.3322373E-2,-8.642758E-3,9.314041E-3],"split_indices":[12,12,12,12,19,19,10,0,0,0,0,0,0,0,0],"split_type":[0,0,0,0,0,0,0,0,0,0,0,0,0,0,0],"sum_hessian":[2.055E3,1.215E3,8.4E2,1.177E3,3.8E1,6.21E2,2.19E2,2.8E1,1.149E3,1.1E1,2.7E1,2.45E2,3.76E2,2.09E2,1E1],"tree_param":{"num_deleted":"0","num_feature":"20","num_nodes":"15","size_leaf_vector":"1"}},{"base_weights":[1.172043E-3,-3.2498885E-2,6.0253415E-2,2.0249687E-1,-3.8959734E-2,-3.8611952E-2,1.2896046E-1,3.6888164E-2,4.6258533E-4,-4.6217167E-3,9.829286E-3,1.9925343E-2,-6.3375435E-3,1.5056081E-2,-7.828478E-3],"categories":[],"categories_nodes":[],"categories_segments":[],"categories_sizes":[],"default_left":[0,0,0,0,0,0,0,0,0,0,0,0,0,0,0],"id":2,"left_children":[1,3,5,7,9,11,13,-1,-1,-1,-1,-1,-1,-1,-1],"loss_changes":[4.0661488E0,1.9846785E0,5.045197E0,1.150589E0,1.2675996E0,1.809192E0,1.9725251E0,0E0,0E0,0E0,0E0,0E0,0E0,0E0,0E0],"parents":[2147483647,0,0,1,1,2,2,3,3,4,4,5,5,6,6],"right_children":[2,4,6,8,10,12,14,-1,-1,-1,-1,-1,-1,-1,-1],"split_conditions":[3.75E0,1E0,8E-1,1E0,1.2413793E0,4.125E0,2.5E0,3.6888164E-2,4.6258533E-4,-4.6217167E-3,9.829286E-3,1.9925343E-2,-6.3375435E-3,1.5056081E-2,-7.828478E-3],"split_indices":[3,5,1,6,12,3,12,0,0,0,0,0,0,0,0],"split_type":[0,0,0,0,0,0,0,0,0,0,0,0,0,0,0],"sum_hessian":[2.042E3,1.301E3,7.41E2,3.4E1,1.267E3,3.04E2,4.37E2,1.8E1,1.6E1,1.204E3,6.3E1,2.8E1,2.76E2,3.96E2,4.1E1],"tree_param":{"num_deleted":"0","num_feature":"20","num_nodes":"15","size_leaf_vector":"1"}},{"base_weights":[-8.9293154E-4,-4.8858266E-2,3.8023934E-2,-5.286739E-2,4.127857E-2,-1.538879E-1,5.1242042E-2,-3.6660836E-3,-1.7529383E-2,8.17909E-3,-2.0631483E-2,5.523092E-3,-3.0072523E-2],"categories":[],"categories_nodes":[],"categories_segments":[],"categories_sizes":[],"default_left":[0,0,0,0,0,0,0,0,0,0,0,0,0],"id":3,"left_children":[1,3,5,7,-1,9,11,-1,-1,-1,-1,-1,-1],"loss_changes":[3.8173118E0,1.7171447E0,2.8718324E0,1.7971301E0,0E0,9.188564E-1,1.5005889E0,0E0,0E0,0E0,0E0,0E0,0E0],"parents":[2147483647,0,0,1,1,2,2,3,3,5,5,6,6],"right_children":[2,4,6,8,-1,10,12,-1,-1,-1,-1,-1,-1],"split_conditions":[2.46E0,1.2142857E0,2E-1,2.16E0,4.127857E-2,2.82E0,4E0,-3.6660836E-3,-1.7529383E-2,8.17909E-3,-2.0631483E-2,5.523092E-3,-3.0072523E-2],"split_indices":[3,12,1,3,0,3,5,0,0,0,0,0,0],"split_type":[0,0,0,0,0,0,0,0,0,0,0,0,0],"sum_hessian":[2.043E3,9.15E2,1.128E3,9.08E2,7E0,7.2E1,1.056E3,8.03E2,1.05E2,1.3E1,5.9E1,1.045E3,1.1E1],"tree_param":{"num_deleted":"0","num_feature":"20","num_nodes":"13","size_leaf_vector":"1"}},{"base_weights":[-1.8101605E-3,6.0096732E-3,-1.13200106E-1,-1.7675437E-2,7.9182275E-2,-1.4083062E-1,6.1449323E-2,7.071152E-4,-5.1866802E-3,-6.8956227E-3,1.2393969E-2,-9.917558E-3,-3.245474E-2,2.146756E-2,-1.7607126E-2],"categories":[],"categories_nodes":[],"categories_segments":[],"categories_sizes":[],"default_left":[0,0,0,0,0,0,0,0,0,0,0,0,0,0,0],"id":4,"left_children":[1,3,5,7,9,11,13,-1,-1,-1,-1,-1,-1,-1,-1],"loss_changes":[1.7793661E0,3.3098893E0,6.5529156E-1,1.2213173E0,3.1048949E0,8.555293E-1,7.292916E-1,0E0,0E0,0E0,0E0,0E0,0E0,0E0,0E0],"parents":[2147483647,0,0,1,1,2,2,3,3,4,4,5,5,6,6],"right_children":[2,4,6,8,10,12,14,-1,-1,-1,-1,-1,-1,-1,-1],"split_conditions":[2.7209303E0,1.4E1,1.8E1,2E0,6E-1,1.36E1,7.2222223E0,7.071152E-4,-5.1866802E-3,-6.8956227E-3,1.2393969E-2,-9.917558E-3,-3.245474E-2,2.146756E-2,-1.7607126E-2],"split_indices":[12,10,3,1,1,3,12,0,0,0,0,0,0,0,0],"split_type":[0,0,0,0,0,0,0,0,0,0,0,0,0,0,0],"sum_hessian":[2.041E3,1.908E3,1.33E2,1.442E3,4.66E2,1.15E2,1.8E1,8.37E2,6.05E2,1.08E2,3.58E2,9.5E1,2E1,1.1E1,7E0],"tree_param":{"num_deleted":"0","num_feature":"20","num_nodes":"15","size_leaf_vector":"1"}},{"base_weights":[-4.687454E-3,7.186817E-4,-2.8152776E-1,-2.1519748E-2,4.9834833E-2,1.300919E-1,-3.1944308E-1,-2.901851E-3,7.3430114E-3,2.7603586E-3,2.789211E-2,3.4420207E-2,-2.5611928E-2,-4.091973E-2,-1.2917048E-2],"categories":[],"categories_nodes":[],"categories_segments":[],"categories_sizes":[],"default_left":[0,0,0,0,0,0,0,0,0,0,0,0,0,0,0],"id":5,"left_children":[1,3,5,7,9,11,13,-1,-1,-1,-1,-1,-1,-1,-1],"loss_changes":[3.0473537E0,2.1834204E0,6.5021753E-1,9.818514E-1,3.1651614E0,4.189237E-1,5.6194353E-1,0E0,0E0,0E0,0E0,0E0,0E0,0E0,0E0],"parents":[2147483647,0,0,1,1,2,2,3,3,4,4,5,5,6,6],"right_children":[2,4,6,8,10,12,14,-1,-1,-1,-1,-1,-1,-1,-1],"split_conditions":[1.36E1,1.1337209E0,1E0,4.34E0,1E1,2E1,5.032258E0,-2.901851E-3,7.3430114E-3,2.7603586E-3,2.789211E-2,3.4420207E-2,-2.5611928E-2,-4.091973E-2,-1.2917048E-2],"split_indices":[3,12,6,3,18,3,12,0,0,0,0,0,0,0,0],"split_type":[0,0,0,0,0,0,0,0,0,0,0,0,0,0,0],"sum_hessian":[2.035E3,1.997E3,3.8E1,1.375E3,6.22E2,3E0,3.5E1,1.275E3,1E2,5.68E2,5.4E1,2E0,1E0,2.3E1,1.2E1],"tree_param":{"num_deleted":"0","num_feature":"20","num_nodes":"15","size_leaf_vector":"1"}},{"base_weights":[-7.0196767E-3,-3.423976E-2,4.117977E-2,-1.0074242E-2,-7.865289E-2,8.628902E-2,-7.374319E-2,1.0820986E-3,-1.00997295E-2,-5.9403903E-3,-2.4612479E-2,-1.7674279E-3,1.2266821E-2,-1.2070045E-2,-8.33895E-4],"categories":[],"categories_nodes":[],"categories_segments":[],"categories_sizes":[],"default_left":[0,0,0,0,0,0,0,0,0,0,0,0,0,0,0],"id":6,"left_children":[1,3,5,7,9,11,13,-1,-1,-1,-1,-1,-1,-1,-1],"loss_changes":[2.6752515E0,1.3976735E0,3.821852E0,1.6064727E0,1.4650416E0,2.0029E0,6.3780403E-1,0E0,0E0,0E0,0E0,0E0,0E0,0E0,0E0],"parents":[2147483647,0,0,1,1,2,2,3,3,4,4,5,5,6,6],"right_children":[2,4,6,8,10,12,14,-1,-1,-1,-1,-1,-1,-1,-1],"split_conditions":[3.9E0,4.8E0,2.2941177E0,5E0,6.181818E-1,6.666667E-1,3.4E0,1.0820986E-3,-1.00997295E-2,-5.9403903E-3,-2.4612479E-2,-1.7674279E-3,1.2266821E-2,-1.2070045E-2,-8.33895E-4],"split_indices":[3,17,12,6,12,1,17,0,0,0,0,0,0,0,0],"split_type":[0,0,0,0,0,0,0,0,0,0,0,0,0,0,0],"sum_hessian":[2.037E3,1.302E3,7.35E2,8.44E2,4.58E2,5.28E2,2.07E2,6.87E2,1.57E2,4.12E2,4.6E1,1.37E2,3.91E2,1.2E2,8.7E1],"tree_param":{"num_deleted":"0","num_feature":"20","num_nodes":"15","size_leaf_vector":"1"}},{"base_weights":[-3.575622E-3,3.6853272E-3,-1.3064273E-1,-2.80423E-2,5.397209E-2,-3.7674516E-2,-2.0087765E-1,-2.032722E-3,-1.934602E-2,3.1385273E-3,2.1566682E-2,-9.692292E-3,2.7808888E-2,-5.8423425E-3,-3.4604255E-2],"categories":[],"categories_nodes":[],"categories_segments":[],"categories_sizes":[],"default_left":[0,0,0,0,0,0,0,0,0,0,0,0,0,0,0],"id":7,"left_children":[1,3,5,7,9,11,13,-1,-1,-1,-1,-1,-1,-1,-1],"loss_changes":[1.8946365E0,3.1015308E0,7.1721923E-1,1.5173123E0,2.7396622E0,9.436685E-1,1.2825825E0,0E0,0E0,0E0,0E0,0E0,0E0,0E0,0E0],"parents":[2147483647,0,0,1,1,2,2,3,3,4,4,5,5,6,6],"right_children":[2,4,6,8,10,12,14,-1,-1,-1,-1,-1,-1,-1,-1],"split_conditions":[1E1,9.2727274E-1,1E0,3E0,1E1,5.2E0,1.2E0,-2.032722E-3,-1.934602E-2,3.1385273E-3,2.1566682E-2,-9.692292E-3,2.7808888E-2,-5.8423425E-3,-3.4604255E-2],"split_indices":[6,12,4,5,18,17,12,0,0,0,0,0,0,0,0],"split_type":[0,0,0,0,0,0,0,0,0,0,0,0,0,0,0],"sum_hessian":[2.052E3,1.942E3,1.1E2,1.191E3,7.51E2,4.8E1,6.2E1,1.139E3,5.2E1,6.6E2,9.1E1,4.1E1,7E0,3.2E1,3E1],"tree_param":{"num_deleted":"0","num_feature":"20","num_nodes":"15","size_leaf_vector":"1"}},{"base_weights":[3.166556E-3,-1.8260133E-2,5.0042875E-2,2.0648533E-1,-2.3424707E-2,-3.0174062E-2,1.0763273E-1,-6.9626034E-3,2.8658155E-2,-1.2542292E-2,-1.341586E-3,-2.0489031E-2,-1.087523E-3,1.318041E-2,-8.88764E-3],"categories":[],"categories_nodes":[],"categories_segments":[],"categories_sizes":[],"default_left":[0,0,0,0,0,0,0,0,0,0,0,0,0,0,0],"id":8,"left_children":[1,3,5,7,9,11,13,-1,-1,-1,-1,-1,-1,-1,-1],"loss_changes":[2.078022E0,1.6530519E0,3.001421E0,7.2764885E-1,1.4163262E0,9.1490674E-1,1.8071742E0,0E0,0E0,0E0,0E0,0E0,0E0,0E0,0E0],"parents":[2147483647,0,0,1,1,2,2,3,3,4,4,5,5,6,6],"right_children":[2,4,6,8,10,12,14,-1,-1,-1,-1,-1,-1,-1,-1],"split_conditions":[4.34E0,9.593023E-2,8E-1,4.2E0,2.0769231E-1,1.4117647E0,2.5E0,-6.9626034E-3,2.8658155E-2,-1.2542292E-2,-1.341586E-3,-2.0489031E-2,-1.087523E-3,1.318041E-2,-8.88764E-3],"split_indices":[3,12,1,17,12,12,12,0,0,0,0,0,0,0,0],"split_type":[0,0,0,0,0,0,0,0,0,0,0,0,0,0,0],"sum_hessian":[2.067E3,1.419E3,6.48E2,3.1E1,1.388E3,2.71E2,3.77E2,7E0,2.4E1,1.23E2,1.265E3,2.6E1,2.45E2,3.36E2,4.1E1],"tree_param":{"num_deleted":"0","num_feature":"20","num_nodes":"15","size_leaf_vector":"1"}},{"base_weights":[-4.5262044E-3,-9.19914E-2,2.2474101E-3,-2.0674253E-2,-2.5001454E-1,-6.146901E-2,1.2971342E-2,-1.1406586E-2,1.0794851E-2,-2.8680844E-2,3.60703E-2,-2.6585627E-2,-5.1762E-3,-2.213762E-3,3.0860417E-3],"categories":[],"categories_nodes":[],"categories_segments":[],"categories_sizes":[],"default_left":[0,0,0,0,0,0,0,0,0,0,0,0,0,0,0],"id":9,"left_children":[1,3,5,7,9,11,13,-1,-1,-1,-1,-1,-1,-1,-1],"loss_changes":[1.1951896E0,1.6289464E0,1.2806005E0,1.2255541E0,1.1146336E0,5.219158E-1,1.0081024E0,0E0,0E0,0E0,0E0,0E0,0E0,0E0,0E0],"parents":[2147483647,0,0,1,1,2,2,3,3,4,4,5,5,6,6],"right_children":[2,4,6,8,10,12,14,-1,-1,-1,-1,-1,-1,-1,-1],"split_conditions":[2.0769231E-1,8.4E-1,3.3333334E-1,8E0,1.3E0,5.5135137E-1,1E0,-1.1406586E-2,1.0794851E-2,-2.8680844E-2,3.60703E-2,-2.6585627E-2,-5.1762E-3,-2.213762E-3,3.0860417E-3],"split_indices":[12,3,1,18,3,12,19,0,0,0,0,0,0,0,0],"split_type":[0,0,0,0,0,0,0,0,0,0,0,0,0,0,0],"sum_hessian":[2.016E3,1.44E2,1.872E3,1E2,4.4E1,2.69E2,1.603E3,5.8E1,4.2E1,4.2E1,2E0,1.1E1,2.58E2,5.41E2,1.062E3],"tree_param":{"num_deleted":"0","num_feature":"20","num_nodes":"15","size_leaf_vector":"1"}},{"base_weights":[-4.9378965E-3,2.2361797E-1,-9.024912E-3,1.7928032E-2,3.6968566E-2,-5.1692426E-2,7.918075E-3,2.2245964E-2,-2.7682114E-2,-4.1011362E-3,-2.9386802E-2,1.035623E-3,-3.4201752E-2],"categories":[],"categories_nodes":[],"categories_segments":[],"categories_sizes":[],"default_left":[0,0,0,0,0,0,0,0,0,0,0,0,0],"id":10,"left_children":[1,3,5,7,-1,9,11,-1,-1,-1,-1,-1,-1],"loss_changes":[1.9141438E0,1.0749798E0,1.4549145E0,1.0261497E0,0E0,1.467537E0,1.232999E0,0E0,0E0,0E0,0E0,0E0,0E0],"parents":[2147483647,0,0,1,1,2,2,3,3,5,5,6,6],"right_children":[2,4,6,8,-1,10,12,-1,-1,-1,-1,-1,-1],"split_conditions":[1E0,4.2E0,4.3636364E-1,1E0,3.6968566E-2,4.1860464E-1,4E0,2.2245964E-2,-2.7682114E-2,-4.1011362E-3,-2.9386802E-2,1.035623E-3,-3.4201752E-2],"split_indices":[5,17,12,6,0,12,5,0,0,0,0,0,0],"split_type":[0,0,0,0,0,0,0,0,0,0,0,0,0],"sum_hessian":[2.046E3,3.5E1,2.011E3,1.5E1,2E1,5.71E2,1.44E3,9E0,6E0,5.48E2,2.3E1,1.431E3,9E0],"tree_param":{"num_deleted":"0","num_feature":"20","num_nodes":"13","size_leaf_vector":"1"}},{"base_weights":[-3.2750675E-3,-2.0454155E-2,2.2507738E-2,-1.5931211E-2,-2.3381147E-1,8.38778E-2,-4.1306186E-2,-2.0152102E-3,1.1359323E-2,-3.37111E-2,-1.355844E-2,2.3663228E-3,1.4426397E-2,-1.6140917E-2,-2.071674E-3],"categories":[],"categories_nodes":[],"categories_segments":[],"categories_sizes":[],"default_left":[0,0,0,0,0,0,0,0,0,0,0,0,0,0,0],"id":11,"left_children":[1,3,5,7,9,11,13,-1,-1,-1,-1,-1,-1,-1,-1],"loss_changes":[9.2705965E-1,1.2083192E0,3.2813778E0,6.752871E-1,2.1811008E-1,1.5492127E0,1.0129992E0,0E0,0E0,0E0,0E0,0E0,0E0,0E0,0E0],"parents":[2147483647,0,0,1,1,2,2,3,3,4,4,5,5,6,6],"right_children":[2,4,6,8,10,12,14,-1,-1,-1,-1,-1,-1,-1,-1],"split_conditions":[9.2727274E-1,9E-1,1.5689656E0,1.5E1,1.6E0,1.1818181E0,2E-1,-2.0152102E-3,1.1359323E-2,-3.37111E-2,-1.355844E-2,2.3663228E-3,1.4426397E-2,-1.6140917E-2,-2.071674E-3],"split_indices":[12,12,12,10,1,12,1,0,0,0,0,0,0,0,0],"split_type":[0,0,0,0,0,0,0,0,0,0,0,0,0,0,0],"sum_hessian":[2.091E3,1.255E3,8.36E2,1.23E3,2.5E1,4.26E2,4.1E2,1.192E3,3.8E1,1.1E1,1.4E1,2.14E2,2.12E2,5.9E1,3.51E2],"tree_param":{"num_deleted":"0","num_feature":"20","num_nodes":"15","size_leaf_vector":"1"}},{"base_weights":[4.99288E-3,7.078933E-3,-3.5144296E-2,2.440889E-1,4.384802E-3,-9.162308E-3,3.424324E-2,-3.38868E-2,6.598259E-4],"categories":[],"categories_nodes":[],"categories_segments":[],"categories_sizes":[],"default_left":[0,0,0,0,0,0,0,0,0],"id":12,"left_children":[1,3,-1,5,7,-1,-1,-1,-1],"loss_changes":[1.5334448E0,1.306651E0,0E0,7.907219E-1,1.5415406E0,0E0,0E0,0E0,0E0],"parents":[2147483647,0,0,1,1,3,3,4,4],"right_children":[2,4,-1,6,8,-1,-1,-1,-1],"split_conditions":[4E0,9.593023E-2,-3.5144296E-2,1E0,4.8E-1,-9.162308E-3,3.424324E-2,-3.38868E-2,6.598259E-4],"split_indices":[5,12,0,19,3,0,0,0,0],"split_type":[0,0,0,0,0,0,0,0,0],"sum_hessian":[2.058E3,2.047E3,1.1E1,2.2E1,2.025E3,5E0,1.7E1,1.2E1,2.013E3],"tree_param":{"num_deleted":"0","num_feature":"20","num_nodes":"9","size_leaf_vector":"1"}},{"base_weights":[-6.510494E-3,-3.0848393E-2,1.5304832E-2,4.306901E-3,-8.0603905E-2,3.5475235E-2,-7.128541E-2,-3.6765106E-3,8.863593E-3,-1.847048E-2,-4.6211216E-3,2.551065E-3,1.807518E-2,-8.689614E-3,1.0554412E-2],"categories":[],"categories_nodes":[],"categories_segments":[],"categories_sizes":[],"default_left":[0,0,0,0,0,0,0,0,0,0,0,0,0,0,0],"id":13,"left_children":[1,3,5,7,9,11,13,-1,-1,-1,-1,-1,-1,-1,-1],"loss_changes":[1.085181E0,1.6900449E0,1.8853209E0,1.9670986E0,1.4235883E0,1.2620572E0,5.7230055E-1,0E0,0E0,0E0,0E0,0E0,0E0,0E0,0E0],"parents":[2147483647,0,0,1,1,2,2,3,3,4,4,5,5,6,6],"right_children":[2,4,6,8,10,12,14,-1,-1,-1,-1,-1,-1,-1,-1],"split_conditions":[2.7E0,1.68E0,2.2941177E0,3E0,1.885E0,8E0,1.8E1,-3.6765106E-3,8.863593E-3,-1.847048E-2,-4.6211216E-3,2.551065E-3,1.807518E-2,-8.689614E-3,1.0554412E-2],"split_indices":[3,3,12,6,3,3,3,0,0,0,0,0,0,0,0],"split_type":[0,0,0,0,0,0,0,0,0,0,0,0,0,0,0],"sum_hessian":[2.042E3,9.65E2,1.077E3,5.66E2,3.99E2,8.74E2,2.03E2,3.81E2,1.85E2,9.8E1,3.01E2,8.19E2,5.5E1,1.87E2,1.6E1],"tree_param":{"num_deleted":"0","num_feature":"20","num_nodes":"15","size_leaf_vector":"1"}},{"base_weights":[-1.1193629E-3,4.0736143E-4,-2.87209E-1,-2.7648125E-2,1.1940152E-2,-3.314503E-2,-1.2692422E-1,-1.6932928E-3,-2.4632225E-2,3.1533323E-2,9.4228145E-4,4.278908E-4,-2.6026681E-2],"categories":[],"categories_nodes":[],"categories_segments":[],"categories_sizes":[],"default_left":[0,0,0,0,0,0,0,0,0,0,0,0,0],"id":14,"left_children":[1,3,5,7,9,-1,11,-1,-1,-1,-1,-1,-1],"loss_changes":[9.051252E-1,6.6750675E-1,3.593421E-2,1.4040542E0,1.1136206E0,0E0,7.109352E-2,0E0,0E0,0E0,0E0,0E0,0E0],"parents":[2147483647,0,0,1,1,2,2,3,3,4,4,6,6],"right_children":[2,4,6,8,10,-1,12,-1,-1,-1,-1,-1,-1],"split_conditions":[4E0,4.3636364E-1,1E1,4.1860464E-1,4.4117647E-1,-3.314503E-2,1.016129E0,-1.6932928E-3,-2.4632225E-2,3.1533323E-2,9.4228145E-4,4.278908E-4,-2.6026681E-2],"split_indices":[5,12,1,12,12,0,12,0,0,0,0,0,0],"split_type":[0,0,0,0,0,0,0,0,0,0,0,0,0],"sum_hessian":[2.071E3,2.061E3,1E1,6E2,1.461E3,7E0,3E0,5.73E2,2.7E1,1.1E1,1.45E3,2E0,1E0],"tree_param":{"num_deleted":"0","num_feature":"20","num_nodes":"13","size_leaf_vector":"1"}},{"base_weights":[1.8255839E-3,1.5288575E-1,-1.1710607E-3,5.7748955E-2,3.9845105E-2,-1.2314801E-4,-4.2282652E-2,-1.1166424E-2,2.3460643E-2,-1.8010529E-4,3.361413E-2],"categories":[],"categories_nodes":[],"categories_segments":[],"categories_sizes":[],"default_left":[0,0,0,0,0,0,0,0,0,0,0],"id":15,"left_children":[1,3,5,7,-1,9,-1,-1,-1,-1,-1],"loss_changes":[9.30876E-1,9.1148144E-1,8.911756E-1,9.250569E-1,0E0,1.1363797E0,0E0,0E0,0E0,0E0,0E0],"parents":[2147483647,0,0,1,1,2,2,3,3,5,5],"right_children":[2,4,6,8,-1,10,-1,-1,-1,-1,-1],"split_conditions":[1E0,2.76E0,2.4E1,3.3333333E0,3.9845105E-2,1.9E1,-4.2282652E-2,-1.1166424E-2,2.3460643E-2,-1.8010529E-4,3.361413E-2],"split_indices":[5,3,10,1,0,10,0,0,0,0,0],"split_type":[0,0,0,0,0,0,0,0,0,0,0],"sum_hessian":[2.055E3,3.9E1,2.016E3,2.9E1,1E1,2.012E3,4E0,1.5E1,1.4E1,2.003E3,9E0],"tree_param":{"num_deleted":"0","num_feature":"20","num_nodes":"11","size_leaf_vector":"1"}},{"base_weights":[3.3351353E-3,-1.5979165E-2,4.1793417E-2,-1.4259434E-2,-3.546944E-2,8.443495E-2,-3.2951355E-2,-5.403235E-3,2.4941754E-5,1.647658E-3,1.3813505E-2,-4.6589025E-3,1.736731E-2],"categories":[],"categories_nodes":[],"categories_segments":[],"categories_sizes":[],"default_left":[0,0,0,0,0,0,0,0,0,0,0,0,0],"id":16,"left_children":[1,3,5,7,-1,9,11,-1,-1,-1,-1,-1,-1],"loss_changes":[1.5553373E0,8.0694574E-1,2.2338445E0,8.0097175E-1,0E0,1.6253431E0,7.266495E-1,0E0,0E0,0E0,0E0,0E0,0E0],"parents":[2147483647,0,0,1,1,2,2,3,3,5,5,6,6],"right_children":[2,4,6,8,-1,10,12,-1,-1,-1,-1,-1,-1],"split_conditions":[1.1E0,1.0909091E0,2.0689654E0,1E0,-3.546944E-2,6.666667E-1,1.7E1,-5.403235E-3,2.4941754E-5,1.647658E-3,1.3813505E-2,-4.6589025E-3,1.736731E-2],"split_indices":[12,12,12,15,0,1,10,0,0,0,0,0,0],"split_type":[0,0,0,0,0,0,0,0,0,0,0,0,0],"sum_hessian":[2.092E3,1.393E3,6.99E2,1.387E3,6E0,4.45E2,2.54E2,3.7E2,1.017E3,1.97E2,2.48E2,2.39E2,1.5E1],"tree_param":{"num_deleted":"0","num_feature":"20","num_nodes":"13","size_leaf_vector":"1"}},{"base_weights":[-2.3806044E-3,-1.4235121E-3,-3.98715E-2,-1.165953E-2,4.3773692E-2,1.659328E-3,-2.615457E-3,1.0347593E-2,-2.6294866E-3],"categories":[],"categories_nodes":[],"categories_segments":[],"categories_sizes":[],"default_left":[0,0,0,0,0,0,0,0,0],"id":17,"left_children":[1,3,-1,5,7,-1,-1,-1,-1],"loss_changes":[7.872979E-1,9.595618E-1,0E0,6.9294167E-1,1.6049055E0,0E0,0E0,0E0,0E0],"parents":[2147483647,0,0,1,1,3,3,4,4],"right_children":[2,4,-1,6,8,-1,-1,-1,-1],"split_conditions":[2.4E1,1.5E1,-3.98715E-2,1.68E0,1.9090909E0,1.659328E-3,-2.615457E-3,1.0347593E-2,-2.6294866E-3],"split_indices":[10,10,0,3,12,0,0,0,0],"split_type":[0,0,0,0,0,0,0,0,0],"sum_hessian":[2.076E3,2.072E3,4E0,1.69E3,3.82E2,5.73E2,1.117E3,2.06E2,1.76E2],"tree_param":{"num_deleted":"0","num_feature":"20","num_nodes":"9","size_leaf_vector":"1"}},{"base_weights":[-2.5268844E-3,-8.149133E-4,-2.9306608E-1,1.5557115E-1,-3.5458E-3,-1.8163003E-1,-3.7423044E-2,-3.783431E-3,2.4579173E-2,-9.763824E-3,3.033525E-4,-2.9543942E-2,2.506131E-2],"categories":[],"categories_nodes":[],"categories_segments":[],"categories_sizes":[],"default_left":[0,0,0,0,0,0,0,0,0,0,0,0,0],"id":18,"left_children":[1,3,5,7,9,11,-1,-1,-1,-1,-1,-1,-1],"loss_changes":[1.0189229E0,8.7092566E-1,4.056418E-2,6.200198E-1,1.240902E0,4.183942E-1,0E0,0E0,0E0,0E0,0E0,0E0,0E0],"parents":[2147483647,0,0,1,1,2,2,3,3,4,4,5,5],"right_children":[2,4,6,8,10,12,-1,-1,-1,-1,-1,-1,-1],"split_conditions":[4E0,1E0,4.875E0,4.2E0,2.0769231E-1,4.55E0,-3.7423044E-2,-3.783431E-3,2.4579173E-2,-9.763824E-3,3.033525E-4,-2.9543942E-2,2.506131E-2],"split_indices":[5,5,3,17,12,3,0,0,0,0,0,0,0],"split_type":[0,0,0,0,0,0,0,0,0,0,0,0,0],"sum_hessian":[2.048E3,2.037E3,1.1E1,3.4E1,2.003E3,6E0,5E0,1.1E1,2.3E1,1.3E2,1.873E3,5E0,1E0],"tree_param":{"num_deleted":"0","num_feature":"20","num_nodes":"13","size_leaf_vector":"1"}},{"base_weights":[3.2880101E-3,-1.2487499E-2,3.0869529E-2,1.3665804E-2,-3.196303E-2,-3.361872E-2,7.935275E-2,-3.5298076E-3,5.8699218E-3,6.831836E-4,-7.0984843E-3,3.1169243E-3,-7.585816E-3,-2.1619704E-3,1.19150495E-2],"categories":[],"categories_nodes":[],"categories_segments":[],"categories_sizes":[],"default_left":[0,0,0,0,0,0,0,0,0,0,0,0,0,0,0],"id":19,"left_children":[1,3,5,7,9,11,13,-1,-1,-1,-1,-1,-1,-1,-1],"loss_changes":[8.8975537E-1,6.631006E-1,2.3288565E0,1.2280579E0,1.1298141E0,8.780788E-1,1.7104285E0,0E0,0E0,0E0,0E0,0E0,0E0,0E0,0E0],"parents":[2147483647,0,0,1,1,2,2,3,3,4,4,5,5,6,6],"right_children":[2,4,6,8,10,12,14,-1,-1,-1,-1,-1,-1,-1,-1],"split_conditions":[3.75E0,1.68E0,8E-1,1.2E0,5E0,3.1E0,1E0,-3.5298076E-3,5.8699218E-3,6.831836E-4,-7.0984843E-3,3.1169243E-3,-7.585816E-3,-2.1619704E-3,1.19150495E-2],"split_indices":[3,3,1,3,18,17,0,0,0,0,0,0,0,0,0],"split_type":[0,0,0,0,0,0,0,0,0,0,0,0,0,0,0],"sum_hessian":[2.043E3,1.3E3,7.43E2,5.55E2,7.45E2,3.19E2,4.24E2,2.66E2,2.89E2,3.74E2,3.71E2,1.26E2,1.93E2,1.2E2,3.04E2],"tree_param":{"num_deleted":"0","num_feature":"20","num_nodes":"15","size_leaf_vector":"1"}},{"base_weights":[-5.0679804E-4,4.1149925E-3,-9.090395E-2,6.052421E-4,1.1501302E-1,-1.3889615E-1,1.2100472E-1,3.911749E-4,-9.897933E-3,-2.688388E-2,1.7078286E-2,-1.9811064E-2,3.1602923E-3,1.9304683E-2,-3.2756876E-2],"categories":[],"categories_nodes":[],"categories_segments":[],"categories_sizes":[],"default_left":[0,0,0,0,0,0,0,0,0,0,0,0,0,0,0],"id":20,"left_children":[1,3,5,7,9,11,13,-1,-1,-1,-1,-1,-1,-1,-1],"loss_changes":[8.589463E-1,7.6125324E-1,1.0338036E0,6.250258E-1,1.3303543E0,8.3413434E-1,6.772435E-1,0E0,0E0,0E0,0E0,0E0,0E0,0E0,0E0],"parents":[2147483647,0,0,1,1,2,2,3,3,4,4,5,5,6,6],"right_children":[2,4,6,8,10,12,14,-1,-1,-1,-1,-1,-1,-1,-1],"split_conditions":[1.02E1,8.625E0,1.8E1,7.8E0,2.7E0,1.6E0,2.6666667E0,3.911749E-4,-9.897933E-3,-2.688388E-2,1.7078286E-2,-1.9811064E-2,3.1602923E-3,1.9304683E-2,-3.2756876E-2],"split_indices":[3,3,3,3,17,1,1,0,0,0,0,0,0,0,0],"split_type":[0,0,0,0,0,0,0,0,0,0,0,0,0,0,0],"sum_hessian":[2.054E3,1.955E3,9.9E1,1.896E3,5.9E1,8.1E1,1.8E1,1.836E3,6E1,7E0,5.2E1,6E1,2.1E1,1.6E1,2E0],"tree_param":{"num_deleted":"0","num_feature":"20","num_nodes":"15","size_leaf_vector":"1"}},{"base_weights":[1.0880578E-2,1.1832468E-2,-3.745264E-2,1.0246119E-2,2.9961652E-1,-2.9654647E-3,1.8392763E-3,3.7264902E-2,-2.1535419E-2],"categories":[],"categories_nodes":[],"categories_segments":[],"categories_sizes":[],"default_left":[0,0,0,0,0,0,0,0,0],"id":21,"left_children":[1,3,-1,5,7,-1,-1,-1,-1],"loss_changes":[7.443981E-1,9.159168E-1,0E0,6.5163517E-1,4.939571E-1,0E0,0E0,0E0,0E0],"parents":[2147483647,0,0,1,1,3,3,4,4],"right_children":[2,4,-1,6,8,-1,-1,-1,-1],"split_conditions":[2.4E1,1.9E1,-3.745264E-2,1E0,1E1,-2.9654647E-3,1.8392763E-3,3.7264902E-2,-2.1535419E-2],"split_indices":[10,10,0,0,6,0,0,0,0],"split_type":[0,0,0,0,0,0,0,0,0],"sum_hessian":[2.016E3,2.012E3,4E0,2.002E3,1E1,3.39E2,1.663E3,9E0,1E0],"tree_param":{"num_deleted":"0","num_feature":"20","num_nodes":"9","size_leaf_vector":"1"}},{"base_weights":[-5.4279706E-3,-3.175664E-2,1.4865536E-2,3.8777164E-3,-9.2413485E-2,3.771619E-2,-2.2367774E-2,-3.7872859E-3,4.3254136E-3,-6.577646E-3,-2.2052817E-2,1.0012542E-3,1.1535244E-2,8.870495E-4,-8.133975E-3],"categories":[],"categories_nodes":[],"categories_segments":[],"categories_sizes":[],"default_left":[0,0,0,0,0,0,0,0,0,0,0,0,0,0,0],"id":22,"left_children":[1,3,5,7,9,11,13,-1,-1,-1,-1,-1,-1,-1,-1],"loss_changes":[1.0680054E0,1.8808353E0,9.61403E-1,9.041876E-1,1.0843499E0,1.5044101E0,7.928599E-1,0E0,0E0,0E0,0E0,0E0,0E0,0E0,0E0],"parents":[2147483647,0,0,1,1,2,2,3,3,4,4,5,5,6,6],"right_children":[2,4,6,8,10,12,14,-1,-1,-1,-1,-1,-1,-1,-1],"split_conditions":[2.46E0,1.68E0,5.6E0,1.2E0,5.8E0,4.34E0,1E0,-3.7872859E-3,4.3254136E-3,-6.577646E-3,-2.2052817E-2,1.0012542E-3,1.1535244E-2,8.870495E-4,-8.133975E-3],"split_indices":[3,3,3,3,17,3,4,0,0,0,0,0,0,0,0],"split_type":[0,0,0,0,0,0,0,0,0,0,0,0,0,0,0],"sum_hessian":[1.997E3,8.69E2,1.128E3,5.48E2,3.21E2,6.99E2,4.29E2,2.66E2,2.82E2,2.67E2,5.4E1,5.16E2,1.83E2,2.81E2,1.48E2],"tree_param":{"num_deleted":"0","num_feature":"20","num_nodes":"15","size_leaf_vector":"1"}},{"base_weights":[9.2826355E-3,1.0144935E-2,-3.455993E-2,8.581738E-3,2.74522E-1,1.3097358E-2,6.3131977E-4,3.615326E-2,1.2725596E-2],"categories":[],"categories_nodes":[],"categories_segments":[],"categories_sizes":[],"default_left":[0,0,0,0,0,0,0,0,0],"id":23,"left_children":[1,3,-1,5,7,-1,-1,-1,-1],"loss_changes":[6.311419E-1,8.4361494E-1,0E0,5.644702E-1,1.0775733E-1,0E0,0E0,0E0,0E0],"parents":[2147483647,0,0,1,1,3,3,4,4],"right_children":[2,4,-1,6,8,-1,-1,-1,-1],"split_conditions":[2.4E1,1.9E1,-3.455993E-2,1E0,1E0,1.3097358E-2,6.3131977E-4,3.615326E-2,1.2725596E-2],"split_indices":[10,10,0,5,13,0,0,0,0],"split_type":[0,0,0,0,0,0,0,0,0],"sum_hessian":[2.05E3,2.046E3,4E0,2.035E3,1.1E1,3.6E1,1.999E3,6E0,5E0],"tree_param":{"num_deleted":"0","num_feature":"20","num_nodes":"9","size_leaf_vector":"1"}},{"base_weights":[-2.5848437E-3,-5.9607428E-2,4.2456156E-3,-1.8274985E-1,-1.8448142E-2,1.4464333E-2,-4.2636726E-2,-2.4213461E-2,1.0869501E-2,1.2374362E-3,-1.2624483E-2,9.038585E-5,6.0385983E-3,-3.1257372E-2,-2.9647227E-3],"categories":[],"categories_nodes":[],"categories_segments":[],"categories_sizes":[],"default_left":[0,0,0,0,0,0,0,0,0,0,0,0,0,0,0],"id":24,"left_children":[1,3,5,7,9,11,13,-1,-1,-1,-1,-1,-1,-1,-1],"loss_changes":[8.010454E-1,1.1116886E0,8.806818E-1,9.7822464E-1,5.5310786E-1,9.396289E-1,1.1443207E0,0E0,0E0,0E0,0E0,0E0,0E0,0E0,0E0],"parents":[2147483647,0,0,1,1,2,2,3,3,4,4,5,5,6,6],"right_children":[2,4,6,8,10,12,14,-1,-1,-1,-1,-1,-1,-1,-1],"split_conditions":[1.04E0,1E0,1.8055556E0,2.6530612E-1,4E0,1.1337209E0,3.9E0,-2.4213461E-2,1.0869501E-2,1.2374362E-3,-1.2624483E-2,9.038585E-5,6.0385983E-3,-3.1257372E-2,-2.9647227E-3],"split_indices":[3,19,12,12,16,12,3,0,0,0,0,0,0,0,0],"split_type":[0,0,0,0,0,0,0,0,0,0,0,0,0,0,0],"sum_hessian":[2.055E3,2.19E2,1.836E3,5.4E1,1.65E2,1.508E3,3.28E2,4.5E1,9E0,1.29E2,3.6E1,1.165E3,3.43E2,1.4E1,3.14E2],"tree_param":{"num_deleted":"0","num_feature":"20","num_nodes":"15","size_leaf_vector":"1"}},{"base_weights":[-4.1626142E-3,-2.6311097E-3,-2.6276764E-1,-2.2253066E-2,1.0777783E-2,-3.2149803E-2,-1.16245516E-1,-1.5606723E-3,-1.917674E-2,2.1985207E-2,6.5270974E-4,2.9435486E-2,-2.9248431E-2],"categories":[],"categories_nodes":[],"categories_segments":[],"categories_sizes":[],"default_left":[0,0,0,0,0,0,0,0,0,0,0,0,0],"id":25,"left_children":[1,3,5,7,9,-1,11,-1,-1,-1,-1,-1,-1],"loss_changes":[8.072604E-1,5.340874E-1,6.589085E-2,9.253671E-1,1.070348E0,0E0,4.479128E-1,0E0,0E0,0E0,0E0,0E0,0E0],"parents":[2147483647,0,0,1,1,2,2,3,3,4,4,6,6],"right_children":[2,4,6,8,10,-1,12,-1,-1,-1,-1,-1,-1],"split_conditions":[4E0,3.7E0,5.6E0,3.3333333E0,1E0,-3.2149803E-2,5.85E0,-1.5606723E-3,-1.917674E-2,2.1985207E-2,6.5270974E-4,2.9435486E-2,-2.9248431E-2],"split_indices":[5,17,3,1,5,0,3,0,0,0,0,0,0],"split_type":[0,0,0,0,0,0,0,0,0,0,0,0,0],"sum_hessian":[2.039E3,2.028E3,1.1E1,8.23E2,1.205E3,7E0,4E0,7.93E2,3E1,2.3E1,1.182E3,1E0,3E0],"tree_param":{"num_deleted":"0","num_feature":"20","num_nodes":"13","size_leaf_vector":"1"}},{"base_weights":[-8.1949565E-4,-4.103257E-2,7.6634423E-3,-4.965062E-2,2.2985718E-1,1.074638E-2,-1.3613234E-1,-2.4208329E-3,-1.36566935E-2,4.4991463E-2,3.983653E-3,-6.350015E-4,4.4421344E-3,-2.4556506E-2,4.5557106E-3],"categories":[],"categories_nodes":[],"categories_segments":[],"categories_sizes":[],"default_left":[0,0,0,0,0,0,0,0,0,0,0,0,0,0,0],"id":26,"left_children":[1,3,5,7,9,11,13,-1,-1,-1,-1,-1,-1,-1,-1],"loss_changes":[6.873402E-1,8.308365E-1,7.391366E-1,7.507644E-1,4.4204706E-1,9.387064E-1,7.070842E-1,0E0,0E0,0E0,0E0,0E0,0E0,0E0,0E0],"parents":[2147483647,0,0,1,1,2,2,3,3,4,4,5,5,6,6],"right_children":[2,4,6,8,10,12,14,-1,-1,-1,-1,-1,-1,-1,-1],"split_conditions":[1E0,1.14E1,1.36E1,3E0,1.36E1,9.2727274E-1,1.8E1,-2.4208329E-3,-1.36566935E-2,4.4991463E-2,3.983653E-3,-6.350015E-4,4.4421344E-3,-2.4556506E-2,4.5557106E-3],"split_indices":[0,3,3,5,3,12,3,0,0,0,0,0,0,0,0],"split_type":[0,0,0,0,0,0,0,0,0,0,0,0,0,0,0],"sum_hessian":[2.013E3,3.5E2,1.663E3,3.4E2,1E1,1.629E3,3.4E1,2.64E2,7.6E1,4E0,6E0,1.081E3,5.48E2,2.1E1,1.3E1],"tree_param":{"num_deleted":"0","num_feature":"20","num_nodes":"15","size_leaf_vector":"1"}},{"base_weights":[-5.021177E-3,8.460908E-3,-3.301954E-2,3.3182748E-2,-4.7403533E-2,-5.596421E-2,6.4666316E-2,-1.0513152E-2,3.953002E-3,-5.7234685E-3,2.0502472E-2,-7.0070387E-3,8.226715E-3,-1.2763683E-4,1.2093033E-2],"categories":[],"categories_nodes":[],"categories_segments":[],"categories_sizes":[],"default_left":[0,0,0,0,0,0,0,0,0,0,0,0,0,0,0],"id":27,"left_children":[1,3,5,7,9,11,13,-1,-1,-1,-1,-1,-1,-1,-1],"loss_changes":[7.6655626E-1,1.8950224E0,1.482923E0,8.39056E-1,1.0565135E0,1.0489697E0,4.6763945E-1,0E0,0E0,0E0,0E0,0E0,0E0,0E0,0E0],"parents":[2147483647,0,0,1,1,2,2,3,3,4,4,5,5,6,6],"right_children":[2,4,6,8,10,12,14,-1,-1,-1,-1,-1,-1,-1,-1],"split_conditions":[5E0,8E0,5.5E0,1.6363636E-1,8.625E0,3.4285715E0,4.55E0,-1.0513152E-2,3.953002E-3,-5.7234685E-3,2.0502472E-2,-7.0070387E-3,8.226715E-3,-1.2763683E-4,1.2093033E-2],"split_indices":[6,18,17,12,3,12,3,0,0,0,0,0,0,0,0],"split_type":[0,0,0,0,0,0,0,0,0,0,0,0,0,0,0],"sum_hessian":[2.029E3,1.37E3,6.59E2,9.5E2,4.2E2,5.34E2,1.25E2,4.1E1,9.09E2,4.05E2,1.5E1,4.85E2,4.9E1,5.8E1,6.7E1],"tree_param":{"num_deleted":"0","num_feature":"20","num_nodes":"15","size_leaf_vector":"1"}},{"base_weights":[-4.0566595E-3,-2.4783097E-2,1.4259912E-2,3.8547767E-3,-6.546589E-2,1.3892946E-1,4.1676043E-3,-2.914387E-3,7.347703E-3,-1.0741673E-3,-1.2566361E-2,2.222103E-2,-6.812134E-3,2.12857E-2,-2.492415E-4],"categories":[],"categories_nodes":[],"categories_segments":[],"categories_sizes":[],"default_left":[0,0,0,0,0,0,0,0,0,0,0,0,0,0,0],"id":28,"left_children":[1,3,5,7,9,11,13,-1,-1,-1,-1,-1,-1,-1,-1],"loss_changes":[7.7367455E-1,1.114058E0,1.3607969E0,1.2933027E0,1.2998878E0,1.41185E0,1.3931856E0,0E0,0E0,0E0,0E0,0E0,0E0,0E0,0E0],"parents":[2147483647,0,0,1,1,2,2,3,3,4,4,5,5,6,6],"right_children":[2,4,6,8,10,12,14,-1,-1,-1,-1,-1,-1,-1,-1],"split_conditions":[2.7E0,1.625E0,2.76E0,3E0,5E0,8E0,5.675676E-1,-2.914387E-3,7.347703E-3,-1.0741673E-3,-1.2566361E-2,2.222103E-2,-6.812134E-3,2.12857E-2,-2.492415E-4],"split_indices":[3,3,3,6,18,18,12,0,0,0,0,0,0,0,0],"split_type":[0,0,0,0,0,0,0,0,0,0,0,0,0,0,0],"sum_hessian":[2.036E3,9.55E2,1.081E3,5.61E2,3.94E2,8E1,1.001E3,3.81E2,1.8E2,2.07E2,1.87E2,5.7E1,2.3E1,3E1,9.71E2],"tree_param":{"num_deleted":"0","num_feature":"20","num_nodes":"15","size_leaf_vector":"1"}},{"base_weights":[-5.3532147E-3,-9.18455E-2,-5.304495E-4,-2.4149476E-2,-2.0188168E-1,3.3450823E-3,-7.492706E-2,6.176536E-4,-2.236396E-2,-6.029367E-3,-2.5839074E-2,-9.7032724E-5,1.5199641E-2,-2.2350168E-2,2.8524562E-4],"categories":[],"categories_nodes":[],"categories_segments":[],"categories_sizes":[],"default_left":[0,0,0,0,0,0,0,0,0,0,0,0,0,0,0],"id":29,"left_children":[1,3,5,7,9,11,13,-1,-1,-1,-1,-1,-1,-1,-1],"loss_changes":[8.5298616E-1,7.9961777E-1,5.590272E-1,4.1276366E-1,3.1246185E-1,1.1824161E0,1.1100194E0,0E0,0E0,0E0,0E0,0E0,0E0,0E0,0E0],"parents":[2147483647,0,0,1,1,2,2,3,3,4,4,5,5,6,6],"right_children":[2,4,6,8,10,12,14,-1,-1,-1,-1,-1,-1,-1,-1],"split_conditions":[1E0,5E0,1.02E1,5.625E0,1E0,8.625E0,1.14E1,6.176536E-4,-2.236396E-2,-6.029367E-3,-2.5839074E-2,-9.7032724E-5,1.5199641E-2,-2.2350168E-2,2.8524562E-4],"split_indices":[18,6,3,3,4,3,3,0,0,0,0,0,0,0,0],"split_type":[0,0,0,0,0,0,0,0,0,0,0,0,0,0,0],"sum_hessian":[2.044E3,1.07E2,1.937E3,6.7E1,4E1,1.842E3,9.5E1,5.9E1,8E0,1.2E1,2.8E1,1.791E3,5.1E1,3.2E1,6.3E1],"tree_param":{"num_deleted":"0","num_feature":"20","num_nodes":"15","size_leaf_vector":"1"}},{"base_weights":[-1.0914588E-7,2.5370119E-3,-1.23514585E-1,-8.685037E-3,2.9619057E-2,-2.471093E-1,4.8140276E-2,-1.4166184E-2,-4.8610185E-5,1.5227312E-3,2.0622602E-2,9.153803E-4,-2.7082203E-2,-1.1315389E-2,3.8958758E-2],"categories":[],"categories_nodes":[],"categories_segments":[],"categories_sizes":[],"default_left":[0,0,0,0,0,0,0,0,0,0,0,0,0,0,0],"id":30,"left_children":[1,3,5,7,9,11,13,-1,-1,-1,-1,-1,-1,-1,-1],"loss_changes":[6.383371E-1,6.068736E-1,8.81737E-1,1.5393897E0,1.483744E0,1.4831984E-1,1.0354054E0,0E0,0E0,0E0,0E0,0E0,0E0,0E0,0E0],"parents":[2147483647,0,0,1,1,2,2,3,3,4,4,5,5,6,6],"right_children":[2,4,6,8,10,12,14,-1,-1,-1,-1,-1,-1,-1,-1],"split_conditions":[1.36E1,1.1818181E0,1.8E1,3.3333334E-1,1E1,2.4264705E0,3E0,-1.4166184E-2,-4.8610185E-5,1.5227312E-3,2.0622602E-2,9.153803E-4,-2.7082203E-2,-1.1315389E-2,3.8958758E-2],"split_indices":[3,12,3,1,18,12,5,0,0,0,0,0,0,0,0],"split_type":[0,0,0,0,0,0,0,0,0,0,0,0,0,0,0],"sum_hessian":[2.035E3,1.995E3,4E1,1.411E3,5.84E2,2.3E1,1.7E1,8.1E1,1.33E3,5.41E2,4.3E1,2E0,2.1E1,1.2E1,5E0],"tree_param":{"num_deleted":"0","num_feature":"20","num_nodes":"15","size_leaf_vector":"1"}},{"base_weights":[-3.7458632E-3,-6.0550105E-2,3.3935094E-6,-2.3986377E-2,-1.9372873E-1,-9.405542E-3,2.8769558E-2,-6.4547965E-3,2.2978825E-2,-5.589782E-3,-2.8499389E-2,-4.4706554E-4,-8.083373E-3,4.226916E-3,-1.1774539E-2],"categories":[],"categories_nodes":[],"categories_segments":[],"categories_sizes":[],"default_left":[0,0,0,0,0,0,0,0,0,0,0,0,0,0,0],"id":31,"left_children":[1,3,5,7,9,11,13,-1,-1,-1,-1,-1,-1,-1,-1],"loss_changes":[4.334017E-1,6.089109E-1,5.1722926E-1,1.0441827E0,3.2370675E-1,5.0722426E-1,9.365647E-1,0E0,0E0,0E0,0E0,0E0,0E0,0E0,0E0],"parents":[2147483647,0,0,1,1,2,2,3,3,4,4,5,5,6,6],"right_children":[2,4,6,8,10,12,14,-1,-1,-1,-1,-1,-1,-1,-1],"split_conditions":[2E-1,1.5E1,1.2857143E0,2.7209303E0,2.7209303E0,3E0,4E0,-6.4547965E-3,2.2978825E-2,-5.589782E-3,-2.8499389E-2,-4.4706554E-4,-8.083373E-3,4.226916E-3,-1.1774539E-2],"split_indices":[1,10,12,12,12,5,16,0,0,0,0,0,0,0,0],"split_type":[0,0,0,0,0,0,0,0,0,0,0,0,0,0,0],"sum_hessian":[2.034E3,1.25E2,1.909E3,9.9E1,2.6E1,1.439E3,4.7E2,8.6E1,1.3E1,1.1E1,1.5E1,1.347E3,9.2E1,4.31E2,3.9E1],"tree_param":{"num_deleted":"0","num_feature":"20","num_nodes":"15","size_leaf_vector":"1"}},{"base_weights":[-2.3428581E-3,-5.478589E-5,-1.4877777E-1,-1.2715382E-2,2.7461516E-2,7.3731706E-2,-2.2601976E-1,5.1438675E-4,-4.5015193E-3,1.1635358E-2,-3.772991E-4,-2.3288475E-2,1.9460566E-2,2.6361873E-2,-2.8251503E-2],"categories":[],"categories_nodes":[],"categories_segments":[],"categories_sizes":[],"default_left":[0,0,0,0,0,0,0,0,0,0,0,0,0,0,0],"id":32,"left_children":[1,3,5,7,9,11,13,-1,-1,-1,-1,-1,-1,-1,-1],"loss_changes":[6.9690347E-1,7.1416503E-1,5.666512E-1,8.101295E-1,1.7940578E0,3.788782E-1,7.383703E-1,0E0,0E0,0E0,0E0,0E0,0E0,0E0,0E0],"parents":[2147483647,0,0,1,1,2,2,3,3,4,4,5,5,6,6],"right_children":[2,4,6,8,10,12,14,-1,-1,-1,-1,-1,-1,-1,-1],"split_conditions":[1.8E1,1.1337209E0,3.3E0,6.333333E-1,1.3953488E0,2.1E0,8.8235295E-1,5.1438675E-4,-4.5015193E-3,1.1635358E-2,-3.772991E-4,-2.3288475E-2,1.9460566E-2,2.6361873E-2,-2.8251503E-2],"split_indices":[10,12,17,12,12,17,12,0,0,0,0,0,0,0,0],"split_type":[0,0,0,0,0,0,0,0,0,0,0,0,0,0,0],"sum_hessian":[2.079E3,2.048E3,3.1E1,1.403E3,6.45E2,8E0,2.3E1,9.04E2,4.99E2,1.67E2,4.78E2,2E0,6E0,2E0,2.1E1],"tree_param":{"num_deleted":"0","num_feature":"20","num_nodes":"15","size_leaf_vector":"1"}},{"base_weights":[9.08185E-3,-1.2199073E-2,1.9167885E-2,5.383162E-2,-3.0782675E-2,-2.0520086E-3,8.179981E-2,-4.0521002E-3,1.2982023E-2,2.7431298E-2,-3.6180445E-3,1.4024395E-3,-5.0523453E-3,1.962077E-2,4.3642833E-3],"categories":[],"categories_nodes":[],"categories_segments":[],"categories_sizes":[],"default_left":[0,0,0,0,0,0,0,0,0,0,0,0,0,0,0],"id":33,"left_children":[1,3,5,7,9,11,13,-1,-1,-1,-1,-1,-1,-1,-1],"loss_changes":[4.363826E-1,8.041727E-1,1.8329179E0,1.0377008E0,8.51458E-1,8.041117E-1,1.5149825E0,0E0,0E0,0E0,0E0,0E0,0E0,0E0,0E0],"parents":[2147483647,0,0,1,1,2,2,3,3,4,4,5,5,6,6],"right_children":[2,4,6,8,10,12,14,-1,-1,-1,-1,-1,-1,-1,-1],"split_conditions":[8E-1,2.015E0,4.34E0,5.5135137E-1,5.125E-1,6.333333E-1,5.25E0,-4.0521002E-3,1.2982023E-2,2.7431298E-2,-3.6180445E-3,1.4024395E-3,-5.0523453E-3,1.962077E-2,4.3642833E-3],"split_indices":[1,3,3,12,12,12,3,0,0,0,0,0,0,0,0],"split_type":[0,0,0,0,0,0,0,0,0,0,0,0,0,0,0],"sum_hessian":[2.031E3,6.53E2,1.378E3,1.43E2,5.1E2,1.03E3,3.48E2,6.4E1,7.9E1,8E0,5.02E2,7.74E2,2.56E2,8.6E1,2.62E2],"tree_param":{"num_deleted":"0","num_feature":"20","num_nodes":"15","size_leaf_vector":"1"}},{"base_weights":[5.11527E-3,-1.2955765E-2,1.7832678E-2,-6.727216E-2,2.019354E-2,2.851368E-2,-5.9308093E-2,-1.4373893E-2,-3.0133245E-3,-3.6564376E-3,3.643987E-3,2.0869838E-2,2.5200797E-3,-9.365928E-3,1.6350491E-2],"categories":[],"categories_nodes":[],"categories_segments":[],"categories_sizes":[],"default_left":[0,0,0,0,0,0,0,0,0,0,0,0,0,0,0],"id":34,"left_children":[1,3,5,7,9,11,13,-1,-1,-1,-1,-1,-1,-1,-1],"loss_changes":[4.7227457E-1,1.530026E0,9.953635E-1,9.1011405E-1,4.882053E-1,6.2748706E-1,1.1404356E0,0E0,0E0,0E0,0E0,0E0,0E0,0E0,0E0],"parents":[2147483647,0,0,1,1,2,2,3,3,4,4,5,5,6,6],"right_children":[2,4,6,8,10,12,14,-1,-1,-1,-1,-1,-1,-1,-1],"split_conditions":[3.7E0,1E0,3.3333334E-1,8.5714287E-1,1.38E0,1E0,4.56E0,-1.4373893E-2,-3.0133245E-3,-3.6564376E-3,3.643987E-3,2.0869838E-2,2.5200797E-3,-9.365928E-3,1.6350491E-2],"split_indices":[17,19,2,12,3,5,3,0,0,0,0,0,0,0,0],"split_type":[0,0,0,0,0,0,0,0,0,0,0,0,0,0,0],"sum_hessian":[2.053E3,8.48E2,1.205E3,3.21E2,5.27E2,1.059E3,1.46E2,1.04E2,2.17E2,1.17E2,4.1E2,1.8E1,1.041E3,1.27E2,1.9E1],"tree_param":{"num_deleted":"0","num_feature":"20","num_nodes":"15","size_leaf_vector":"1"}},{"base_weights":[-3.1892462E-3,-6.2572985E-4,-1.5869027E-1,1.273175E-1,-3.0320713E-3,-3.3243564E-1,4.5661875E-3,6.03813E-3,3.020071E-2,8.0159E-4,-2.6381845E-3,-3.799353E-2,1.9002983E-2,1.3931522E-2,-2.881511E-2],"categories":[],"categories_nodes":[],"categories_segments":[],"categories_sizes":[],"default_left":[0,0,0,0,0,0,0,0,0,0,0,0,0,0,0],"id":35,"left_children":[1,3,5,7,9,11,13,-1,-1,-1,-1,-1,-1,-1,-1],"loss_changes":[8.1111157E-1,6.170598E-1,9.3756473E-1,4.1440767E-1,5.076338E-1,4.6927035E-1,7.501245E-1,0E0,0E0,0E0,0E0,0E0,0E0,0E0,0E0],"parents":[2147483647,0,0,1,1,2,2,3,3,4,4,5,5,6,6],"right_children":[2,4,6,8,10,12,14,-1,-1,-1,-1,-1,-1,-1,-1],"split_conditions":[1.8E1,1E0,2.0465117E0,6.545454E-1,2.6666667E0,4E0,1E1,6.03813E-3,3.020071E-2,8.0159E-4,-2.6381845E-3,-3.799353E-2,1.9002983E-2,1.3931522E-2,-2.881511E-2],"split_indices":[10,5,12,12,1,16,6,0,0,0,0,0,0,0,0],"split_type":[0,0,0,0,0,0,0,0,0,0,0,0,0,0,0],"sum_hessian":[2.034E3,2.002E3,3.2E1,3.6E1,1.966E3,1.5E1,1.7E1,2.7E1,9E0,1.335E3,6.31E2,1.4E1,1E0,1.2E1,5E0],"tree_param":{"num_deleted":"0","num_feature":"20","num_nodes":"15","size_leaf_vector":"1"}},{"base_weights":[4.9233105E-4,9.055207E-3,-2.9602237E-2,3.2365634E-3,9.3621984E-2,-9.718788E-2,-2.5181826E-3,1.0517846E-3,-7.3326654E-3,3.9056407E-3,2.793448E-2,-2.7153766E-2,-3.9265617E-3,-1.0586712E-2,4.165523E-3],"categories":[],"categories_nodes":[],"categories_segments":[],"categories_sizes":[],"default_left":[0,0,0,0,0,0,0,0,0,0,0,0,0,0,0],"id":36,"left_children":[1,3,5,7,9,11,13,-1,-1,-1,-1,-1,-1,-1,-1],"loss_changes":[5.2467954E-1,7.796183E-1,8.2530785E-1,8.2806915E-1,1.0227652E0,1.2920744E0,1.4789938E0,0E0,0E0,0E0,0E0,0E0,0E0,0E0,0E0],"parents":[2147483647,0,0,1,1,2,2,3,3,4,4,5,5,6,6],"right_children":[2,4,6,8,10,12,14,-1,-1,-1,-1,-1,-1,-1,-1],"split_conditions":[5.6E0,4.8E0,1.4E1,4.2E0,5.5E0,6.3E0,3.4E0,1.0517846E-3,-7.3326654E-3,3.9056407E-3,2.793448E-2,-2.7153766E-2,-3.9265617E-3,-1.0586712E-2,4.165523E-3],"split_indices":[3,3,10,3,17,3,17,0,0,0,0,0,0,0,0],"split_type":[0,0,0,0,0,0,0,0,0,0,0,0,0,0,0],"sum_hessian":[2.034E3,1.584E3,4.5E2,1.483E3,1.01E2,1.28E2,3.22E2,1.355E3,1.28E2,7.9E1,2.2E1,3.1E1,9.7E1,9.6E1,2.26E2],"tree_param":{"num_deleted":"0","num_feature":"20","num_nodes":"15","size_leaf_vector":"1"}},{"base_weights":[2.041443E-3,4.6884017E-3,-1.1910331E-1,3.3555066E-3,2.2666904E-1,-3.0841509E-1,-2.0477327E-2,5.0137116E-4,-2.9723544E-2,3.5915356E-2,-2.9050237E-2,-3.476133E-2,-1.1371666E-2,-1.4235496E-2,2.3751343E-2],"categories":[],"categories_nodes":[],"categories_segments":[],"categories_sizes":[],"default_left":[0,0,0,0,0,0,0,0,0,0,0,0,0,0,0],"id":37,"left_children":[1,3,5,7,9,11,13,-1,-1,-1,-1,-1,-1,-1,-1],"loss_changes":[6.5984607E-1,5.948397E-1,8.152111E-1,9.9937016E-1,9.265415E-1,7.494795E-2,9.771103E-1,0E0,0E0,0E0,0E0,0E0,0E0,0E0,0E0],"parents":[2147483647,0,0,1,1,2,2,3,3,4,4,5,5,6,6],"right_children":[2,4,6,8,10,12,14,-1,-1,-1,-1,-1,-1,-1,-1],"split_conditions":[1.36E1,4.451613E0,3.7777777E0,3.9583333E0,1E0,1.8E1,3E0,5.0137116E-4,-2.9723544E-2,3.5915356E-2,-2.9050237E-2,-3.476133E-2,-1.1371666E-2,-1.4235496E-2,2.3751343E-2],"split_indices":[3,12,12,12,0,3,5,0,0,0,0,0,0,0,0],"split_type":[0,0,0,0,0,0,0,0,0,0,0,0,0,0,0],"sum_hessian":[2.055E3,2.012E3,4.3E1,2.001E3,1.1E1,1.4E1,2.9E1,1.991E3,1E1,9E0,2E0,1.1E1,3E0,2E1,9E0],"tree_param":{"num_deleted":"0","num_feature":"20","num_nodes":"15","size_leaf_vector":"1"}},{"base_weights":[2.023449E-3,8.408944E-3,-4.9977664E-2,5.199345E-3,1.1010624E-1,1.4883743E-1,-6.6942535E-2,-1.0633492E-2,8.2247116E-4,1.3947295E-2,-2.1732882E-2,3.8203187E-2,5.4922453E-3,9.160245E-3,-9.628937E-3],"categories":[],"categories_nodes":[],"categories_segments":[],"categories_sizes":[],"default_left":[0,0,0,0,0,0,0,0,0,0,0,0,0,0,0],"id":38,"left_children":[1,3,5,7,9,11,13,-1,-1,-1,-1,-1,-1,-1,-1],"loss_changes":[6.831209E-1,5.974061E-1,7.6886E-1,6.0049146E-1,5.6879026E-1,3.73226E-1,9.766013E-1,0E0,0E0,0E0,0E0,0E0,0E0,0E0,0E0],"parents":[2147483647,0,0,1,1,2,2,3,3,4,4,5,5,6,6],"right_children":[2,4,6,8,10,12,14,-1,-1,-1,-1,-1,-1,-1,-1],"split_conditions":[8E0,6.4E0,6E-1,1.6363636E-1,1.05E1,2E0,4.3E0,-1.0633492E-2,8.2247116E-4,1.3947295E-2,-2.1732882E-2,3.8203187E-2,5.4922453E-3,9.160245E-3,-9.628937E-3],"split_indices":[1,17,3,12,3,5,17,0,0,0,0,0,0,0,0],"split_type":[0,0,0,0,0,0,0,0,0,0,0,0,0,0,0],"sum_hessian":[2.055E3,1.831E3,2.24E2,1.776E3,5.5E1,1.7E1,2.07E2,4.6E1,1.73E3,5.1E1,4E0,4E0,1.3E1,3.2E1,1.75E2],"tree_param":{"num_deleted":"0","num_feature":"20","num_nodes":"15","size_leaf_vector":"1"}},{"base_weights":[-6.0918526E-4,-2.3685014E-3,1.8655854E-1,3.8807128E-5,-2.0267823E-1,-1.4208229E-1,2.5705886E-1,1.4900738E-2,-1.8478459E-4,2.970848E-2,-2.3732381E-2,-2.9262975E-2,1.5478003E-2,3.0508721E-2,-2.3168322E-2],"categories":[],"categories_nodes":[],"categories_segments":[],"categories_sizes":[],"default_left":[0,0,0,0,0,0,0,0,0,0,0,0,0,0,0],"id":39,"left_children":[1,3,5,7,9,11,13,-1,-1,-1,-1,-1,-1,-1,-1],"loss_changes":[6.7185843E-1,9.745488E-1,4.7673982E-1,5.618172E-1,4.8605502E-1,2.2406071E-1,4.4625914E-1,0E0,0E0,0E0,0E0,0E0,0E0,0E0,0E0],"parents":[2147483647,0,0,1,1,2,2,3,3,4,4,5,5,6,6],"right_children":[2,4,6,8,10,12,14,-1,-1,-1,-1,-1,-1,-1,-1],"split_conditions":[1.8E1,1.36E1,2.7E0,9.593023E-2,3.1E0,3E-1,2.6666667E0,1.4900738E-2,-1.8478459E-4,2.970848E-2,-2.3732381E-2,-2.9262975E-2,1.5478003E-2,3.0508721E-2,-2.3168322E-2],"split_indices":[3,3,17,12,17,1,1,0,0,0,0,0,0,0,0],"split_type":[0,0,0,0,0,0,0,0,0,0,0,0,0,0,0],"sum_hessian":[2.038E3,2.02E3,1.8E1,1.997E3,2.3E1,3E0,1.5E1,2.4E1,1.973E3,1E0,2.2E1,2E0,1E0,1.4E1,1E0],"tree_param":{"num_deleted":"0","num_feature":"20","num_nodes":"15","size_leaf_vector":"1"}},{"base_weights":[2.320777E-3,1.3665607E-2,-2.1450398E-2,1.2528138E-1,1.1193446E-2,1.6218029E-1,-2.860113E-2,2.5396673E-3,2.23473E-2,-3.190535E-2,1.3629624E-3,2.1011977E-2,3.40439E-3,-3.2501188E-3,1.1600691E-2],"categories":[],"categories_nodes":[],"categories_segments":[],"categories_sizes":[],"default_left":[0,0,0,0,0,0,0,0,0,0,0,0,0,0,0],"id":40,"left_children":[1,3,5,7,9,11,13,-1,-1,-1,-1,-1,-1,-1,-1],"loss_changes":[5.534067E-1,3.8186747E-1,8.7521946E-1,2.8855965E-1,1.0985233E0,1.4641654E-1,3.641534E-1,0E0,0E0,0E0,0E0,0E0,0E0,0E0,0E0],"parents":[2147483647,0,0,1,1,2,2,3,3,4,4,5,5,6,6],"right_children":[2,4,6,8,10,12,14,-1,-1,-1,-1,-1,-1,-1,-1],"split_conditions":[2.6666667E0,6.875E-1,1E0,1E0,7.8E-1,1.885E0,8.625E0,2.5396673E-3,2.23473E-2,-3.190535E-2,1.3629624E-3,2.1011977E-2,3.40439E-3,-3.2501188E-3,1.1600691E-2],"split_indices":[1,3,5,6,3,3,3,0,0,0,0,0,0,0,0],"split_type":[0,0,0,0,0,0,0,0,0,0,0,0,0,0,0],"sum_hessian":[2.05E3,1.388E3,6.62E2,2.9E1,1.359E3,2.4E1,6.38E2,1.5E1,1.4E1,9E0,1.35E3,1.7E1,7E0,6.22E2,1.6E1],"tree_param":{"num_deleted":"0","num_feature":"20","num_nodes":"15","size_leaf_vector":"1"}},{"base_weights":[4.2596515E-3,1.3987611E-2,-2.9196044E-2,4.2059865E-2,-5.9969723E-4,-6.6270623E-3,-1.6909072E-1,1.2509212E-3,1.6788734E-2,-1.3757925E-2,1.1529325E-3,7.60647E-4,-1.081599E-2,1.6221624E-2,-1.9991701E-2],"categories":[],"categories_nodes":[],"categories_segments":[],"categories_sizes":[],"default_left":[0,0,0,0,0,0,0,0,0,0,0,0,0,0,0],"id":41,"left_children":[1,3,5,7,9,11,13,-1,-1,-1,-1,-1,-1,-1,-1],"loss_changes":[6.659652E-1,6.4908063E-1,1.4543855E0,2.0132098E0,1.7361168E0,5.7600075E-1,6.8605936E-1,0E0,0E0,0E0,0E0,0E0,0E0,0E0,0E0],"parents":[2147483647,0,0,1,1,2,2,3,3,4,4,5,5,6,6],"right_children":[2,4,6,8,10,12,14,-1,-1,-1,-1,-1,-1,-1,-1],"split_conditions":[3.3333333E0,6.333333E-1,3.3333334E-1,5.470588E-1,7.111111E-1,5.25E0,1E0,1.2509212E-3,1.6788734E-2,-1.3757925E-2,1.1529325E-3,7.60647E-4,-1.081599E-2,1.6221624E-2,-1.9991701E-2],"split_indices":[1,12,2,12,12,3,4,0,0,0,0,0,0,0,0],"split_type":[0,0,0,0,0,0,0,0,0,0,0,0,0,0,0],"sum_hessian":[2.044E3,1.584E3,4.6E2,5.41E2,1.043E3,3.97E2,6.3E1,4.39E2,1.02E2,8.4E1,9.59E2,3.49E2,4.8E1,5E0,5.8E1],"tree_param":{"num_deleted":"0","num_feature":"20","num_nodes":"15","size_leaf_vector":"1"}},{"base_weights":[1.1025895E-3,1.0200253E-1,-9.4288756E-4,4.1569117E-3,2.045326E-1,1.2742073E-2,-1.4872501E-2,-5.4541286E-3,2.8193414E-2,-9.984097E-3,2.438986E-2,-7.388892E-4,6.024632E-3,-4.099717E-3,2.6642105E-3],"categories":[],"categories_nodes":[],"categories_segments":[],"categories_sizes":[],"default_left":[0,0,0,0,0,0,0,0,0,0,0,0,0,0,0],"id":42,"left_children":[1,3,5,7,9,11,13,-1,-1,-1,-1,-1,-1,-1,-1],"loss_changes":[4.258757E-1,4.1046652E-1,3.8582632E-1,3.7408754E-1,2.6399046E-1,9.768339E-1,1.0889012E0,0E0,0E0,0E0,0E0,0E0,0E0,0E0,0E0],"parents":[2147483647,0,0,1,1,2,2,3,3,4,4,5,5,6,6],"right_children":[2,4,6,8,10,12,14,-1,-1,-1,-1,-1,-1,-1,-1],"split_conditions":[1E0,3.3333333E0,5E0,5E0,1E0,3E0,1.3E1,-5.4541286E-3,2.8193414E-2,-9.984097E-3,2.438986E-2,-7.388892E-4,6.024632E-3,-4.099717E-3,2.6642105E-3],"split_indices":[5,1,18,6,4,18,10,0,0,0,0,0,0,0,0],"split_type":[0,0,0,0,0,0,0,0,0,0,0,0,0,0,0],"sum_hessian":[2.062E3,4E1,2.022E3,2.1E1,1.9E1,1.02E3,1.002E3,1.8E1,3E0,2E0,1.7E1,7.17E2,3.03E2,6.15E2,3.87E2],"tree_param":{"num_deleted":"0","num_feature":"20","num_nodes":"15","size_leaf_vector":"1"}},{"base_weights":[2.3798023E-3,-9.385514E-3,2.8689248E-2,8.103261E-3,-3.7208848E-2,1.0436411E-1,9.185768E-3,3.8754323E-4,4.102559E-2,-1.6779665E-2,-2.0063121E-3,1.2985977E-2,-4.3994028E-2,2.4910597E-2,3.3034297E-4],"categories":[],"categories_nodes":[],"categories_segments":[],"categories_sizes":[],"default_left":[0,0,0,0,0,0,0,0,0,0,0,0,0,0,0],"id":43,"left_children":[1,3,5,7,9,11,13,-1,-1,-1,-1,-1,-1,-1,-1],"loss_changes":[6.311096E-1,6.859153E-1,9.288731E-1,1.4708112E0,1.2146616E0,1.847315E0,7.0764554E-1,0E0,0E0,0E0,0E0,0E0,0E0,0E0,0E0],"parents":[2147483647,0,0,1,1,2,2,3,3,4,4,5,5,6,6],"right_children":[2,4,6,8,10,12,14,-1,-1,-1,-1,-1,-1,-1,-1],"split_conditions":[1.1818181E0,6.2068963E-1,1.3953488E0,3.375E0,6.612245E-1,1.7E1,2.76E0,3.8754323E-4,4.102559E-2,-1.6779665E-2,-2.0063121E-3,1.2985977E-2,-4.3994028E-2,2.4910597E-2,3.3034297E-4],"split_indices":[12,12,12,3,12,10,3,0,0,0,0,0,0,0,0],"split_type":[0,0,0,0,0,0,0,0,0,0,0,0,0,0,0],"sum_hessian":[2.037E3,1.408E3,6.29E2,8.65E2,5.43E2,1.28E2,5.01E2,8.57E2,8E0,6.2E1,4.81E2,1.23E2,5E0,1.1E1,4.9E2],"tree_param":{"num_deleted":"0","num_feature":"20","num_nodes":"15","size_leaf_vector":"1"}},{"base_weights":[-1.3078366E-2,1.0870995E-2,-3.1295206E-2,1.0404986E-3,1.2723143E-1,-1.23091556E-1,-1.8098025E-2,7.8603125E-4,-1.5404058E-2,2.225889E-2,-9.678715E-3,6.4367387E-3,-1.5384597E-2,-4.743314E-3,6.994698E-4],"categories":[],"categories_nodes":[],"categories_segments":[],"categories_sizes":[],"default_left":[0,0,0,0,0,0,0,0,0,0,0,0,0,0,0],"id":44,"left_children":[1,3,5,7,9,11,13,-1,-1,-1,-1,-1,-1,-1,-1],"loss_changes":[8.811929E-1,9.984756E-1,1.3873088E0,8.5365576E-1,1.4741492E0,8.400898E-1,7.3937404E-1,0E0,0E0,0E0,0E0,0E0,0E0,0E0,0E0],"parents":[2147483647,0,0,1,1,2,2,3,3,4,4,5,5,6,6],"right_children":[2,4,6,8,10,12,14,-1,-1,-1,-1,-1,-1,-1,-1],"split_conditions":[6.333333E-1,5.8809525E-1,7.3783785E-1,5.675676E-1,4.9E0,1E0,3E0,7.8603125E-4,-1.5404058E-2,2.225889E-2,-9.678715E-3,6.4367387E-3,-1.5384597E-2,-4.743314E-3,6.994698E-4],"split_indices":[12,12,12,12,17,6,18,0,0,0,0,0,0,0,0],"split_type":[0,0,0,0,0,0,0,0,0,0,0,0,0,0,0],"sum_hessian":[2.018E3,8.72E2,1.146E3,8.05E2,6.7E1,1.43E2,1.003E3,7.72E2,3.3E1,4.7E1,2E1,2E1,1.23E2,4.62E2,5.41E2],"tree_param":{"num_deleted":"0","num_feature":"20","num_nodes":"15","size_leaf_vector":"1"}},{"base_weights":[-5.103477E-3,-5.9284815E-3,1.6205776E-1,-1.0671287E-3,-4.249694E-2,2.8359061E-2,-2.1604916E-2,-3.0204523E-4,3.457545E-2,-1.7481131E-2,-2.1736952E-3],"categories":[],"categories_nodes":[],"categories_segments":[],"categories_sizes":[],"default_left":[0,0,0,0,0,0,0,0,0,0,0],"id":45,"left_children":[1,3,5,7,9,-1,-1,-1,-1,-1,-1],"loss_changes":[2.807776E-1,3.5905442E-1,5.207937E-1,1.2096236E0,6.4720243E-1,0E0,0E0,0E0,0E0,0E0,0E0],"parents":[2147483647,0,0,1,1,2,2,3,3,4,4],"right_children":[2,4,6,8,10,-1,-1,-1,-1,-1,-1],"split_conditions":[2E1,2.0689654E0,2.4E1,2.0465117E0,2.2222223E0,2.8359061E-2,-2.1604916E-2,-3.0204523E-4,3.457545E-2,-1.7481131E-2,-2.1736952E-3],"split_indices":[10,12,10,12,12,0,0,0,0,0,0],"split_type":[0,0,0,0,0,0,0,0,0,0,0],"sum_hessian":[2.028E3,2.019E3,9E0,1.783E3,2.36E2,7E0,2E0,1.774E3,9E0,3.1E1,2.05E2],"tree_param":{"num_deleted":"0","num_feature":"20","num_nodes":"11","size_leaf_vector":"1"}},{"base_weights":[2.136565E-3,1.2892962E-1,3.0705988E-4,2.8107685E-1,5.7584155E-2,-2.8967422E-2,6.5144757E-3,-1.6058267E-3,3.6826663E-2,1.1265068E-2,-3.1036526E-2,5.4986137E-3,-5.306729E-3,1.0095684E-2,2.4789487E-4],"categories":[],"categories_nodes":[],"categories_segments":[],"categories_sizes":[],"default_left":[0,0,0,0,0,0,0,0,0,0,0,0,0,0,0],"id":46,"left_children":[1,3,5,7,9,11,13,-1,-1,-1,-1,-1,-1,-1,-1],"loss_changes":[4.7294426E-1,2.986098E-1,3.6562538E-1,2.3907804E-1,4.6045855E-1,7.151089E-1,6.324167E-1,0E0,0E0,0E0,0E0,0E0,0E0,0E0,0E0],"parents":[2147483647,0,0,1,1,2,2,3,3,4,4,5,5,6,6],"right_children":[2,4,6,8,10,12,14,-1,-1,-1,-1,-1,-1,-1,-1],"split_conditions":[9.593023E-2,2.6666667E0,1E0,6.666667E-1,1E0,7.1428573E-1,2E0,-1.6058267E-3,3.6826663E-2,1.1265068E-2,-3.1036526E-2,5.4986137E-3,-5.306729E-3,1.0095684E-2,2.4789487E-4],"split_indices":[12,1,0,1,6,12,16,0,0,0,0,0,0,0,0],"split_type":[0,0,0,0,0,0,0,0,0,0,0,0,0,0,0],"sum_hessian":[2.038E3,2.8E1,2.01E3,8E0,2E1,3.51E2,1.659E3,2E0,6E0,1.8E1,2E0,7.8E1,2.73E2,6.7E1,1.592E3],"tree_param":{"num_deleted":"0","num_feature":"20","num_nodes":"15","size_leaf_vector":"1"}},{"base_weights":[8.034483E-3,-6.9758086E-3,2.9501043E-2,-1.526967E-3,-1.6754223E-1,2.908937E-1,2.6051138E-2,-5.8609335E-4,2.6360968E-2,2.4979342E-2,-1.9608079E-2,4.2963505E-2,3.8477106E-3,3.1773746E-3,-1.0680371E-2],"categories":[],"categories_nodes":[],"categories_segments":[],"categories_sizes":[],"default_left":[0,0,0,0,0,0,0,0,0,0,0,0,0,0,0],"id":47,"left_children":[1,3,5,7,9,11,13,-1,-1,-1,-1,-1,-1,-1,-1],"loss_changes":[6.6719973E-1,1.0662485E0,7.6073843E-1,1.3574749E0,5.253856E-1,3.6869562E-1,6.4354634E-1,0E0,0E0,0E0,0E0,0E0,0E0,0E0,0E0],"parents":[2147483647,0,0,1,1,2,2,3,3,4,4,5,5,6,6],"right_children":[2,4,6,8,10,12,14,-1,-1,-1,-1,-1,-1,-1,-1],"split_conditions":[9.2727274E-1,8.857143E-1,2.04E0,8.7096775E-1,1E0,9.767442E-1,1.8E1,-5.8609335E-4,2.6360968E-2,2.4979342E-2,-1.9608079E-2,4.2963505E-2,3.8477106E-3,3.1773746E-3,-1.0680371E-2],"split_indices":[12,12,3,12,5,12,10,0,0,0,0,0,0,0,0],"split_type":[0,0,0,0,0,0,0,0,0,0,0,0,0,0,0],"sum_hessian":[2.069E3,1.218E3,8.51E2,1.179E3,3.9E1,1E1,8.41E2,1.161E3,1.8E1,2E0,3.7E1,6E0,4E0,8.07E2,3.4E1],"tree_param":{"num_deleted":"0","num_feature":"20","num_nodes":"15","size_leaf_vector":"1"}},{"base_weights":[3.922917E-3,3.4784824E-2,-7.5168735E-3,6.303793E-3,9.1103956E-2,-1.2782457E-1,1.1492666E-3,1.089536E-3,-3.31978E-2,2.2442376E-3,1.379133E-2,1.4958769E-3,-2.0050507E-2,1.566806E-2,-5.0728384E-4],"categories":[],"categories_nodes":[],"categories_segments":[],"categories_sizes":[],"default_left":[0,0,0,0,0,0,0,0,0,0,0,0,0,0,0],"id":48,"left_children":[1,3,5,7,9,11,13,-1,-1,-1,-1,-1,-1,-1,-1],"loss_changes":[7.2719914E-1,8.928688E-1,1.5671799E0,5.7987046E-1,5.9792364E-1,1.0511329E0,1.3585231E0,0E0,0E0,0E0,0E0,0E0,0E0,0E0,0E0],"parents":[2147483647,0,0,1,1,2,2,3,3,4,4,5,5,6,6],"right_children":[2,4,6,8,10,12,14,-1,-1,-1,-1,-1,-1,-1,-1],"split_conditions":[1.68E0,3E0,1.885E0,7.758621E-1,1.38E0,3E0,2.015E0,1.089536E-3,-3.31978E-2,2.2442376E-3,1.379133E-2,1.4958769E-3,-2.0050507E-2,1.566806E-2,-5.0728384E-4],"split_indices":[3,6,3,12,3,18,3,0,0,0,0,0,0,0,0],"split_type":[0,0,0,0,0,0,0,0,0,0,0,0,0,0,0],"sum_hessian":[2.058E3,5.56E2,1.502E3,3.7E2,1.86E2,1E2,1.402E3,3.66E2,4E0,7.6E1,1.1E2,3.4E1,6.6E1,5.3E1,1.349E3],"tree_param":{"num_deleted":"0","num_feature":"20","num_nodes":"15","size_leaf_vector":"1"}},{"base_weights":[-3.268004E-3,-5.081814E-2,8.40206E-4,1.3269297E-2,-1.3088973E-1,1.4932542E-1,-2.4350677E-3,-1.4010551E-3,2.6640687E-2,-1.4945514E-2,3.521211E-2,-1.5611075E-2,2.1680083E-2,-1.07250605E-2,1.8480711E-4],"categories":[],"categories_nodes":[],"categories_segments":[],"categories_sizes":[],"default_left":[0,0,0,0,0,0,0,0,0,0,0,0,0,0,0],"id":49,"left_children":[1,3,5,7,9,11,13,-1,-1,-1,-1,-1,-1,-1,-1],"loss_changes":[4.02846E-1,8.4331644E-1,9.239037E-1,6.3904357E-1,7.072382E-1,8.7883157E-1,8.347767E-1,0E0,0E0,0E0,0E0,0E0,0E0,0E0,0E0],"parents":[2147483647,0,0,1,1,2,2,3,3,4,4,5,5,6,6],"right_children":[2,4,6,8,10,12,14,-1,-1,-1,-1,-1,-1,-1,-1],"split_conditions":[2.1176471E-1,7.8E-1,2.34375E-1,3E0,1.3E0,7.5E-1,2.647059E-1,-1.4010551E-3,2.6640687E-2,-1.4945514E-2,3.521211E-2,-1.5611075E-2,2.1680083E-2,-1.07250605E-2,1.8480711E-4],"split_indices":[12,3,12,6,3,3,12,0,0,0,0,0,0,0,0],"split_type":[0,0,0,0,0,0,0,0,0,0,0,0,0,0,0],"sum_hessian":[2.061E3,1.63E2,1.898E3,9.1E1,7.2E1,4E1,1.858E3,8.3E1,8E0,7E1,2E0,7E0,3.3E1,7.2E1,1.786E3],"tree_param":{"num_deleted":"0","num_feature":"20","num_nodes":"15","size_leaf_vector":"1"}},{"base_weights":[-1.2842132E-3,-5.224612E-3,3.8923487E-2,1.7153899E-3,-5.0119407E-2,1.3860461E-1,-3.1582896E-2,-3.4723233E-4,7.726991E-3,-2.3375839E-2,-3.3134462E-3,1.7621579E-2,-1.3450765E-3,-7.0565785E-3,1.8124115E-2],"categories":[],"categories_nodes":[],"categories_segments":[],"categories_sizes":[],"default_left":[0,0,0,0,0,0,0,0,0,0,0,0,0,0,0],"id":50,"left_children":[1,3,5,7,9,11,13,-1,-1,-1,-1,-1,-1,-1,-1],"loss_changes":[3.2483542E-1,5.817871E-1,1.29053E0,6.344518E-1,7.720292E-1,4.370128E-1,9.0881085E-1,0E0,0E0,0E0,0E0,0E0,0E0,0E0,0E0],"parents":[2147483647,0,0,1,1,2,2,3,3,4,4,5,5,6,6],"right_children":[2,4,6,8,10,12,14,-1,-1,-1,-1,-1,-1,-1,-1],"split_conditions":[8E0,5.6E0,1E0,4.8E0,2E-1,1.36E1,1E1,-3.4723233E-4,7.726991E-3,-2.3375839E-2,-3.3134462E-3,1.7621579E-2,-1.3450765E-3,-7.0565785E-3,1.8124115E-2],"split_indices":[3,3,19,3,1,3,18,0,0,0,0,0,0,0,0],"split_type":[0,0,0,0,0,0,0,0,0,0,0,0,0,0,0],"sum_hessian":[2.048E3,1.866E3,1.82E2,1.617E3,2.49E2,7.5E1,1.07E2,1.514E3,1.03E2,2E1,2.29E2,6E1,1.5E1,9.1E1,1.6E1],"tree_param":{"num_deleted":"0","num_feature":"20","num_nodes":"15","size_leaf_vector":"1"}},{"base_weights":[2.4564532E-3,2.9681284E-2,-9.043116E-3,2.6070705E-2,3.3646685E-1,-1.95009E-1,-1.3886445E-3,8.4954017E-4,5.9651984E-3,-2.096453E-2,4.6242643E-2,-1.5538323E-2,-3.6571175E-2,1.1503201E-2,-6.559902E-4],"categories":[],"categories_nodes":[],"categories_segments":[],"categories_sizes":[],"default_left":[0,0,0,0,0,0,0,0,0,0,0,0,0,0,0],"id":51,"left_children":[1,3,5,7,9,11,13,-1,-1,-1,-1,-1,-1,-1,-1],"loss_changes":[6.4206976E-1,6.658016E-1,2.0523736E0,3.5538456E-1,5.7846195E-1,3.287356E-1,8.351836E-1,0E0,0E0,0E0,0E0,0E0,0E0,0E0,0E0],"parents":[2147483647,0,0,1,1,2,2,3,3,4,4,5,5,6,6],"right_children":[2,4,6,8,10,12,14,-1,-1,-1,-1,-1,-1,-1,-1],"split_conditions":[1.8E0,1.75E0,1.885E0,3E0,1.4E1,5E0,2.015E0,8.4954017E-4,5.9651984E-3,-2.096453E-2,4.6242643E-2,-1.5538323E-2,-3.6571175E-2,1.1503201E-2,-6.559902E-4],"split_indices":[3,3,3,6,10,6,3,0,0,0,0,0,0,0,0],"split_type":[0,0,0,0,0,0,0,0,0,0,0,0,0,0,0],"sum_hessian":[2.049E3,6.08E2,1.441E3,6.02E2,6E0,5.6E1,1.385E3,3.96E2,2.06E2,1E0,5E0,4.7E1,9E0,5.8E1,1.327E3],"tree_param":{"num_deleted":"0","num_feature":"20","num_nodes":"15","size_leaf_vector":"1"}},{"base_weights":[-9.3428455E-3,-1.927043E-3,-4.8174158E-2,-1.035296E-2,3.715238E-2,-1.6463962E-1,-2.8179418E-2,-6.2455335E-3,-3.2587547E-4,8.384477E-3,-2.2134137E-4,-1.9811563E-2,2.5312541E-2,2.1266235E-2,-3.5083254E-3],"categories":[],"categories_nodes":[],"categories_segments":[],"categories_sizes":[],"default_left":[0,0,0,0,0,0,0,0,0,0,0,0,0,0,0],"id":52,"left_children":[1,3,5,7,9,11,13,-1,-1,-1,-1,-1,-1,-1,-1],"loss_changes":[5.90812E-1,5.6806326E-1,7.615017E-1,5.2429426E-1,5.6263906E-1,7.214333E-1,4.763512E-1,0E0,0E0,0E0,0E0,0E0,0E0,0E0,0E0],"parents":[2147483647,0,0,1,1,2,2,3,3,4,4,5,5,6,6],"right_children":[2,4,6,8,10,12,14,-1,-1,-1,-1,-1,-1,-1,-1],"split_conditions":[1.8055556E0,1.1818181E0,1.95E0,1E0,1.425926E0,8E0,2E0,-6.2455335E-3,-3.2587547E-4,8.384477E-3,-2.2134137E-4,-1.9811563E-2,2.5312541E-2,2.1266235E-2,-3.5083254E-3],"split_indices":[12,12,12,0,12,1,12,0,0,0,0,0,0,0,0],"split_type":[0,0,0,0,0,0,0,0,0,0,0,0,0,0,0],"sum_hessian":[2.051E3,1.723E3,3.28E2,1.418E3,3.05E2,4.7E1,2.81E2,1.69E2,1.249E3,1.39E2,1.66E2,4.4E1,3E0,7E0,2.74E2],"tree_param":{"num_deleted":"0","num_feature":"20","num_nodes":"15","size_leaf_vector":"1"}},{"base_weights":[2.358002E-3,-2.7962128E-2,1.46889305E-2,-1.8273639E-2,-2.296671E-1,1.0556111E-2,1.8686289E-1,3.6188185E-3,-4.3211607E-3,-2.561128E-2,-1.3576307E-3,-3.4023025E-3,2.237626E-3,2.4220293E-2,-1.8254997E-2],"categories":[],"categories_nodes":[],"categories_segments":[],"categories_sizes":[],"default_left":[0,0,0,0,0,0,0,0,0,0,0,0,0,0,0],"id":53,"left_children":[1,3,5,7,9,11,13,-1,-1,-1,-1,-1,-1,-1,-1],"loss_changes":[7.6423806E-1,1.1507452E0,1.0319297E0,7.689282E-1,1.5081894E-1,7.490047E-1,7.3928714E-1,0E0,0E0,0E0,0E0,0E0,0E0,0E0,0E0],"parents":[2147483647,0,0,1,1,2,2,3,3,4,4,5,5,6,6],"right_children":[2,4,6,8,10,12,14,-1,-1,-1,-1,-1,-1,-1,-1],"split_conditions":[4.3636364E-1,4.1860464E-1,6.4E0,4.3E0,3.3333334E-1,1E0,1.05E1,3.6188185E-3,-4.3211607E-3,-2.561128E-2,-1.3576307E-3,-3.4023025E-3,2.237626E-3,2.4220293E-2,-1.8254997E-2],"split_indices":[12,12,17,17,2,0,3,0,0,0,0,0,0,0,0],"split_type":[0,0,0,0,0,0,0,0,0,0,0,0,0,0,0],"sum_hessian":[2.042E3,5.9E2,1.452E3,5.64E2,2.6E1,1.419E3,3.3E1,1.77E2,3.87E2,2.3E1,3E0,2.97E2,1.122E3,2.9E1,4E0],"tree_param":{"num_deleted":"0","num_feature":"20","num_nodes":"15","size_leaf_vector":"1"}},{"base_weights":[1.0415348E-2,1.3634244E-1,8.211925E-3,-1.9835861E-2,2.1868919E-1,3.768085E-2,1.026867E-3,-7.863689E-3,2.0237988E-2,3.169343E-2,1.1873648E-2,-1.1558196E-3,8.3823595E-3,-1.0163606E-2,6.52121E-4],"categories":[],"categories_nodes":[],"categories_segments":[],"categories_sizes":[],"default_left":[0,0,0,0,0,0,0,0,0,0,0,0,0,0,0],"id":54,"left_children":[1,3,5,7,9,11,13,-1,-1,-1,-1,-1,-1,-1,-1],"loss_changes":[5.64643E-1,4.5446503E-1,4.2449182E-1,1.8577918E-1,1.8822527E-1,8.938745E-1,9.1050017E-1,0E0,0E0,0E0,0E0,0E0,0E0,0E0,0E0],"parents":[2147483647,0,0,1,1,2,2,3,3,4,4,5,5,6,6],"right_children":[2,4,6,8,10,12,14,-1,-1,-1,-1,-1,-1,-1,-1],"split_conditions":[1E0,3E0,1.5E0,2.04E0,8E0,1.04E0,3.2903227E-1,-7.863689E-3,2.0237988E-2,3.169343E-2,1.1873648E-2,-1.1558196E-3,8.3823595E-3,-1.0163606E-2,6.52121E-4],"split_indices":[5,18,3,3,18,3,12,0,0,0,0,0,0,0,0],"split_type":[0,0,0,0,0,0,0,0,0,0,0,0,0,0,0],"sum_hessian":[2.038E3,3.4E1,2.004E3,1.2E1,2.2E1,3.92E2,1.612E3,1E1,2E0,1E1,1.2E1,1.9E2,2.02E2,8.1E1,1.531E3],"tree_param":{"num_deleted":"0","num_feature":"20","num_nodes":"15","size_leaf_vector":"1"}},{"base_weights":[-1.4908792E-3,-6.536565E-2,1.9749429E-3,6.4531945E-2,-1.0838902E-1,2.3734035E-2,-1.34196775E-2,-9.318738E-3,2.4155179E-2,1.2448668E-2,-1.3242486E-2,1.225493E-3,1.5734589E-2,-2.0568907E-2,-5.9119676E-4],"categories":[],"categories_nodes":[],"categories_segments":[],"categories_sizes":[],"default_left":[0,0,0,0,0,0,0,0,0,0,0,0,0,0,0],"id":55,"left_children":[1,3,5,7,9,11,13,-1,-1,-1,-1,-1,-1,-1,-1],"loss_changes":[4.559476E-1,5.9938955E-1,6.548556E-1,7.7633464E-1,4.642741E-1,1.2404046E0,1.6515948E0,0E0,0E0,0E0,0E0,0E0,0E0,0E0,0E0],"parents":[2147483647,0,0,1,1,2,2,3,3,4,4,5,5,6,6],"right_children":[2,4,6,8,10,12,14,-1,-1,-1,-1,-1,-1,-1,-1],"split_conditions":[1.7586207E-1,9.593023E-2,6.333333E-1,5.5E0,2E0,5.8809525E-1,6.612245E-1,-9.318738E-3,2.4155179E-2,1.2448668E-2,-1.3242486E-2,1.225493E-3,1.5734589E-2,-2.0568907E-2,-5.9119676E-4],"split_indices":[12,12,12,17,16,12,12,0,0,0,0,0,0,0,0],"split_type":[0,0,0,0,0,0,0,0,0,0,0,0,0,0,0],"sum_hessian":[2.058E3,1.05E2,1.953E3,2.6E1,7.9E1,8.09E2,1.144E3,1.4E1,1.2E1,7E0,7.2E1,7.46E2,6.3E1,4.2E1,1.102E3],"tree_param":{"num_deleted":"0","num_feature":"20","num_nodes":"15","size_leaf_vector":"1"}},{"base_weights":[-4.4833412E-3,-4.3256585E-2,5.7261408E-5,1.3707778E-2,-9.206124E-2,4.2305883E-2,-4.9057137E-3,-1.1124334E-2,6.807083E-3,-1.3171069E-2,9.546537E-3,-4.109861E-3,8.149519E-3,-9.23018E-3,-1.889799E-5],"categories":[],"categories_nodes":[],"categories_segments":[],"categories_sizes":[],"default_left":[0,0,0,0,0,0,0,0,0,0,0,0,0,0,0],"id":56,"left_children":[1,3,5,7,9,11,13,-1,-1,-1,-1,-1,-1,-1,-1],"loss_changes":[3.64434E-1,6.045493E-1,3.8895214E-1,6.9363755E-1,8.8250715E-1,6.4071923E-1,6.8427444E-1,0E0,0E0,0E0,0E0,0E0,0E0,0E0,0E0],"parents":[2147483647,0,0,1,1,2,2,3,3,4,4,5,5,6,6],"right_children":[2,4,6,8,10,12,14,-1,-1,-1,-1,-1,-1,-1,-1],"split_conditions":[1.04E0,1E0,1.5E0,3E0,3.3333334E-1,2E0,3.2903227E-1,-1.1124334E-2,6.807083E-3,-1.3171069E-2,9.546537E-3,-4.109861E-3,8.149519E-3,-9.23018E-3,-1.889799E-5],"split_indices":[3,6,3,18,2,18,12,0,0,0,0,0,0,0,0],"split_type":[0,0,0,0,0,0,0,0,0,0,0,0,0,0,0],"sum_hessian":[2.069E3,2.16E2,1.853E3,1E2,1.16E2,1.94E2,1.659E3,3E1,7E1,9.6E1,2E1,6.2E1,1.32E2,8.4E1,1.575E3],"tree_param":{"num_deleted":"0","num_feature":"20","num_nodes":"15","size_leaf_vector":"1"}},{"base_weights":[9.790838E-3,2.1914436E-2,-2.780793E-3,-5.600212E-3,3.3955105E-2,5.0930795E-3,-7.109595E-2,-2.2051816E-3,1.08055845E-2,1.4633321E-3,6.308929E-3,7.497298E-3,-8.6468103E-4,1.8519456E-2,-1.069276E-2],"categories":[],"categories_nodes":[],"categories_segments":[],"categories_sizes":[],"default_left":[0,0,0,0,0,0,0,0,0,0,0,0,0,0,0],"id":57,"left_children":[1,3,5,7,9,11,13,-1,-1,-1,-1,-1,-1,-1,-1],"loss_changes":[3.0900294E-1,3.4208632E-1,5.3611535E-1,5.9137744E-1,4.0325654E-1,8.5901535E-1,9.6568364E-1,0E0,0E0,0E0,0E0,0E0,0E0,0E0,0E0],"parents":[2147483647,0,0,1,1,2,2,3,3,4,4,5,5,6,6],"right_children":[2,4,6,8,10,12,14,-1,-1,-1,-1,-1,-1,-1,-1],"split_conditions":[5E0,1E0,3.3333334E-1,8.25E0,2E0,1.38E0,1E0,-2.2051816E-3,1.08055845E-2,1.4633321E-3,6.308929E-3,7.497298E-3,-8.6468103E-4,1.8519456E-2,-1.069276E-2],"split_indices":[18,19,2,3,18,3,19,0,0,0,0,0,0,0,0],"split_type":[0,0,0,0,0,0,0,0,0,0,0,0,0,0,0],"sum_hessian":[2.026E3,1.031E3,9.95E2,3.14E2,7.17E2,8.93E2,1.02E2,2.75E2,3.9E1,4.32E2,2.85E2,1.46E2,7.47E2,1.2E1,9E1],"tree_param":{"num_deleted":"0","num_feature":"20","num_nodes":"15","size_leaf_vector":"1"}},{"base_weights":[-1.1265005E-2,-6.9016144E-3,-9.23999E-2,-2.0721368E-3,-5.0480116E-2,-1.55460825E-2,-1.4545101E-1,8.819423E-3,-3.9536646E-4,-7.4043893E-3,8.695542E-3,-6.8867616E-3,2.7613455E-2,-1.1133714E-2,-3.117094E-2],"categories":[],"categories_nodes":[],"categories_segments":[],"categories_sizes":[],"default_left":[0,0,0,0,0,0,0,0,0,0,0,0,0,0,0],"id":58,"left_children":[1,3,5,7,9,11,13,-1,-1,-1,-1,-1,-1,-1,-1],"loss_changes":[7.282962E-1,4.113474E-1,4.2584264E-1,2.9943457E-1,6.37946E-1,7.0334256E-1,3.1694174E-1,0E0,0E0,0E0,0E0,0E0,0E0,0E0,0E0],"parents":[2147483647,0,0,1,1,2,2,3,3,4,4,5,5,6,6],"right_children":[2,4,6,8,10,12,14,-1,-1,-1,-1,-1,-1,-1,-1],"split_conditions":[1E1,3E0,1E0,1E0,1.6E1,3E0,5.5E0,8.819423E-3,-3.9536646E-4,-7.4043893E-3,8.695542E-3,-6.8867616E-3,2.7613455E-2,-1.1133714E-2,-3.117094E-2],"split_indices":[6,5,4,5,10,5,17,0,0,0,0,0,0,0,0],"split_type":[0,0,0,0,0,0,0,0,0,0,0,0,0,0,0],"sum_hessian":[2.058E3,1.954E3,1.04E2,1.76E3,1.94E2,4.3E1,6.1E1,3.5E1,1.725E3,1.66E2,2.8E1,3.7E1,6E0,5.2E1,9E0],"tree_param":{"num_deleted":"0","num_feature":"20","num_nodes":"15","size_leaf_vector":"1"}},{"base_weights":[2.5907834E-3,1.7118405E-1,3.9367346E-4,3.3044063E-2,9.8922215E-2,-1.1789079E-1,4.0990575E-3,2.8684853E-2,-2.433414E-3,-2.4903951E-2,-5.856412E-4,7.704696E-3,-1.6255024E-5],"categories":[],"categories_nodes":[],"categories_segments":[],"categories_sizes":[],"default_left":[0,0,0,0,0,0,0,0,0,0,0,0,0],"id":59,"left_children":[1,3,5,-1,7,9,11,-1,-1,-1,-1,-1,-1],"loss_changes":[7.774399E-1,2.7803266E-1,9.0905714E-1,0E0,4.7024244E-1,9.242108E-1,6.2518287E-1,0E0,0E0,0E0,0E0,0E0,0E0],"parents":[2147483647,0,0,1,1,2,2,4,4,5,5,6,6],"right_children":[2,4,6,-1,8,10,12,-1,-1,-1,-1,-1,-1],"split_conditions":[9.593023E-2,2.6666667E0,1.6363636E-1,3.3044063E-2,2E0,8E0,2.34375E-1,2.8684853E-2,-2.433414E-3,-2.4903951E-2,-5.856412E-4,7.704696E-3,-1.6255024E-5],"split_indices":[12,1,12,0,5,1,12,0,0,0,0,0,0],"split_type":[0,0,0,0,0,0,0,0,0,0,0,0,0],"sum_hessian":[2.098E3,2.6E1,2.072E3,7E0,1.9E1,6.2E1,2.01E3,7E0,1.2E1,2.8E1,3.4E1,1.1E2,1.9E3],"tree_param":{"num_deleted":"0","num_feature":"20","num_nodes":"13","size_leaf_vector":"1"}},{"base_weights":[-7.7350005E-3,-6.0760308E-2,-1.647825E-3,1.2351067E-2,-1.2739635E-1,3.865951E-3,-7.277558E-2,4.4370084E-3,-2.5656715E-2,-4.124922E-3,-2.2089226E-2,-6.256698E-4,5.1473277E-3,4.0078264E-2,-8.306489E-3],"categories":[],"categories_nodes":[],"categories_segments":[],"categories_sizes":[],"default_left":[0,0,0,0,0,0,0,0,0,0,0,0,0,0,0],"id":60,"left_children":[1,3,5,7,9,11,13,-1,-1,-1,-1,-1,-1,-1,-1],"loss_changes":[6.6449225E-1,1.0344062E0,7.2503465E-1,8.896546E-1,8.8492715E-1,8.272834E-1,6.813448E-1,0E0,0E0,0E0,0E0,0E0,0E0,0E0,0E0],"parents":[2147483647,0,0,1,1,2,2,3,3,4,4,5,5,6,6],"right_children":[2,4,6,8,10,12,14,-1,-1,-1,-1,-1,-1,-1,-1],"split_conditions":[1.04E0,1E0,2.7209303E0,3E0,9E-1,1.5E1,5.6E0,4.4370084E-3,-2.5656715E-2,-4.124922E-3,-2.2089226E-2,-6.256698E-4,5.1473277E-3,4.0078264E-2,-8.306489E-3],"split_indices":[3,6,12,5,3,10,3,0,0,0,0,0,0,0,0],"split_type":[0,0,0,0,0,0,0,0,0,0,0,0,0,0,0],"sum_hessian":[2.058E3,2.11E2,1.847E3,1.01E2,1.1E2,1.715E3,1.32E2,9.1E1,1E1,5.8E1,5.2E1,1.415E3,3E2,2E0,1.3E2],"tree_param":{"num_deleted":"0","num_feature":"20","num_nodes":"15","size_leaf_vector":"1"}},{"base_weights":[1.1601945E-3,1.0642818E-1,-7.849257E-4,-2.5103608E-2,1.9725002E-1,-2.2452E-2,9.56983E-3,-2.0643678E-2,1.3887072E-2,9.3416115E-3,2.7599363E-2,-9.6215605E-4,-1.6631031E-2,1.420596E-2,6.1577203E-4],"categories":[],"categories_nodes":[],"categories_segments":[],"categories_sizes":[],"default_left":[0,0,0,0,0,0,0,0,0,0,0,0,0,0,0],"id":61,"left_children":[1,3,5,7,9,11,13,-1,-1,-1,-1,-1,-1,-1,-1],"loss_changes":[4.1758692E-1,4.4695225E-1,4.496025E-1,5.044117E-1,1.5409535E-1,1.194456E0,6.1213166E-1,0E0,0E0,0E0,0E0,0E0,0E0,0E0,0E0],"parents":[2147483647,0,0,1,1,2,2,3,3,4,4,5,5,6,6],"right_children":[2,4,6,8,10,12,14,-1,-1,-1,-1,-1,-1,-1,-1],"split_conditions":[1E0,3.7E0,1.885E0,7.5E-1,1E0,1.8E0,1.98E0,-2.0643678E-2,1.3887072E-2,9.3416115E-3,2.7599363E-2,-9.6215605E-4,-1.6631031E-2,1.420596E-2,6.1577203E-4],"split_indices":[5,17,3,3,19,3,3,0,0,0,0,0,0,0,0],"split_type":[0,0,0,0,0,0,0,0,0,0,0,0,0,0,0],"sum_hessian":[2.038E3,3.6E1,2.002E3,1.5E1,2.1E1,6.47E2,1.355E3,7E0,8E0,1E1,1.1E1,5.95E2,5.2E1,3.3E1,1.322E3],"tree_param":{"num_deleted":"0","num_feature":"20","num_nodes":"15","size_leaf_vector":"1"}},{"base_weights":[-2.7873626E-3,2.0437969E-2,-1.1645921E-2,1.1301096E-1,6.2558656E-3,-5.1131103E-2,-5.007513E-4,2.402283E-3,1.862201E-2,-2.0277267E-2,2.175961E-3,1.3661633E-3,-1.2182615E-2,4.8231706E-4,-5.55619E-3],"categories":[],"categories_nodes":[],"categories_segments":[],"categories_sizes":[],"default_left":[0,0,0,0,0,0,0,0,0,0,0,0,0,0,0],"id":62,"left_children":[1,3,5,7,9,11,13,-1,-1,-1,-1,-1,-1,-1,-1],"loss_changes":[4.2098236E-1,7.410701E-1,6.517167E-1,4.8413205E-1,1.5956081E0,1.4949155E0,3.3913925E-1,0E0,0E0,0E0,0E0,0E0,0E0,0E0,0E0],"parents":[2147483647,0,0,1,1,2,2,3,3,4,4,5,5,6,6],"right_children":[2,4,6,8,10,12,14,-1,-1,-1,-1,-1,-1,-1,-1],"split_conditions":[1.68E0,4E-1,2.46E0,3.3333334E-1,2.7E0,5E0,3.3333334E-1,2.402283E-3,1.862201E-2,-2.0277267E-2,2.175961E-3,1.3661633E-3,-1.2182615E-2,4.8231706E-4,-5.55619E-3],"split_indices":[3,1,3,2,17,18,2,0,0,0,0,0,0,0,0],"split_type":[0,0,0,0,0,0,0,0,0,0,0,0,0,0,0],"sum_hessian":[2.044E3,5.64E2,1.48E3,7.4E1,4.9E2,3.25E2,1.155E3,3.4E1,4E1,3.3E1,4.57E2,1.7E2,1.55E2,1.054E3,1.01E2],"tree_param":{"num_deleted":"0","num_feature":"20","num_nodes":"15","size_leaf_vector":"1"}},{"base_weights":[6.894689E-3,6.516108E-2,3.0270787E-3,1.7256422E-2,1.5404575E-1,-1.4996134E-1,6.650376E-3,-1.1194418E-2,7.487641E-3,1.3518167E-2,3.6679428E-2,-5.5440404E-3,-2.9682163E-2,1.3626314E-2,3.5759967E-4],"categories":[],"categories_nodes":[],"categories_segments":[],"categories_sizes":[],"default_left":[0,0,0,0,0,0,0,0,0,0,0,0,0,0,0],"id":63,"left_children":[1,3,5,7,9,11,13,-1,-1,-1,-1,-1,-1,-1,-1],"loss_changes":[4.5613995E-1,5.338484E-1,1.0542102E0,6.262786E-1,1.2700164E-1,5.943243E-1,7.3948777E-1,0E0,0E0,0E0,0E0,0E0,0E0,0E0,0E0],"parents":[2147483647,0,0,1,1,2,2,3,3,4,4,5,5,6,6],"right_children":[2,4,6,8,10,12,14,-1,-1,-1,-1,-1,-1,-1,-1],"split_conditions":[8.4E-1,8E0,1.96875E-1,1.375E-1,1.5882353E-1,1.7857143E-1,2.34375E-1,-1.1194418E-2,7.487641E-3,1.3518167E-2,3.6679428E-2,-5.5440404E-3,-2.9682163E-2,1.3626314E-2,3.5759967E-4],"split_indices":[3,18,12,12,12,12,12,0,0,0,0,0,0,0,0],"split_type":[0,0,0,0,0,0,0,0,0,0,0,0,0,0,0],"sum_hessian":[2.024E3,1.25E2,1.899E3,8.2E1,4.3E1,4.3E1,1.856E3,2.5E1,5.7E1,4.1E1,2E0,2.7E1,1.6E1,4.2E1,1.814E3],"tree_param":{"num_deleted":"0","num_feature":"20","num_nodes":"15","size_leaf_vector":"1"}},{"base_weights":[1.1214119E-3,-4.1715346E-2,7.085086E-3,-7.0005104E-2,7.702772E-2,1.1645097E-1,8.276647E-4,-2.5012866E-2,-4.860177E-3,1.9946177E-2,-6.4725005E-3,2.0424237E-2,-1.1563031E-3,-1.8723385E-2,4.1304852E-4],"categories":[],"categories_nodes":[],"categories_segments":[],"categories_sizes":[],"default_left":[0,0,0,0,0,0,0,0,0,0,0,0,0,0,0],"id":64,"left_children":[1,3,5,7,9,11,13,-1,-1,-1,-1,-1,-1,-1,-1],"loss_changes":[5.1633376E-1,8.351179E-1,1.2139376E0,7.588922E-1,8.459674E-1,1.0812602E0,1.0436563E0,0E0,0E0,0E0,0E0,0E0,0E0,0E0,0E0],"parents":[2147483647,0,0,1,1,2,2,3,3,4,4,5,5,6,6],"right_children":[2,4,6,8,10,12,14,-1,-1,-1,-1,-1,-1,-1,-1],"split_conditions":[2.647059E-1,3E0,3.1034482E-1,1.6E0,2.34375E-1,4.9E0,3.2903227E-1,-2.5012866E-2,-4.860177E-3,1.9946177E-2,-6.4725005E-3,2.0424237E-2,-1.1563031E-3,-1.8723385E-2,4.1304852E-4],"split_indices":[12,6,12,1,12,17,12,0,0,0,0,0,0,0,0],"split_type":[0,0,0,0,0,0,0,0,0,0,0,0,0,0,0],"sum_hessian":[2.019E3,2.46E2,1.773E3,1.99E2,4.7E1,9.5E1,1.678E3,2E1,1.79E2,2.5E1,2.2E1,5.6E1,3.9E1,2.8E1,1.65E3],"tree_param":{"num_deleted":"0","num_feature":"20","num_nodes":"15","size_leaf_vector":"1"}},{"base_weights":[-4.49384E-3,4.0591054E-2,-1.4040143E-2,2.5038445E-2,1.838484E-1,-2.3509459E-1,-9.645172E-3,3.3338664E-3,-2.3975233E-2,2.5286729E-2,6.2258146E-3,-1.3391885E-3,-3.1767514E-2,1.443095E-2,-1.1892286E-3],"categories":[],"categories_nodes":[],"categories_segments":[],"categories_sizes":[],"default_left":[0,0,0,0,0,0,0,0,0,0,0,0,0,0,0],"id":65,"left_children":[1,3,5,7,9,11,13,-1,-1,-1,-1,-1,-1,-1,-1],"loss_changes":[8.841689E-1,7.952579E-1,1.6444722E0,7.22285E-1,2.779777E-1,5.999203E-1,5.770372E-1,0E0,0E0,0E0,0E0,0E0,0E0,0E0,0E0],"parents":[2147483647,0,0,1,1,2,2,3,3,4,4,5,5,6,6],"right_children":[2,4,6,8,10,12,14,-1,-1,-1,-1,-1,-1,-1,-1],"split_conditions":[3.1034482E-1,2.9302326E-1,3.2903227E-1,1.56E0,4E0,1E0,3.488372E-1,3.3338664E-3,-2.3975233E-2,2.5286729E-2,6.2258146E-3,-1.3391885E-3,-3.1767514E-2,1.443095E-2,-1.1892286E-3],"split_indices":[12,12,12,3,16,13,12,0,0,0,0,0,0,0,0],"split_type":[0,0,0,0,0,0,0,0,0,0,0,0,0,0,0],"sum_hessian":[2.052E3,3.58E2,1.694E3,3.24E2,3.4E1,3.2E1,1.662E3,3.15E2,9E0,2.1E1,1.3E1,9E0,2.3E1,2.3E1,1.639E3],"tree_param":{"num_deleted":"0","num_feature":"20","num_nodes":"15","size_leaf_vector":"1"}},{"base_weights":[4.542706E-3,-1.9969098E-2,1.2232851E-2,-7.735199E-3,-1.1180091E-1,1.24250256E-1,7.48014E-3,3.879682E-3,-4.109843E-3,-2.075654E-2,-2.1697471E-3,2.7505204E-2,5.9261466E-3,3.5680165E-3,-1.0202803E-4],"categories":[],"categories_nodes":[],"categories_segments":[],"categories_sizes":[],"default_left":[0,0,0,0,0,0,0,0,0,0,0,0,0,0,0],"id":66,"left_children":[1,3,5,7,9,11,13,-1,-1,-1,-1,-1,-1,-1,-1],"loss_changes":[3.8987243E-1,5.54125E-1,8.3704674E-1,6.800189E-1,4.9596155E-1,6.109273E-1,3.6224136E-1,0E0,0E0,0E0,0E0,0E0,0E0,0E0,0E0],"parents":[2147483647,0,0,1,1,2,2,3,3,4,4,5,5,6,6],"right_children":[2,4,6,8,10,12,14,-1,-1,-1,-1,-1,-1,-1,-1],"split_conditions":[3.7790698E-1,3.5172415E-1,4.1363636E-1,4.8E0,3E0,2E0,6.333333E-1,3.879682E-3,-4.109843E-3,-2.075654E-2,-2.1697471E-3,2.7505204E-2,5.9261466E-3,3.5680165E-3,-1.0202803E-4],"split_indices":[12,12,12,17,6,5,12,0,0,0,0,0,0,0,0],"split_type":[0,0,0,0,0,0,0,0,0,0,0,0,0,0,0],"sum_hessian":[2.066E3,4.93E2,1.573E3,4.36E2,5.7E1,6.3E1,1.51E3,1.82E2,2.54E2,2.7E1,3E1,1.8E1,4.5E1,3.49E2,1.161E3],"tree_param":{"num_deleted":"0","num_feature":"20","num_nodes":"15","size_leaf_vector":"1"}},{"base_weights":[6.8103224E-3,4.1103445E-2,8.7867473E-4,6.797521E-2,-4.2651657E-2,-7.4382797E-3,3.82492E-2,5.3035934E-3,3.5514873E-2,-1.631788E-2,-5.95669E-4,6.03307E-4,-3.3252276E-3,-1.17835235E-2,5.825203E-3],"categories":[],"categories_nodes":[],"categories_segments":[],"categories_sizes":[],"default_left":[0,0,0,0,0,0,0,0,0,0,0,0,0,0,0],"id":67,"left_children":[1,3,5,7,9,11,13,-1,-1,-1,-1,-1,-1,-1,-1],"loss_changes":[4.1106504E-1,6.735922E-1,5.3611916E-1,9.507415E-1,3.2188797E-1,4.9087504E-1,9.872132E-1,0E0,0E0,0E0,0E0,0E0,0E0,0E0,0E0],"parents":[2147483647,0,0,1,1,2,2,3,3,4,4,5,5,6,6],"right_children":[2,4,6,8,10,12,14,-1,-1,-1,-1,-1,-1,-1,-1],"split_conditions":[2.7E0,1.4E1,1.5E1,6.3E0,3.18E0,8E0,3E-1,5.3035934E-3,3.5514873E-2,-1.631788E-2,-5.95669E-4,6.03307E-4,-3.3252276E-3,-1.17835235E-2,5.825203E-3],"split_indices":[17,10,10,3,3,18,1,0,0,0,0,0,0,0,0],"split_type":[0,0,0,0,0,0,0,0,0,0,0,0,0,0,0],"sum_hessian":[2.02E3,2.97E2,1.723E3,2.25E2,7.2E1,1.41E3,3.13E2,2.15E2,1E1,1.6E1,5.6E1,9.27E2,4.83E2,3.5E1,2.78E2],"tree_param":{"num_deleted":"0","num_feature":"20","num_nodes":"15","size_leaf_vector":"1"}},{"base_weights":[4.669011E-3,9.263627E-2,1.7165171E-3,-8.9157544E-2,1.5752713E-1,3.761196E-3,-1.1829E-1,2.208209E-2,-1.6587464E-2,3.951826E-3,2.4462244E-2,-4.4049188E-3,8.0053107E-4,-3.3662017E-2,8.235292E-3],"categories":[],"categories_nodes":[],"categories_segments":[],"categories_sizes":[],"default_left":[0,0,0,0,0,0,0,0,0,0,0,0,0,0,0],"id":68,"left_children":[1,3,5,7,9,11,13,-1,-1,-1,-1,-1,-1,-1,-1],"loss_changes":[5.278574E-1,7.9263085E-1,4.8334256E-1,4.6468014E-1,4.9395573E-1,3.9319173E-1,1.4733328E0,0E0,0E0,0E0,0E0,0E0,0E0,0E0,0E0],"parents":[2147483647,0,0,1,1,2,2,3,3,4,4,5,5,6,6],"right_children":[2,4,6,8,10,12,14,-1,-1,-1,-1,-1,-1,-1,-1],"split_conditions":[6.6E-1,1E0,1.8E1,2.6666667E0,2.6666667E0,1.04E0,8.625E0,2.208209E-2,-1.6587464E-2,3.951826E-3,2.4462244E-2,-4.4049188E-3,8.0053107E-4,-3.3662017E-2,8.235292E-3],"split_indices":[3,19,10,1,1,3,3,0,0,0,0,0,0,0,0],"split_type":[0,0,0,0,0,0,0,0,0,0,0,0,0,0,0],"sum_hessian":[2.032E3,6.5E1,1.967E3,1.7E1,4.8E1,1.935E3,3.2E1,3E0,1.4E1,2.1E1,2.7E1,1.57E2,1.778E3,1.5E1,1.7E1],"tree_param":{"num_deleted":"0","num_feature":"20","num_nodes":"15","size_leaf_vector":"1"}},{"base_weights":[1.1318839E-3,1.7936947E-2,-1.2500053E-2,-9.5431285E-4,7.4862376E-2,-1.5200058E-1,4.175231E-3,2.4161635E-4,-1.6411351E-2,2.2495618E-2,5.4530385E-3,-1.816499E-2,6.963124E-3,-2.4672684E-3,2.273025E-3],"categories":[],"categories_nodes":[],"categories_segments":[],"categories_sizes":[],"default_left":[0,0,0,0,0,0,0,0,0,0,0,0,0,0,0],"id":69,"left_children":[1,3,5,7,9,11,13,-1,-1,-1,-1,-1,-1,-1,-1],"loss_changes":[4.700787E-1,9.8835766E-1,2.6362317E0,3.8039413E-1,6.86574E-1,8.077676E-1,5.42793E-1,0E0,0E0,0E0,0E0,0E0,0E0,0E0,0E0],"parents":[2147483647,0,0,1,1,2,2,3,3,4,4,5,5,6,6],"right_children":[2,4,6,8,10,12,14,-1,-1,-1,-1,-1,-1,-1,-1],"split_conditions":[6.333333E-1,4.883721E-1,7.297297E-1,4.7586206E-1,4.9655172E-1,5.8E0,6E-1,2.4161635E-4,-1.6411351E-2,2.2495618E-2,5.4530385E-3,-1.816499E-2,6.963124E-3,-2.4672684E-3,2.273025E-3],"split_indices":[12,12,12,12,12,17,1,0,0,0,0,0,0,0,0],"split_type":[0,0,0,0,0,0,0,0,0,0,0,0,0,0,0],"sum_hessian":[2.05E3,9.18E2,1.132E3,6.9E2,2.28E2,1.2E2,1.012E3,6.77E2,1.3E1,2.6E1,2.02E2,1.06E2,1.4E1,3.96E2,6.16E2],"tree_param":{"num_deleted":"0","num_feature":"20","num_nodes":"15","size_leaf_vector":"1"}},{"base_weights":[6.1589982E-3,-1.2973239E-2,1.4125307E-2,-6.104158E-4,-2.0970128E-1,2.3060763E-1,1.2736442E-2,-2.841877E-4,2.4675757E-2,2.135671E-2,-2.5605667E-2,-1.5853325E-2,4.516003E-2,1.6620817E-3,-6.091781E-3],"categories":[],"categories_nodes":[],"categories_segments":[],"categories_sizes":[],"default_left":[0,0,0,0,0,0,0,0,0,0,0,0,0,0,0],"id":70,"left_children":[1,3,5,7,9,11,13,-1,-1,-1,-1,-1,-1,-1,-1],"loss_changes":[3.068388E-1,1.4396834E0,4.243075E-1,3.0871284E-1,7.4141216E-1,8.455689E-1,4.0527278E-1,0E0,0E0,0E0,0E0,0E0,0E0,0E0,0E0],"parents":[2147483647,0,0,1,1,2,2,3,3,4,4,5,5,6,6],"right_children":[2,4,6,8,10,12,14,-1,-1,-1,-1,-1,-1,-1,-1],"split_conditions":[4.3636364E-1,4.1538462E-1,4.3846154E-1,2.45E0,1E0,1.92E0,8E0,-2.841877E-4,2.4675757E-2,2.135671E-2,-2.5605667E-2,-1.5853325E-2,4.516003E-2,1.6620817E-3,-6.091781E-3],"split_indices":[12,12,12,3,6,3,1,0,0,0,0,0,0,0,0],"split_type":[0,0,0,0,0,0,0,0,0,0,0,0,0,0,0],"sum_hessian":[2.011E3,5.91E2,1.42E3,5.57E2,3.4E1,8E0,1.412E3,5.53E2,4E0,3E0,3.1E1,3E0,5E0,1.342E3,7E1],"tree_param":{"num_deleted":"0","num_feature":"20","num_nodes":"15","size_leaf_vector":"1"}}]},"name":"gbtree"},"learner_model_param":{"base_score":"5E-1","boost_from_average":"1","num_class":"0","num_feature":"20","num_target":"1"},"objective":{"name":"reg:squarederror","reg_loss_param":{"scale_pos_weight":"1"}}},"version":[2,1,4]}