{"learner":{"attributes":{},"feature_names":["cosine_cnt","education_match","experience_ratio","jaccard","location_match","salary_negotiable","salary_ratio","text_sim","title_intent"],"feature_types":[],"gradient_booster":{"model":{"cats":{"enc":[],"feature_segments":[],"sorted_idx":[]},"gbtree_model_param":{"num_parallel_tree":"1","num_trees":"100"},"iteration_indptr":[0,1,2,3,4,5,6,7,8,9,10,11,12,13,14,15,16,17,18,19,20,21,22,23,24,25,26,27,28,29,30,31,32,33,34,35,36,37,38,39,40,41,42,43,44,45,46,47,48,49,50,51,52,53,54,55,56,57,58,59,60,61,62,63,64,65,66,67,68,69,70,71,72,73,74,75,76,77,78,79,80,81,82,83,84,85,86,87,88,89,90,91,92,93,94,95,96,97,98,99,100],"tree_info":[0,0,0,0,0,0,0,0,0,0,0,0,0,0,0,0,0,0,0,0,0,0,0,0,0,0,0,0,0,0,0,0,0,0,0,0,0,0,0,0,0,0,0,0,0,0,0,0,0,0,0,0,0,0,0,0,0,0,0,0,0,0,0,0,0,0,0,0,0,0,0,0,0,0,0,0,0,0,0,0,0,0,0,0,0,0,0,0,0,0,0,0,0,0,0,0,0,0,0,0],"trees":[{"base_weights":[-7.669114E-8,-1.5218568E-1,1.7684701E-1,7.8933436E-1,-1.913121E-1,-1.4126533E-1,4.610154E-1,1.1145775E0,1.6991347E-1,-2.072029E-1,9.5044667E-1,6.353911E-2,-3.2173884E-1,5.5825627E-1,-4.338495E-1,2.775832E-1,5.769952E-2,-2.4707906E-1,1.3385308E-1,-1.428233E-1,-4.8797345E-1,4.4877376E-2,2.2912855E-1,-2.9254612E-1,2.9648453E-1,-7.9630214E-1,-1.472854E-1,5.8958423E-1,-8.5436267E-1,8.1813586E-1,-1.2160009E0,8.046765E-2,-1.595329E-1,1.4598706E-3,-6.348442E-2,-1.6457562E-1,8.910603E-3,-1.404437E-1,7.3435806E-2,1.02248766E-1,-1.1696001E-1,-1.9609646E-1,-1.8416973E-2,2.8355063E-3,-1.9930814E-1,-8.504676E-2,1.2763946E-1,-4.4011705E-2,-2.2178987E-1,2.7238086E-2,2.5058505E-1,-6.614744E-2,-2.7810416E-1],"categories":[],"categories_nodes":[],"categories_segments":[],"categories_sizes":[],"default_left":[0,0,0,0,0,0,0,0,0,0,0,0,0,0,0,0,0,0,0,0,0,0,0,0,0,0,0,0,0,0,0,0,0,0,0,0,0,0,0,0,0,0,0,0,0,0,0,0,0,0,0,0,0],"id":0,"left_children":[1,3,5,7,9,11,13,15,17,19,21,23,25,27,29,-1,-1,31,-1,33,35,-1,-1,37,39,41,43,45,47,49,51,-1,-1,-1,-1,-1,-1,-1,-1,-1,-1,-1,-1,-1,-1,-1,-1,-1,-1,-1,-1,-1,-1],"loss_changes":[1.732555E1,1.2897015E1,2.6980873E1,2.6310816E0,6.2386837E0,5.241274E0,1.39473915E1,1.6317787E0,1.4147135E0,5.881774E0,4.1611958E-1,5.6442595E0,6.1125813E0,6.8099594E0,1.6662672E1,0E0,0E0,1.7511657E0,0E0,7.059665E0,1.09157E1,0E0,0E0,7.5551357E0,8.058771E0,2.5037594E0,7.727282E0,7.1780243E0,3.2116365E-1,1.83075E0,1.1236839E0,0E0,0E0,0E0,0E0,0E0,0E0,0E0,0E0,0E0,0E0,0E0,0E0,0E0,0E0,0E0,0E0,0E0,0E0,0E0,0E0,0E0,0E0],"parents":[2147483647,0,0,1,1,2,2,3,3,4,4,5,5,6,6,7,7,8,8,9,9,10,10,11,11,12,12,13,13,14,14,17,17,19,19,20,20,23,23,24,24,25,25,26,26,27,27,28,28,29,29,30,30],"right_children":[2,4,6,8,10,12,14,16,18,20,22,24,26,28,30,-1,-1,32,-1,34,36,-1,-1,38,40,42,44,46,48,50,52,-1,-1,-1,-1,-1,-1,-1,-1,-1,-1,-1,-1,-1,-1,-1,-1,-1,-1,-1,-1,-1,-1],"split_conditions":[1E0,1.4523E-2,6.666667E-1,8E0,7.8571E-2,2.0363636E0,2.9767442E0,9.04E-3,1.9459459E-1,7.813954E-1,1.84699E-1,1.3382353E0,2E-1,1.82525E-1,5.0153E-2,2.775832E-1,5.769952E-2,1.5E-1,1.3385308E-1,2.5E0,9.6179E-2,4.4877376E-2,2.2912855E-1,8.7594E-2,7.6588E-2,5.3333335E0,8.6737E-2,7.634E-3,1.3382353E0,1E0,8.1502E-2,8.046765E-2,-1.595329E-1,1.4598706E-3,-6.348442E-2,-1.6457562E-1,8.910603E-3,-1.404437E-1,7.3435806E-2,1.02248766E-1,-1.1696001E-1,-1.9609646E-1,-1.8416973E-2,2.8355063E-3,-1.9930814E-1,-8.504676E-2,1.2763946E-1,-4.4011705E-2,-2.2178987E-1,2.7238086E-2,2.5058505E-1,-6.614744E-2,-2.7810416E-1],"split_indices":[6,0,2,2,3,6,6,7,6,6,0,6,2,7,7,0,0,6,0,2,0,0,0,0,7,6,7,3,6,1,0,0,0,0,0,0,0,0,0,0,0,0,0,0,0,0,0,0,0,0,0,0,0],"split_type":[0,0,0,0,0,0,0,0,0,0,0,0,0,0,0,0,0,0,0,0,0,0,0,0,0,0,0,0,0,0,0,0,0,0,0,0,0,0,0,0,0,0,0,0,0,0,0,0,0,0,0,0,0],"sum_hessian":[6.4174756E2,3.449987E2,2.9674887E2,1.299995E1,3.3199872E2,1.4024947E2,1.564994E2,7.9999695E0,4.999981E0,3.2824875E2,3.7499857E0,6.599975E1,7.424972E1,1.4149947E2,1.4999943E1,5.499979E0,2.4999905E0,2.9999886E0,1.9999924E0,2.6824896E2,5.999977E1,1.2499952E0,2.4999905E0,2.59999E1,3.9999847E1,1.8999928E1,5.524979E1,1.3899947E2,2.4999905E0,5.749978E0,9.249965E0,1.4999943E0,1.4999943E0,1.4474945E2,1.2349953E2,3.6499863E1,2.349991E1,1.5999939E1,9.999962E0,3.2499878E1,7.4999714E0,1.4749944E1,4.249984E0,4.724982E1,7.9999695E0,5.999977E0,1.329995E2,1.2499952E0,1.2499952E0,2.7499895E0,2.9999886E0,1.9999924E0,7.2499723E0],"tree_param":{"num_deleted":"0","num_feature":"9","num_nodes":"53","size_leaf_vector":"1"}},{"base_weights":[-5.459503E-4,-1.20668545E-1,1.3936397E-1,6.658902E-1,-1.5312347E-1,-1.1698073E-1,3.6873367E-1,9.407739E-1,1.455405E-1,-1.9765429E-1,1.827595E-1,-1.6688047E-1,5.9392834E-1,4.6893832E-1,-2.4116847E-1,2.345645E-1,4.9483992E-2,-2.1821466E-1,1.16356604E-1,-1.4581767E-1,-4.3903333E-1,9.296389E-2,8.240857E-1,-6.340616E-2,-7.230966E-1,3.0332372E-1,-7.422248E-3,5.048884E-1,-5.714587E-1,6.8374527E-1,-8.881135E-1,7.087811E-2,-1.4099447E-1,4.833785E-4,-6.2533766E-2,-1.1244046E-1,8.4855005E-2,5.3141024E-2,-7.566791E-2,3.990083E-2,1.9831203E-1,-6.246471E-2,2.599074E-2,-2.2146752E-1,-7.0065744E-2,-1.3209534E-1,2.0522128E-1,-7.059657E-2,1.0976002E-1,-1.8005423E-1,4.638265E-2,2.0927489E-1,2.2459114E-2,-6.385861E-2,-2.0976333E-1],"categories":[],"categories_nodes":[],"categories_segments":[],"categories_sizes":[],"default_left":[0,0,0,0,0,0,0,0,0,0,0,0,0,0,0,0,0,0,0,0,0,0,0,0,0,0,0,0,0,0,0,0,0,0,0,0,0,0,0,0,0,0,0,0,0,0,0,0,0,0,0,0,0,0,0],"id":1,"left_children":[1,3,5,7,9,11,13,15,17,19,21,23,25,27,29,-1,-1,31,-1,33,35,37,39,41,43,-1,45,47,49,51,53,-1,-1,-1,-1,-1,-1,-1,-1,-1,-1,-1,-1,-1,-1,-1,-1,-1,-1,-1,-1,-1,-1,-1,-1],"loss_changes":[1.0790343E1,8.920398E0,1.7482157E1,1.8478246E0,5.01042E0,5.09459E0,9.694311E0,1.14119E0,1.0757992E0,3.6160908E0,2.1952384E0,7.5722733E0,5.2576904E0,5.33749E0,1.4239879E1,0E0,0E0,1.3613241E0,0E0,6.0262556E0,5.7145815E0,3.0095794E0,2.9569316E-1,5.464859E0,2.5720654E0,0E0,5.213157E0,5.1290436E0,1.5237072E0,1.942728E0,9.303417E-1,0E0,0E0,0E0,0E0,0E0,0E0,0E0,0E0,0E0,0E0,0E0,0E0,0E0,0E0,0E0,0E0,0E0,0E0,0E0,0E0,0E0,0E0,0E0,0E0],"parents":[2147483647,0,0,1,1,2,2,3,3,4,4,5,5,6,6,7,7,8,8,9,9,10,10,11,11,12,12,13,13,14,14,17,17,19,19,20,20,21,21,22,22,23,23,24,24,26,26,27,27,28,28,29,29,30,30],"right_children":[2,4,6,8,10,12,14,16,18,20,22,24,26,28,30,-1,-1,32,-1,34,36,38,40,42,44,-1,46,48,50,52,54,-1,-1,-1,-1,-1,-1,-1,-1,-1,-1,-1,-1,-1,-1,-1,-1,-1,-1,-1,-1,-1,-1,-1,-1],"split_conditions":[1E0,1.4523E-2,6.666667E-1,8E0,4.9242E-2,5.4167E-2,2.6666667E0,9.04E-3,1.9459459E-1,7.813954E-1,7.8571E-2,7.7012E-2,6.1321E-2,2.49669E-1,5.0742E-2,2.345645E-1,4.9483992E-2,1.5E-1,1.16356604E-1,2.5E0,1.26038E-1,1.39497E-1,1.84699E-1,3.5059E-2,4.0936E-2,3.0332372E-1,2.06464E-1,7.634E-3,1.5306122E0,1E0,2.8846154E0,7.087811E-2,-1.4099447E-1,4.833785E-4,-6.2533766E-2,-1.1244046E-1,8.4855005E-2,5.3141024E-2,-7.566791E-2,3.990083E-2,1.9831203E-1,-6.246471E-2,2.599074E-2,-2.2146752E-1,-7.0065744E-2,-1.3209534E-1,2.0522128E-1,-7.059657E-2,1.0976002E-1,-1.8005423E-1,4.638265E-2,2.0927489E-1,2.2459114E-2,-6.385861E-2,-2.0976333E-1],"split_indices":[6,0,2,2,3,3,6,7,6,6,3,7,3,0,7,0,0,6,0,2,0,7,0,7,3,0,0,3,6,4,6,0,0,0,0,0,0,0,0,0,0,0,0,0,0,0,0,0,0,0,0,0,0,0,0],"split_type":[0,0,0,0,0,0,0,0,0,0,0,0,0,0,0,0,0,0,0,0,0,0,0,0,0,0,0,0,0,0,0,0,0,0,0,0,0,0,0,0,0,0,0,0,0,0,0,0,0,0,0,0,0,0,0],"sum_hessian":[6.400393E2,3.4444574E2,2.9559357E2,1.2875881E1,3.3156985E2,1.3982E2,1.5577354E2,7.8964696E0,4.979411E0,2.9312E2,3.844984E1,1.313646E2,8.455416E0,1.3399054E2,2.1783014E1,5.398278E0,2.4981916E0,2.987832E0,1.9915792E0,2.4262082E2,5.0499195E1,3.4731808E1,3.7180355E0,1.1169895E2,1.966565E1,2.7357545E0,5.719661E0,1.3001276E2,3.9777727E0,8.942033E0,1.28409815E1,1.4978034E0,1.4900286E0,1.2899982E2,1.13620995E2,4.4499233E1,5.9999623E0,2.573551E1,8.996296E0,1.2494754E0,2.46856E0,4.8564854E1,6.3134098E1,8.713441E0,1.0952208E1,3.726164E0,1.9934969E0,5.98815E0,1.2402461E2,2.7369494E0,1.2408231E0,4.9621053E0,3.9799278E0,3.4866357E0,9.354346E0],"tree_param":{"num_deleted":"0","num_feature":"9","num_nodes":"55","size_leaf_vector":"1"}},{"base_weights":[1.6577338E-4,-8.0314E-2,1.3922586E-1,-1.16204396E-1,1.9863883E-1,4.014512E-1,-1.2194828E-1,3.3252788E-1,-1.4230101E-1,6.859664E-1,9.877923E-2,4.3768567E-1,-8.25614E-1,-6.203661E-1,-2.1495175E-2,5.2230483E-1,-5.0227445E-1,-5.346829E-1,-1.133387E-1,9.9475604E-1,-7.21453E-2,5.942186E-1,-1.896805E-2,1.7069447E-1,6.3499427E-1,-2.2952182E-2,-2.256165E-1,-2.3564759E-1,-9.468046E-1,2.0152925E-1,-4.870458E-1,6.0675275E-2,2.1250926E-1,-2.9661138E-2,-1.3790672E-1,8.282473E-2,-1.2393606E-1,-1.04333395E-2,-6.622444E-2,3.6278125E-2,2.3227404E-1,-1.1777009E-2,1.8366626E-1,1.0649832E-1,-5.0831895E-2,-5.723518E-2,7.015641E-2,1.0475606E-1,2.4136923E-1,-1.1170635E-1,9.860887E-2,-2.0792086E-1,-2.92848E-2,2.3181278E-2,2.6463178E-1,-1.12537645E-1,1.0919666E-1],"categories":[],"categories_nodes":[],"categories_segments":[],"categories_sizes":[],"default_left":[0,0,0,0,0,0,0,0,0,0,0,0,0,0,0,0,0,0,0,0,0,0,0,0,0,0,0,0,0,0,0,0,0,0,0,0,0,0,0,0,0,0,0,0,0,0,0,0,0,0,0,0,0,0,0,0,0],"id":2,"left_children":[1,3,5,7,9,11,13,15,17,19,21,23,25,27,29,31,33,35,37,39,-1,41,43,45,47,-1,-1,49,51,53,55,-1,-1,-1,-1,-1,-1,-1,-1,-1,-1,-1,-1,-1,-1,-1,-1,-1,-1,-1,-1,-1,-1,-1,-1,-1,-1],"loss_changes":[7.1476474E0,4.0732536E0,1.6083305E1,4.252029E0,2.194389E0,5.566086E0,5.8978605E0,3.4361773E0,3.8035336E0,2.8595505E0,2.3300104E0,5.915844E0,6.6694474E-1,2.259479E0,1.040801E1,1.6661997E0,1.774875E-1,2.1198344E0,4.218149E0,6.3506746E-1,0E0,1.6762714E0,4.4262977E0,4.211282E0,3.526657E0,0E0,0E0,2.7235754E0,6.1746025E-1,6.3620195E0,2.8432026E0,0E0,0E0,0E0,0E0,0E0,0E0,0E0,0E0,0E0,0E0,0E0,0E0,0E0,0E0,0E0,0E0,0E0,0E0,0E0,0E0,0E0,0E0,0E0,0E0,0E0,0E0],"parents":[2147483647,0,0,1,1,2,2,3,3,4,4,5,5,6,6,7,7,8,8,9,9,10,10,11,11,12,12,13,13,14,14,15,15,16,16,17,17,18,18,19,19,21,21,22,22,23,23,24,24,27,27,28,28,29,29,30,30],"right_children":[2,4,6,8,10,12,14,16,18,20,22,24,26,28,30,32,34,36,38,40,-1,42,44,46,48,-1,-1,50,52,54,56,-1,-1,-1,-1,-1,-1,-1,-1,-1,-1,-1,-1,-1,-1,-1,-1,-1,-1,-1,-1,-1,-1,-1,-1,-1,-1],"split_conditions":[1.25E0,4.9751E-2,2.0833333E0,1.2508E-2,5.1948E-2,2.71052E-1,2E-1,1.048387E0,2.5964E-2,1.84699E-1,4E-1,7.5E-1,1.4054054E0,1E0,9.9646E-2,7.353E-3,1E0,1.2413793E-1,1.05316E-1,9.7912E-2,-7.21453E-2,5.8511E-2,4.0625E-1,1E0,4.5872E-2,-2.2952182E-2,-2.256165E-1,2.3256E-2,4.4827585E0,9.673E-2,1.33007E-1,6.0675275E-2,2.1250926E-1,-2.9661138E-2,-1.3790672E-1,8.282473E-2,-1.2393606E-1,-1.04333395E-2,-6.622444E-2,3.6278125E-2,2.3227404E-1,-1.1777009E-2,1.8366626E-1,1.0649832E-1,-5.0831895E-2,-5.723518E-2,7.015641E-2,1.0475606E-1,2.4136923E-1,-1.1170635E-1,9.860887E-2,-2.0792086E-1,-2.92848E-2,2.3181278E-2,2.6463178E-1,-1.12537645E-1,1.0919666E-1],"split_indices":[6,3,6,7,3,0,2,6,0,0,2,2,6,4,0,3,4,6,0,0,0,3,6,4,3,0,0,3,6,0,7,0,0,0,0,0,0,0,0,0,0,0,0,0,0,0,0,0,0,0,0,0,0,0,0,0,0],"split_type":[0,0,0,0,0,0,0,0,0,0,0,0,0,0,0,0,0,0,0,0,0,0,0,0,0,0,0,0,0,0,0,0,0,0,0,0,0,0,0,0,0,0,0,0,0,0,0,0,0,0,0,0,0,0,0,0,0],"sum_hessian":[6.36667E2,4.0354272E2,2.3312427E2,3.58058E2,4.548473E1,1.1606001E2,1.17064255E2,1.903353E1,3.3902448E2,6.737171E0,3.874756E1,1.13355995E2,2.7040231E0,1.876791E1,9.829635E1,1.5813058E1,3.2204711E0,2.2103561E1,3.1692093E2,5.240706E0,1.4964652E0,6.663466E0,3.208409E1,4.8964306E1,6.4391685E1,1.218874E0,1.4851491E0,9.405314E0,9.362596E0,6.684231E1,3.1454037E1,1.2364144E1,3.4489133E0,1.7342556E0,1.4862156E0,1.4989469E0,2.0604614E1,2.4839122E2,6.85297E1,1.2461284E0,3.9945776E0,2.4814787E0,4.1819873E0,9.214508E0,2.2869585E1,1.3677157E1,3.528715E1,5.551168E1,8.880004E0,6.679247E0,2.726067E0,8.122005E0,1.2405893E0,6.3126686E1,3.715622E0,2.973223E1,1.7218069E0],"tree_param":{"num_deleted":"0","num_feature":"9","num_nodes":"57","size_leaf_vector":"1"}},{"base_weights":[1.0897318E-3,-7.9956494E-2,9.625015E-2,5.0262964E-1,-1.03347756E-1,2.0059589E-1,-2.0930408E-1,7.395184E-1,7.6532125E-2,-3.1448746E-1,-6.037851E-2,-4.567971E-3,3.3360827E-1,-1.2890752E-1,-9.818088E-1,1.9430606E-1,2.3866165E-2,-2.3909365E-1,9.48519E-2,-1.7109813E-1,-7.5536126E-1,-2.6454824E-1,1.4081642E-2,-4.8331212E-2,2.129519E-1,4.375583E-1,1.2676744E-2,-7.570454E-1,-4.2180955E-2,-2.2803564E-1,-4.526383E-2,5.5472553E-2,-1.3205959E-1,-5.3464975E-2,2.2010086E-1,-2.2086917E-1,2.5037482E-2,-3.730053E-2,-2.0344868E-1,7.552024E-2,-8.087124E-3,1.3772643E-2,-9.571073E-2,5.287041E-2,1.630374E-1,-1.0153766E-1,5.0027203E-2,-2.0476341E-1,3.1584255E-2,8.736153E-2,-2.5460303E-2],"categories":[],"categories_nodes":[],"categories_segments":[],"categories_sizes":[],"default_left":[0,0,0,0,0,0,0,0,0,0,0,0,0,0,0,0,0,0,0,0,0,0,0,0,0,0,0,0,0,0,0,0,0,0,0,0,0,0,0,0,0,0,0,0,0,0,0,0,0,0,0],"id":3,"left_children":[1,3,5,7,9,11,13,15,17,19,21,23,25,27,29,-1,-1,31,-1,33,35,37,39,41,-1,43,45,47,49,-1,-1,-1,-1,-1,-1,-1,-1,-1,-1,-1,-1,-1,-1,-1,-1,-1,-1,-1,-1,-1,-1],"loss_changes":[4.904699E0,4.732317E0,9.367848E0,1.2988055E0,2.9842336E0,5.9656286E0,4.528296E0,1.1092606E0,8.557162E-1,3.3943172E0,4.203973E0,4.120362E0,4.418209E0,3.7288656E0,5.691643E-1,0E0,0E0,1.0449694E0,0E0,5.5987816E0,4.251827E0,4.150589E0,4.0463076E0,4.2926874E0,0E0,6.333851E0,4.2629876E0,2.191588E0,2.5720103E0,0E0,0E0,0E0,0E0,0E0,0E0,0E0,0E0,0E0,0E0,0E0,0E0,0E0,0E0,0E0,0E0,0E0,0E0,0E0,0E0,0E0,0E0],"parents":[2147483647,0,0,1,1,2,2,3,3,4,4,5,5,6,6,7,7,8,8,9,9,10,10,11,11,12,12,13,13,14,14,17,17,19,19,20,20,21,21,22,22,23,23,25,25,26,26,27,27,28,28],"right_children":[2,4,6,8,10,12,14,16,18,20,22,24,26,28,30,-1,-1,32,-1,34,36,38,40,42,-1,44,46,48,50,-1,-1,-1,-1,-1,-1,-1,-1,-1,-1,-1,-1,-1,-1,-1,-1,-1,-1,-1,-1,-1,-1],"split_conditions":[1E0,1.4523E-2,2.6666667E0,8E0,2.6181817E-1,6.666667E-1,1.34687E-1,9.04E-3,1.9459459E-1,1.00587E-1,5.4754E-2,6.701E-2,1.1215E-1,1.5729E-2,5.3435E-2,1.9430606E-1,2.3866165E-2,1.5E-1,9.48519E-2,6.4307E-2,1.73693E-1,3.8289E-2,2.027E-2,1.13391E-1,2.129519E-1,8.5712E-2,8.4145E-2,4E-1,1.5873E-2,-2.2803564E-1,-4.526383E-2,5.5472553E-2,-1.3205959E-1,-5.3464975E-2,2.2010086E-1,-2.2086917E-1,2.5037482E-2,-3.730053E-2,-2.0344868E-1,7.552024E-2,-8.087124E-3,1.3772643E-2,-9.571073E-2,5.287041E-2,1.630374E-1,-1.0153766E-1,5.0027203E-2,-2.0476341E-1,3.1584255E-2,8.736153E-2,-2.5460303E-2],"split_indices":[6,0,6,2,6,2,0,7,6,0,0,3,0,7,3,0,0,6,0,7,0,7,3,0,0,0,7,2,3,0,0,0,0,0,0,0,0,0,0,0,0,0,0,0,0,0,0,0,0,0,0],"split_type":[0,0,0,0,0,0,0,0,0,0,0,0,0,0,0,0,0,0,0,0,0,0,0,0,0,0,0,0,0,0,0,0,0,0,0,0,0,0,0,0,0,0,0,0,0,0,0,0,0,0,0],"sum_hessian":[6.339525E2,3.424524E2,2.915001E2,1.2428112E1,3.300243E2,2.1755077E2,7.394935E1,7.514736E0,4.913376E0,5.473785E1,2.7528644E2,8.594746E1,1.316033E2,6.8035576E1,5.9137697E0,5.056566E0,2.4581702E0,2.9618118E0,1.951564E0,4.2351562E1,1.2386287E1,7.288444E1,2.0240201E2,8.3485535E1,2.4619222E0,9.913121E1,3.2472095E1,7.316314E0,6.0719265E1,4.467979E0,1.4457905E0,1.4838729E0,1.4779389E0,4.0106342E1,2.245218E0,8.688608E0,3.697679E0,6.716772E1,5.716719E0,2.5622908E1,1.767791E2,6.6272545E1,1.7212988E1,6.912556E1,3.0005648E1,9.818333E0,2.2653763E1,5.572581E0,1.743733E0,8.53872E0,5.2180542E1],"tree_param":{"num_deleted":"0","num_feature":"9","num_nodes":"51","size_leaf_vector":"1"}},{"base_weights":[8.340267E-4,-5.3347744E-2,1.0783733E-1,-6.0508903E-2,1.9576108E-1,3.3909136E-1,-8.5926875E-2,-3.5317543E-1,-3.904982E-2,3.8168904E-1,-2.3117538E-1,-1.0050651E0,-3.8416937E-2,1.22336216E-1,-6.4201194E-1,2.7933517E-2,-1.2905876E-1,4.5468503E-1,1.00505175E-2,-2.5562364E-1,-4.825038E-2,2.2613129E-1,-1.7458485E-1,-4.4094227E-2,2.615592E-1,-1.4742486E-1,5.0398882E-2,1.0623003E-2,-1.7473336E-1,-5.129019E-2,2.4923256E-2,7.666346E-2,1.6656998E-1,-9.856101E-2,1.8712139E-1,9.8869555E-2,-1.16229944E-1,-2.2974376E-2,-2.0237406E-1],"categories":[],"categories_nodes":[],"categories_segments":[],"categories_sizes":[],"default_left":[0,0,0,0,0,0,0,0,0,0,0,0,0,0,0,0,0,0,0,0,0,0,0,0,0,0,0,0,0,0,0,0,0,0,0,0,0,0,0],"id":4,"left_children":[1,3,5,7,-1,9,11,13,15,17,-1,19,21,23,25,27,29,31,33,-1,-1,35,37,-1,-1,-1,-1,-1,-1,-1,-1,-1,-1,-1,-1,-1,-1,-1,-1],"loss_changes":[3.6682396E0,3.1639135E0,9.559145E0,2.6119452E0,0E0,6.6287413E0,5.049556E0,3.984195E0,2.3588755E0,2.5786495E0,0E0,8.7775326E-1,4.0679927E0,4.9966216E0,1.7036371E0,5.1500726E0,5.424093E0,1.8281841E0,8.212858E0,0E0,0E0,8.609987E0,3.6032443E0,0E0,0E0,0E0,0E0,0E0,0E0,0E0,0E0,0E0,0E0,0E0,0E0,0E0,0E0,0E0,0E0],"parents":[2147483647,0,0,1,1,2,2,3,3,5,5,6,6,7,7,8,8,9,9,11,11,12,12,13,13,14,14,15,15,16,16,17,17,18,18,21,21,22,22],"right_children":[2,4,6,8,-1,10,12,14,16,18,-1,20,22,24,26,28,30,32,34,-1,-1,36,38,-1,-1,-1,-1,-1,-1,-1,-1,-1,-1,-1,-1,-1,-1,-1,-1],"split_conditions":[1.3382353E0,1.91091E-1,2.0833333E0,3.3333334E-1,1.9576108E-1,2.71052E-1,2.121212E0,2.027E-2,2.5E0,1.16514E-1,-2.3117538E-1,2.99E-2,2.6666667E0,3.5059E-2,5.3435E-2,2.49669E-1,8.5712E-2,6.6931E-2,4.8128E-2,-2.5562364E-1,-4.825038E-2,3.8251E-2,1.50067E-1,-4.4094227E-2,2.615592E-1,-1.4742486E-1,5.0398882E-2,1.0623003E-2,-1.7473336E-1,-5.129019E-2,2.4923256E-2,7.666346E-2,1.6656998E-1,-9.856101E-2,1.8712139E-1,9.8869555E-2,-1.16229944E-1,-2.2974376E-2,-2.0237406E-1],"split_indices":[6,7,6,2,0,0,6,3,2,0,0,3,6,7,3,0,0,7,3,0,0,3,0,0,0,0,0,0,0,0,0,0,0,0,0,0,0,0,0],"split_type":[0,0,0,0,0,0,0,0,0,0,0,0,0,0,0,0,0,0,0,0,0,0,0,0,0,0,0,0,0,0,0,0,0,0,0,0,0,0,0],"sum_hessian":[6.3072156E2,4.190397E2,2.1168184E2,4.1708728E2,1.9524083E0,9.6163025E1,1.1551882E2,2.7436779E1,3.896505E2,9.4222916E1,1.9401078E0,4.6870594E0,1.10831764E2,1.0585809E1,1.685097E1,2.2379512E2,1.658554E2,7.856749E1,1.565542E1,2.9567292E0,1.7303301E0,3.743739E1,7.339437E1,8.842721E0,1.7430884E0,1.5389211E1,1.4617594E0,2.1862991E2,5.165197E0,1.1040203E2,5.5453358E1,6.778806E1,1.0779427E1,1.0447075E1,5.208346E0,2.8391907E1,9.045481E0,6.957002E1,3.824353E0],"tree_param":{"num_deleted":"0","num_feature":"9","num_nodes":"39","size_leaf_vector":"1"}},{"base_weights":[1.9791996E-4,-1.8637355E-1,1.9754814E-2,1.9721547E-1,-3.8514304E-1,3.81868E-2,-2.322429E-1,8.07173E-1,-1.2724644E-1,-9.0137637E-1,-2.6291835E-1,-1.7249295E-2,1.6406049E-1,2.6446465E-2,-7.161116E-1,1.0841876E0,2.9638726E-1,-3.959553E-1,1.8956599E-1,-2.5864244E-2,-2.0806287E-1,2.8148833E-1,-5.289343E-1,3.9096275E-1,-3.8748164E-2,7.865656E-2,4.8921928E-1,-5.79966E-1,2.1361129E-1,-8.701805E-1,4.4190127E-2,9.181214E-2,2.609823E-1,-7.197615E-2,1.6670188E-1,7.69303E-2,-1.7917435E-1,-1.0565598E-1,1.3771383E-1,-1.753413E-1,-1.9149076E-2,9.69433E-2,-8.306381E-2,-1.5749859E-2,3.227622E-2,6.608011E-2,-3.085352E-3,1.6247182E-1,2.2053014E-2,-1.7466626E-1,2.787434E-2,-2.1246022E-2,8.4904015E-2,8.2223795E-2,-2.1864979E-1],"categories":[],"categories_nodes":[],"categories_segments":[],"categories_sizes":[],"default_left":[0,0,0,0,0,0,0,0,0,0,0,0,0,0,0,0,0,0,0,0,0,0,0,0,0,0,0,0,0,0,0,0,0,0,0,0,0,0,0,0,0,0,0,0,0,0,0,0,0,0,0,0,0,0,0],"id":5,"left_children":[1,3,5,7,9,11,13,15,17,19,21,23,25,27,29,31,33,35,-1,-1,-1,37,39,41,43,45,47,49,51,53,-1,-1,-1,-1,-1,-1,-1,-1,-1,-1,-1,-1,-1,-1,-1,-1,-1,-1,-1,-1,-1,-1,-1,-1,-1],"loss_changes":[2.2985609E0,4.633068E0,2.6572478E0,4.2709465E0,2.268396E0,3.7163231E0,4.901081E0,7.327194E-1,4.596465E0,6.366811E-1,5.0029316E0,3.2655168E0,4.482719E0,3.1179986E0,2.159124E0,1.5498638E-2,1.7084217E0,5.181799E0,0E0,0E0,0E0,4.2055893E0,3.3603907E0,1.6088297E0,2.8365805E0,3.087312E0,4.034173E0,1.4914827E0,1.4542239E0,3.8513575E0,0E0,0E0,0E0,0E0,0E0,0E0,0E0,0E0,0E0,0E0,0E0,0E0,0E0,0E0,0E0,0E0,0E0,0E0,0E0,0E0,0E0,0E0,0E0,0E0,0E0],"parents":[2147483647,0,0,1,1,2,2,3,3,4,4,5,5,6,6,7,7,8,8,9,9,10,10,11,11,12,12,13,13,14,14,15,15,16,16,17,17,21,21,22,22,23,23,24,24,25,25,26,26,27,27,28,28,29,29],"right_children":[2,4,6,8,10,12,14,16,18,20,22,24,26,28,30,32,34,36,-1,-1,-1,38,40,42,44,46,48,50,52,54,-1,-1,-1,-1,-1,-1,-1,-1,-1,-1,-1,-1,-1,-1,-1,-1,-1,-1,-1,-1,-1,-1,-1,-1,-1],"split_conditions":[2.6181817E-1,4.7809E-2,3.5555556E0,2.5E0,3.98E-2,1.4117647E0,3.1447E-2,1.3793E-2,4.0008E-2,3.3514E-2,7.5585E-2,3E-1,2E0,9.901E-3,6.709677E0,1.6112E-2,1.875E-2,1.2508E-2,1.8956599E-1,-2.5864244E-2,-2.0806287E-1,6.0817E-2,3.5714E-2,1.3598E-1,4.5872E-2,1.7297298E0,1E0,3.3333334E-1,3.5059E-2,7.0701E-2,4.4190127E-2,9.181214E-2,2.609823E-1,-7.197615E-2,1.6670188E-1,7.69303E-2,-1.7917435E-1,-1.0565598E-1,1.3771383E-1,-1.753413E-1,-1.9149076E-2,9.69433E-2,-8.306381E-2,-1.5749859E-2,3.227622E-2,6.608011E-2,-3.085352E-3,1.6247182E-1,2.2053014E-2,-1.7466626E-1,2.787434E-2,-2.1246022E-2,8.4904015E-2,8.2223795E-2,-2.1864979E-1],"split_indices":[6,0,6,2,7,6,3,3,0,7,0,6,2,3,6,7,3,7,0,0,0,0,3,7,3,6,4,2,7,0,0,0,0,0,0,0,0,0,0,0,0,0,0,0,0,0,0,0,0,0,0,0,0,0,0],"split_type":[0,0,0,0,0,0,0,0,0,0,0,0,0,0,0,0,0,0,0,0,0,0,0,0,0,0,0,0,0,0,0,0,0,0,0,0,0,0,0,0,0,0,0,0,0,0,0,0,0,0,0,0,0,0,0],"sum_hessian":[6.2794794E2,5.8768696E1,5.6917926E2,2.0061487E1,3.8707207E1,5.3117566E2,3.8003567E1,6.4494348E0,1.3612053E1,6.1896386E0,3.2517567E1,3.6936597E2,1.618097E2,2.5380047E1,1.262352E1,3.4537652E0,2.9956698E0,1.139551E1,2.2165434E0,1.2384667E0,4.951172E0,1.0654588E1,2.186298E1,1.7619953E1,3.5174603E2,1.2913412E2,3.2675564E1,5.490896E0,1.988915E1,1.0902361E1,1.7211592E0,1.7049258E0,1.7488394E0,1.496813E0,1.4988568E0,4.5388227E0,6.856687E0,3.4647515E0,7.1898365E0,1.1559198E1,1.03037815E1,1.614182E1,1.4781313E0,2.9365735E2,5.8088684E1,3.4447975E1,9.468615E1,1.7019285E1,1.5656279E1,3.748202E0,1.7426941E0,8.100752E0,1.1788399E1,1.4916043E0,9.410756E0],"tree_param":{"num_deleted":"0","num_feature":"9","num_nodes":"55","size_leaf_vector":"1"}},{"base_weights":[4.2999623E-4,-6.2356633E-3,4.9795052E-1,2.7047478E-2,-1.4299975E-1,1.0017381E0,-5.3782797E-1,-2.4339192E-2,1.9211268E-1,-3.5555238E-1,1.7678945E-3,7.185843E-2,2.4321435E-1,1.8067805E-2,-1.8362126E-1,1.5231054E-2,-3.065108E-1,6.253906E-1,8.382156E-2,-4.4564182E-1,1.8309166E-1,2.522684E-1,-4.1825105E-2,7.105525E-4,2.2612838E-1,-3.0186811E-2,-1.9622482E-1,1.5299241E-1,-8.301126E-2,-1.1355724E-1,3.3993438E-2,-1.0518116E-1,3.2196533E-2,2.2363105E-1,-7.850311E-2,-1.286063E-1,4.7824005E-4],"categories":[],"categories_nodes":[],"categories_segments":[],"categories_sizes":[],"default_left":[0,0,0,0,0,0,0,0,0,0,0,0,0,0,0,0,0,0,0,0,0,0,0,0,0,0,0,0,0,0,0,0,0,0,0,0,0],"id":6,"left_children":[1,3,5,7,9,11,13,15,17,19,21,-1,-1,-1,-1,23,25,27,29,31,33,-1,35,-1,-1,-1,-1,-1,-1,-1,-1,-1,-1,-1,-1,-1,-1],"loss_changes":[2.0810108E0,2.822779E0,4.867749E0,4.2364855E0,3.735256E0,3.7971973E-1,8.868516E-1,4.262695E0,5.5102167E0,2.467989E0,4.0716205E0,0E0,0E0,0E0,0E0,4.3649783E0,4.779399E0,3.7375507E0,5.4855165E0,2.1502047E0,4.613025E0,0E0,1.907851E0,0E0,0E0,0E0,0E0,0E0,0E0,0E0,0E0,0E0,0E0,0E0,0E0,0E0,0E0],"parents":[2147483647,0,0,1,1,2,2,3,3,4,4,5,5,6,6,7,7,8,8,9,9,10,10,15,15,16,16,17,17,18,18,19,19,20,20,22,22],"right_children":[2,4,6,8,10,12,14,16,18,20,22,-1,-1,-1,-1,24,26,28,30,32,34,-1,36,-1,-1,-1,-1,-1,-1,-1,-1,-1,-1,-1,-1,-1,-1],"split_conditions":[7.8571E-2,1.16514E-1,2.85884E-1,8.5712E-2,4.1152E-2,1.70166E-1,1.125E0,7.7627E-2,6.0597E-2,2.06464E-1,4.1379E-2,7.185843E-2,2.4321435E-1,1.8067805E-2,-1.8362126E-1,7.725E-2,3.5E0,2.9767442E0,2.6667E-2,2.3214285E0,2.9167E-2,2.522684E-1,8.4145E-2,7.105525E-4,2.2612838E-1,-3.0186811E-2,-1.9622482E-1,1.5299241E-1,-8.301126E-2,-1.1355724E-1,3.3993438E-2,-1.0518116E-1,3.2196533E-2,2.2363105E-1,-7.850311E-2,-1.286063E-1,4.7824005E-4],"split_indices":[3,0,0,0,3,0,6,0,7,0,3,0,0,0,0,0,2,6,3,6,3,0,7,0,0,0,0,0,0,0,0,0,0,0,0,0,0],"split_type":[0,0,0,0,0,0,0,0,0,0,0,0,0,0,0,0,0,0,0,0,0,0,0,0,0,0,0,0,0,0,0,0,0,0,0,0,0],"sum_hessian":[6.255731E2,6.182771E2,7.29606E0,4.9790765E2,1.2036942E2,4.9307027E0,2.3653574E0,3.8035223E2,1.1755542E2,4.8177544E1,7.219188E1,1.902988E0,3.0277147E0,1.1794724E0,1.185885E0,3.3440332E2,4.594892E1,2.2551342E1,9.5004074E1,4.142224E1,6.7553043E0,1.4804789E0,7.07114E1,3.319312E2,2.4721167E0,3.8332546E1,7.616372E0,2.0117449E1,2.4338937E0,1.0440542E1,8.456354E1,3.66995E1,4.7227397E0,2.2148135E0,4.540491E0,3.916474E0,6.679493E1],"tree_param":{"num_deleted":"0","num_feature":"9","num_nodes":"37","size_leaf_vector":"1"}},{"base_weights":[9.05039E-4,-1.10241435E-1,2.4291482E-2,-4.545057E-1,4.363887E-2,3.538577E-2,-5.4430616E-1,-9.63322E-2,-8.0938786E-1,2.5672767E-1,-6.860482E-3,-3.7580032E-2,1.5010019E-1,1.3489887E-1,-9.968353E-1,-5.7786655E-1,5.331545E-1,-9.3501586E-1,3.6652877E-3,1.2689671E-1,-2.8902736E-1,4.1517663E-1,-5.9338283E-2,9.300118E-3,2.7028358E-1,-1.52061E-1,1.6939507E-1,-2.4189098E-1,-6.3342765E-2,-2.1993596E-2,-1.4261247E-1,1.1476978E-2,1.7135344E-1,-2.3336834E-3,-2.1139915E-1,-1.9990461E-2,1.2475034E-1,-1.13906346E-1,3.2329105E-2,1.0507651E-1,-1.814685E-2,-9.561864E-3,-1.7195176E-1,-1.8716156E-2,6.674784E-2,1.0009879E-1,4.599865E-3],"categories":[],"categories_nodes":[],"categories_segments":[],"categories_sizes":[],"default_left":[0,0,0,0,0,0,0,0,0,0,0,0,0,0,0,0,0,0,0,0,0,0,0,0,0,0,0,0,0,0,0,0,0,0,0,0,0,0,0,0,0,0,0,0,0,0,0],"id":7,"left_children":[1,3,5,7,9,11,13,15,17,-1,19,21,23,25,27,29,31,33,-1,35,37,39,41,43,45,-1,-1,-1,-1,-1,-1,-1,-1,-1,-1,-1,-1,-1,-1,-1,-1,-1,-1,-1,-1,-1,-1],"loss_changes":[1.6277268E0,5.7866774E0,3.2826328E0,4.2074986E0,4.7768736E0,4.2607455E0,3.1963036E0,5.738383E0,1.764081E0,0E0,2.835572E0,3.0934992E0,3.3452969E0,3.7445588E0,4.987154E-1,5.940211E-1,1.2263794E0,1.6326809E0,0E0,5.8111777E0,3.145495E0,8.510616E-1,2.7098835E0,3.1067748E0,6.0625567E0,0E0,0E0,0E0,0E0,0E0,0E0,0E0,0E0,0E0,0E0,0E0,0E0,0E0,0E0,0E0,0E0,0E0,0E0,0E0,0E0,0E0,0E0],"parents":[2147483647,0,0,1,1,2,2,3,3,4,4,5,5,6,6,7,7,8,8,10,10,11,11,12,12,13,13,14,14,15,15,16,16,17,17,19,19,20,20,21,21,22,22,23,23,24,24],"right_children":[2,4,6,8,10,12,14,16,18,-1,20,22,24,26,28,30,32,34,-1,36,38,40,42,44,46,-1,-1,-1,-1,-1,-1,-1,-1,-1,-1,-1,-1,-1,-1,-1,-1,-1,-1,-1,-1,-1,-1],"split_conditions":[1E0,4.3205E-2,4.6666665E0,2.0143E-2,4.4671E-2,1E0,2.5974E-2,1.3844E-2,3.878788E0,2.5672767E-1,9.1971E-2,1.2508E-2,6.666667E-1,5.9302325E0,4.0404E-2,4.149E-3,1.5697675E0,5.023256E-1,3.6652877E-3,5.3911E-2,2.6666667E0,1E1,9.7959185E-1,3.9146E-2,6.0597E-2,-1.52061E-1,1.6939507E-1,-2.4189098E-1,-6.3342765E-2,-2.1993596E-2,-1.4261247E-1,1.1476978E-2,1.7135344E-1,-2.3336834E-3,-2.1139915E-1,-1.9990461E-2,1.2475034E-1,-1.13906346E-1,3.2329105E-2,1.0507651E-1,-1.814685E-2,-9.561864E-3,-1.7195176E-1,-1.8716156E-2,6.674784E-2,1.0009879E-1,4.599865E-3],"split_indices":[1,0,6,7,0,6,3,7,6,0,0,7,2,6,3,3,6,6,0,7,2,2,6,3,7,0,0,0,0,0,0,0,0,0,0,0,0,0,0,0,0,0,0,0,0,0,0],"split_type":[0,0,0,0,0,0,0,0,0,0,0,0,0,0,0,0,0,0,0,0,0,0,0,0,0,0,0,0,0,0,0,0,0,0,0,0,0,0,0,0,0,0,0,0,0,0,0],"sum_hessian":[6.241822E2,1.078587E2,5.163235E2,3.271481E1,7.514389E1,5.073618E2,8.961707E0,1.691469E1,1.5800118E1,1.9849524E0,7.315894E1,3.1052203E2,1.9683974E2,3.8640385E0,5.0976686E0,9.6300535E0,7.284636E0,1.3605482E1,2.194636E0,5.000504E1,2.31539E1,1.3409479E1,2.9711258E2,9.114122E1,1.0569852E2,1.6818862E0,2.1821523E0,3.2906525E0,1.8070164E0,2.5652812E0,7.0647726E0,3.4256432E0,3.858993E0,1.7154851E0,1.1889997E1,3.4879116E1,1.5125923E1,1.4108721E1,9.045178E0,1.0979298E1,2.430181E0,2.939385E2,3.1740522E0,6.973845E1,2.1402775E1,5.4208714E1,5.1489803E1],"tree_param":{"num_deleted":"0","num_feature":"9","num_nodes":"47","size_leaf_vector":"1"}},{"base_weights":[5.409253E-4,-4.964161E-3,4.229579E-1,9.374057E-3,-2.4790448E-1,8.7811434E-1,-4.8818517E-1,1.8693752E-3,4.2936733E-1,-3.2354495E-1,1.6983896E-1,5.9685387E-2,2.1813805E-1,1.6512174E-2,-1.6833274E-1,1.3067923E-2,-3.24993E-1,-2.071149E-1,6.745099E-1,-5.835756E-1,1.1811708E-2,1.023234E-3,1.1798924E-1,-1.5648525E-2,-2.581436E-1,8.349458E-2,-1.6918968E-1,1.6641518E-1,2.7104015E-3,-4.342575E-2,-2.1729966E-1,4.467454E-2,-1.444387E-1],"categories":[],"categories_nodes":[],"categories_segments":[],"categories_sizes":[],"default_left":[0,0,0,0,0,0,0,0,0,0,0,0,0,0,0,0,0,0,0,0,0,0,0,0,0,0,0,0,0,0,0,0,0],"id":8,"left_children":[1,3,5,7,9,11,13,15,17,19,-1,-1,-1,-1,-1,21,23,25,27,29,31,-1,-1,-1,-1,-1,-1,-1,-1,-1,-1,-1,-1],"loss_changes":[1.4505829E0,2.1475697E0,3.7566798E0,1.8351939E0,3.1259987E0,3.7799263E-1,7.3848224E-1,2.1026738E0,1.7345324E0,2.8729563E0,0E0,0E0,0E0,0E0,0E0,2.5440273E0,4.4334984E0,1.7924651E0,7.81698E-1,3.179469E0,2.5425446E0,0E0,0E0,0E0,0E0,0E0,0E0,0E0,0E0,0E0,0E0,0E0,0E0],"parents":[2147483647,0,0,1,1,2,2,3,3,4,4,5,5,6,6,7,7,8,8,9,9,15,15,16,16,17,17,18,18,19,19,20,20],"right_children":[2,4,6,8,10,12,14,16,18,20,-1,-1,-1,-1,-1,22,24,26,28,30,32,-1,-1,-1,-1,-1,-1,-1,-1,-1,-1,-1,-1],"split_conditions":[7.8571E-2,1.87264E-1,2.85884E-1,1.73693E-1,3.1505E-1,1.70166E-1,1.125E0,1.50067E-1,1E0,5.3435E-2,1.6983896E-1,5.9685387E-2,2.1813805E-1,1.6512174E-2,-1.6833274E-1,1.44828E-1,1.3793104E0,1.16E0,1.84699E-1,4.2194E-2,7.1429E-2,1.023234E-3,1.1798924E-1,-1.5648525E-2,-2.581436E-1,8.349458E-2,-1.6918968E-1,1.6641518E-1,2.7104015E-3,-4.342575E-2,-2.1729966E-1,4.467454E-2,-1.444387E-1],"split_indices":[3,0,0,0,0,0,6,0,2,3,0,0,0,0,0,0,6,6,0,3,3,0,0,0,0,0,0,0,0,0,0,0,0],"split_type":[0,0,0,0,0,0,0,0,0,0,0,0,0,0,0,0,0,0,0,0,0,0,0,0,0,0,0,0,0,0,0,0,0],"sum_hessian":[6.2188513E2,6.1486035E2,7.0248284E0,5.815018E2,3.3358536E1,4.7088156E0,2.3160129E0,5.722804E2,9.221385E0,3.1866558E1,1.4919769E0,1.908436E0,2.8003795E0,1.178911E0,1.1371018E0,5.5425134E2,1.8029041E1,2.6072106E0,6.6141744E0,1.753219E1,1.4334368E1,5.477105E2,6.5408325E0,1.522098E1,2.808062E0,1.4935116E0,1.1136992E0,5.1318874E0,1.4822867E0,1.0970464E1,6.5617266E0,1.1667225E1,2.6671436E0],"tree_param":{"num_deleted":"0","num_feature":"9","num_nodes":"33","size_leaf_vector":"1"}},{"base_weights":[1.7606321E-4,-3.3758678E-2,6.842877E-2,-3.9523967E-2,1.6230981E-1,2.2911613E-1,-5.8463097E-2,-3.065103E-2,-4.893487E-1,2.6384878E-1,-1.9573681E-1,-4.2325553E-1,1.14495E-2,-7.4557182E-3,-1.8049613E-1,-8.7090385E-1,1.5732048E-1,5.138624E-1,1.2610982E-1,-2.3239891E-1,-2.3485518E-1,1.2464124E-1,-2.2894803E-1,6.735491E-2,-5.44992E-3,-1.6561005E-2,-1.3139121E-1,2.232068E-2,-2.5935617E-1,-8.678964E-2,1.1827866E-1,-5.9372387E-3,1.4155157E-1,8.946538E-3,1.978228E-1,-8.8751644E-2,9.468251E-2,1.043982E-2,2.2535563E-1,1.500799E-2,-8.351196E-2],"categories":[],"categories_nodes":[],"categories_segments":[],"categories_sizes":[],"default_left":[0,0,0,0,0,0,0,0,0,0,0,0,0,0,0,0,0,0,0,0,0,0,0,0,0,0,0,0,0,0,0,0,0,0,0,0,0,0,0,0,0],"id":9,"left_children":[1,3,5,7,-1,9,11,13,15,17,-1,19,21,23,25,27,29,31,33,-1,35,37,39,-1,-1,-1,-1,-1,-1,-1,-1,-1,-1,-1,-1,-1,-1,-1,-1,-1,-1],"loss_changes":[1.4430046E0,2.060063E0,4.231952E0,1.6384426E0,0E0,4.096391E0,2.9734805E0,1.414372E0,2.097759E0,3.0249782E0,0E0,2.336253E0,2.7130086E0,2.419589E0,2.4849658E0,2.2999501E0,1.2308506E0,3.3457766E0,4.111681E0,0E0,2.6056356E0,4.8574543E0,1.8622799E0,0E0,0E0,0E0,0E0,0E0,0E0,0E0,0E0,0E0,0E0,0E0,0E0,0E0,0E0,0E0,0E0,0E0,0E0],"parents":[2147483647,0,0,1,1,2,2,3,3,5,5,6,6,7,7,8,8,9,9,11,11,12,12,13,13,14,14,15,15,16,16,17,17,18,18,20,20,21,21,22,22],"right_children":[2,4,6,8,-1,10,12,14,16,18,-1,20,22,24,26,28,30,32,34,-1,36,38,40,-1,-1,-1,-1,-1,-1,-1,-1,-1,-1,-1,-1,-1,-1,-1,-1,-1,-1],"split_conditions":[1.3382353E0,1.91091E-1,2.0363636E0,1.3090909E0,1.6230981E-1,2.71052E-1,2E-1,8E0,5.0026E-2,5.8358E-2,-1.9573681E-1,2.4285715E0,9.9646E-2,1.4689E-2,7.741935E-1,3.0305E-2,1.1666666E0,1E0,5.2885E-2,-2.3239891E-1,2.3256E-2,9.673E-2,2.4827585E0,6.735491E-2,-5.44992E-3,-1.6561005E-2,-1.3139121E-1,2.232068E-2,-2.5935617E-1,-8.678964E-2,1.1827866E-1,-5.9372387E-3,1.4155157E-1,8.946538E-3,1.978228E-1,-8.8751644E-2,9.468251E-2,1.043982E-2,2.2535563E-1,1.500799E-2,-8.351196E-2],"split_indices":[6,7,6,6,0,0,2,2,7,0,0,6,0,7,6,0,2,1,3,0,3,0,6,0,0,0,0,0,0,0,0,0,0,0,0,0,0,0,0,0,0],"split_type":[0,0,0,0,0,0,0,0,0,0,0,0,0,0,0,0,0,0,0,0,0,0,0,0,0,0,0,0,0,0,0,0,0,0,0,0,0,0,0,0,0],"sum_hessian":[6.2102454E2,4.1513025E2,2.0589429E2,4.1326486E2,1.8653654E0,9.049362E1,1.15400665E2,4.0631827E2,6.9466176E0,8.872375E1,1.7698784E0,1.7746784E1,9.765388E1,3.5276212E2,5.3556145E1,4.150776E0,2.7958415E0,3.0546782E1,5.8176964E1,2.556149E0,1.5190636E1,6.6720085E1,3.093379E1,1.831074E1,3.344514E2,4.5417706E1,8.13844E0,1.4782851E0,2.672491E0,1.183726E0,1.6121156E0,8.254308E0,2.2292473E1,5.4125065E1,4.051899E0,1.2019077E1,3.1715584E0,6.320335E1,3.5167353E0,1.207481E1,1.885898E1],"tree_param":{"num_deleted":"0","num_feature":"9","num_nodes":"41","size_leaf_vector":"1"}},{"base_weights":[1.4729728E-4,-1.4352857E-1,1.5145315E-2,1.7389084E-1,-3.0829218E-1,3.2689714E-1,4.4728937E-3,6.964102E-1,-1.07086845E-1,-7.572002E-1,-2.030507E-1,1.13388196E-1,6.694098E-1,-1.0108742E-1,3.6360517E-2,9.2430484E-1,2.7134025E-1,-3.4881458E-1,1.6491306E-1,-2.8644678E-1,-2.0431569E-1,4.574024E-1,-3.6445883E-1,5.7689744E-1,-3.884791E-1,1.65125E-1,2.3970246E-1,-3.613018E-2,-4.6741894E-1,4.4719765E-1,2.0241993E-2,7.210534E-2,2.2699319E-1,-6.1948765E-2,1.4844029E-1,5.7562333E-2,-1.5160775E-1,-1.247066E-1,3.329743E-2,-6.1344888E-2,1.4436464E-1,-8.500126E-3,-1.5653096E-1,4.5700106E-3,2.6135242E-1,-1.4754662E-1,6.1826628E-2,1.0431129E-1,-7.239673E-2,-2.0947766E-2,8.930815E-2,-1.5128021E-1,5.6681406E-2,-3.7655115E-2,1.6307768E-1,-1.8280835E-1,8.655793E-3],"categories":[],"categories_nodes":[],"categories_segments":[],"categories_sizes":[],"default_left":[0,0,0,0,0,0,0,0,0,0,0,0,0,0,0,0,0,0,0,0,0,0,0,0,0,0,0,0,0,0,0,0,0,0,0,0,0,0,0,0,0,0,0,0,0,0,0,0,0,0,0,0,0,0,0,0,0],"id":10,"left_children":[1,3,5,7,9,11,13,15,17,19,21,23,25,27,29,31,33,35,-1,37,-1,39,41,43,45,47,-1,49,51,53,55,-1,-1,-1,-1,-1,-1,-1,-1,-1,-1,-1,-1,-1,-1,-1,-1,-1,-1,-1,-1,-1,-1,-1,-1,-1,-1],"loss_changes":[1.3371572E0,3.1211386E0,1.8679639E0,3.1109536E0,1.6874344E0,1.2831619E0,1.83578E0,4.6269846E-1,3.5116765E0,5.8292294E-1,3.6778774E0,3.167223E0,1.6517751E0,2.9941902E0,2.7639377E0,1.10920906E-1,1.320558E0,3.362555E0,0E0,7.022562E-1,0E0,1.6179931E0,3.605425E0,2.7926166E0,1.8537062E0,1.0735523E0,0E0,3.6418917E0,4.3313293E0,3.8412669E0,8.734604E0,0E0,0E0,0E0,0E0,0E0,0E0,0E0,0E0,0E0,0E0,0E0,0E0,0E0,0E0,0E0,0E0,0E0,0E0,0E0,0E0,0E0,0E0,0E0,0E0,0E0,0E0],"parents":[2147483647,0,0,1,1,2,2,3,3,4,4,5,5,6,6,7,7,8,8,9,9,10,10,11,11,12,12,13,13,14,14,15,15,16,16,17,17,19,19,21,21,22,22,23,23,24,24,25,25,27,27,28,28,29,29,30,30],"right_children":[2,4,6,8,10,12,14,16,18,20,22,24,26,28,30,32,34,36,-1,38,-1,40,42,44,46,48,-1,50,52,54,56,-1,-1,-1,-1,-1,-1,-1,-1,-1,-1,-1,-1,-1,-1,-1,-1,-1,-1,-1,-1,-1,-1,-1,-1,-1,-1],"split_conditions":[2.6181817E-1,4.7809E-2,3E-1,2.5E0,3.98E-2,8E0,1.7751E-2,1.3793E-2,4.0008E-2,3.6383E-2,4.689E-2,2.7174E-2,2.6455E-2,6.0486E-2,3.7748E-2,1.6112E-2,1.875E-2,6.41E-3,1.6491306E-1,5.016E-2,-2.0431569E-1,1.6666666E0,3.5E0,1.81E-2,1.31076E-1,3.8415E-2,2.3970246E-1,3.2065E-2,8.3943E-2,1.9324E-2,4.239E-2,7.210534E-2,2.2699319E-1,-6.1948765E-2,1.4844029E-1,5.7562333E-2,-1.5160775E-1,-1.247066E-1,3.329743E-2,-6.1344888E-2,1.4436464E-1,-8.500126E-3,-1.5653096E-1,4.5700106E-3,2.6135242E-1,-1.4754662E-1,6.1826628E-2,1.0431129E-1,-7.239673E-2,-2.0947766E-2,8.930815E-2,-1.5128021E-1,5.6681406E-2,-3.7655115E-2,1.6307768E-1,-1.8280835E-1,8.655793E-3],"split_indices":[6,0,6,2,7,2,3,3,0,7,7,3,3,0,0,7,3,3,0,0,0,2,2,3,0,7,0,7,0,3,0,0,0,0,0,0,0,0,0,0,0,0,0,0,0,0,0,0,0,0,0,0,0,0,0,0,0],"split_type":[0,0,0,0,0,0,0,0,0,0,0,0,0,0,0,0,0,0,0,0,0,0,0,0,0,0,0,0,0,0,0,0,0,0,0,0,0,0,0,0,0,0,0,0,0,0,0,0,0,0,0,0,0,0,0,0,0],"sum_hessian":[6.185241E2,5.7653503E1,5.608706E2,1.9681473E1,3.797203E1,1.7584356E1,5.4328625E2,6.365453E0,1.3316021E1,6.034967E0,3.1937065E1,1.1652003E1,5.932353E0,1.2553778E2,4.1774847E2,3.3792455E0,2.986207E0,1.1069507E1,2.2465136E0,2.919666E0,3.115301E0,5.9120774E0,2.6024986E1,5.979769E0,5.6722336E0,3.7092094E0,2.2231433E0,1.07563446E2,1.7974329E1,1.4761276E1,4.029872E2,1.656764E0,1.7224816E0,1.4898173E0,1.4963899E0,4.4474072E0,6.6221E0,1.4579587E0,1.4617074E0,1.4787574E0,4.43332E0,1.5326863E1,1.0698124E1,3.985582E0,1.9941872E0,3.7415466E0,1.930687E0,2.2191508E0,1.4900589E0,9.486236E1,1.2701089E1,1.2973565E1,5.000764E0,5.5943823E0,9.166894E0,8.76676E0,3.9422046E2],"tree_param":{"num_deleted":"0","num_feature":"9","num_nodes":"57","size_leaf_vector":"1"}},{"base_weights":[7.46204E-4,-2.605611E-2,5.8962334E-2,1.2167017E-2,-9.303577E-2,2.1144035E-1,-4.8401386E-2,-1.7215552E-2,3.445823E-1,-1.6914576E-1,2.4367741E-1,2.386718E-1,-1.6597547E-1,-6.0008067E-1,-7.7951117E-3,1.3482854E-2,-3.029665E-1,-2.8293487E-1,5.922971E-1,-1.21758E-1,-7.748174E-1,2.6431108E-1,1.0410826E-1,1.5144125E-1,5.682487E-1,-1.0285363E0,1.1575451E-1,-3.3335367E-1,5.5914883E-2,1.3898385E-2,-3.293389E-2,-9.391237E-2,2.0903444E-1,-1.2554911E-1,7.7487536E-2,3.1499544E-1,3.013326E-3,6.019605E-2,-3.1558447E-2,-2.1235998E-1,-4.726746E-2,8.953266E-2,-2.0809617E-2,8.276256E-2,-2.5822518E-2,2.4401462E-2,1.456791E-1,-2.346808E-1,-7.56186E-2,1.8650937E-1,-1.2156689E-1,-1.9998431E-1,-3.746607E-2,3.6962E-2,-4.249363E-2],"categories":[],"categories_nodes":[],"categories_segments":[],"categories_sizes":[],"default_left":[0,0,0,0,0,0,0,0,0,0,0,0,0,0,0,0,0,0,0,0,0,0,0,0,0,0,0,0,0,0,0,0,0,0,0,0,0,0,0,0,0,0,0,0,0,0,0,0,0,0,0,0,0,0,0],"id":11,"left_children":[1,3,5,7,9,11,13,15,17,19,21,23,-1,25,27,29,31,33,35,37,39,-1,41,43,45,47,49,51,53,-1,-1,-1,-1,-1,-1,-1,-1,-1,-1,-1,-1,-1,-1,-1,-1,-1,-1,-1,-1,-1,-1,-1,-1,-1,-1],"loss_changes":[9.6617097E-1,1.0867012E0,3.205842E0,2.651355E0,3.9922886E0,2.4904828E0,2.5796115E0,2.195385E0,3.5941875E0,3.5318162E0,4.2001724E0,2.2011938E0,0E0,2.5407498E0,2.2683635E0,2.2717688E0,5.942953E0,1.8417959E0,9.124641E0,1.8504674E0,1.1369567E0,0E0,1.9498326E0,4.78444E0,1.0750628E0,3.1309605E-2,2.8453918E0,1.5545609E0,3.2069697E0,0E0,0E0,0E0,0E0,0E0,0E0,0E0,0E0,0E0,0E0,0E0,0E0,0E0,0E0,0E0,0E0,0E0,0E0,0E0,0E0,0E0,0E0,0E0,0E0,0E0,0E0],"parents":[2147483647,0,0,1,1,2,2,3,3,4,4,5,5,6,6,7,7,8,8,9,9,10,10,11,11,13,13,14,14,15,15,16,16,17,17,18,18,19,19,20,20,22,22,23,23,24,24,25,25,26,26,27,27,28,28],"right_children":[2,4,6,8,10,12,14,16,18,20,22,24,-1,26,28,30,32,34,36,38,40,-1,42,44,46,48,50,52,54,-1,-1,-1,-1,-1,-1,-1,-1,-1,-1,-1,-1,-1,-1,-1,-1,-1,-1,-1,-1,-1,-1,-1,-1,-1,-1],"split_conditions":[1.4117647E0,7.6363635E-1,2.0363636E0,6.976744E-1,8.9242E-2,2.71052E-1,2.121212E0,6.2068963E-1,1.9455E-2,1E0,9.1587E-2,3.9773E-2,-1.6597547E-1,7.1179E-2,2E-1,1.05316E-1,8E0,1.1666666E0,3.0043E-2,9.091E-3,8.2296E-2,2.6431108E-1,5E-1,4.3833E-2,1.5697675E0,6.9157E-2,1.15324E-1,2.4285715E0,3.5398E-2,1.3898385E-2,-3.293389E-2,-9.391237E-2,2.0903444E-1,-1.2554911E-1,7.7487536E-2,3.1499544E-1,3.013326E-3,6.019605E-2,-3.1558447E-2,-2.1235998E-1,-4.726746E-2,8.953266E-2,-2.0809617E-2,8.276256E-2,-2.5822518E-2,2.4401462E-2,1.456791E-1,-2.346808E-1,-7.56186E-2,1.8650937E-1,-1.2156689E-1,-1.9998431E-1,-3.746607E-2,3.6962E-2,-4.249363E-2],"split_indices":[6,6,6,6,7,0,6,6,3,8,7,3,0,7,2,0,2,2,3,3,0,0,2,7,6,0,0,6,3,0,0,0,0,0,0,0,0,0,0,0,0,0,0,0,0,0,0,0,0,0,0,0,0,0,0],"split_type":[0,0,0,0,0,0,0,0,0,0,0,0,0,0,0,0,0,0,0,0,0,0,0,0,0,0,0,0,0,0,0,0,0,0,0,0,0,0,0,0,0,0,0,0,0,0,0,0,0,0,0,0,0,0,0],"sum_hessian":[6.1722595E2,4.230219E2,1.9420403E2,2.698472E2,1.5317471E2,7.984241E1,1.1436162E2,2.4880339E2,2.1043806E1,1.2534063E2,2.7834091E1,7.8558815E1,1.283589E0,6.8958707E0,1.07465744E2,2.2552763E2,2.3275759E1,5.9157367E0,1.5128069E1,1.1735945E2,7.9811754E0,2.2200506E0,2.561404E1,6.3271877E1,1.5286942E1,4.040586E0,2.8552847E0,1.6895786E1,9.056996E1,1.720477E2,5.3479927E1,2.1295837E1,1.9799223E0,3.948425E0,1.9673119E0,4.958384E0,1.0169685E1,8.640473E0,1.0871898E2,4.5724483E0,3.4087274E0,9.229858E0,1.6384182E1,3.244996E1,3.0821917E1,4.5025773E0,1.0784364E1,2.6470294E0,1.3935565E0,1.205607E0,1.6496775E0,1.9853531E0,1.4910434E1,6.1395306E1,2.9174654E1],"tree_param":{"num_deleted":"0","num_feature":"9","num_nodes":"55","size_leaf_vector":"1"}},{"base_weights":[6.9324736E-4,-7.062616E-2,2.3878908E-2,6.524191E-1,-1.06953375E-1,4.6189982E-1,1.1537472E-2,2.4883544E-1,2.4304529E-1,-5.2734617E-2,-4.2420977E-1,-1.7980619E-1,1.0095268E0,-3.6677453E-1,3.585833E-2,1.3197333E-1,-9.119191E-2,-1.10935904E-1,3.6890256E-1,-6.750716E-1,2.4920785E-1,-5.3959614E-1,1.4134364E-1,2.526978E-1,2.849019E-2,-6.905118E-1,1.6747262E-2,8.104314E-1,1.08623905E-2,-6.6661024E-3,-1.2849994E-1,-1.3655755E-1,1.0561483E-1,5.246237E-2,-1.6144095E-1,-7.892E-2,1.3460939E-1,-2.50388E-2,-2.147876E-1,-2.0649736E-1,-6.072057E-2,3.945584E-2,-1.2656346E-1,2.1859415E-1,-1.9274537E-1,1.3938986E-1,-1.5939319E-3],"categories":[],"categories_nodes":[],"categories_segments":[],"categories_sizes":[],"default_left":[0,0,0,0,0,0,0,0,0,0,0,0,0,0,0,0,0,0,0,0,0,0,0,0,0,0,0,0,0,0,0,0,0,0,0,0,0,0,0,0,0,0,0,0,0,0,0],"id":12,"left_children":[1,3,5,7,9,11,13,15,-1,17,19,21,23,25,27,-1,-1,29,31,33,35,37,-1,-1,-1,39,41,43,45,-1,-1,-1,-1,-1,-1,-1,-1,-1,-1,-1,-1,-1,-1,-1,-1,-1,-1],"loss_changes":[1.0204225E0,4.0464683E0,2.5120296E0,1.3747094E0,2.4720829E0,4.656967E0,4.1898074E0,1.9108489E0,0E0,3.1082063E0,3.719896E0,2.5224926E0,1.3664279E0,3.427113E0,8.266788E0,0E0,0E0,4.5410833E0,2.9371567E0,2.1423774E0,2.0219278E0,1.0484444E0,0E0,0E0,0E0,1.6634173E0,1.7159501E0,7.7446194E0,5.368607E0,0E0,0E0,0E0,0E0,0E0,0E0,0E0,0E0,0E0,0E0,0E0,0E0,0E0,0E0,0E0,0E0,0E0,0E0],"parents":[2147483647,0,0,1,1,2,2,3,3,4,4,5,5,6,6,7,7,9,9,10,10,11,11,12,12,13,13,14,14,17,17,18,18,19,19,20,20,21,21,25,25,26,26,27,27,28,28],"right_children":[2,4,6,8,10,12,14,16,-1,18,20,22,24,26,28,-1,-1,30,32,34,36,38,-1,-1,-1,40,42,44,46,-1,-1,-1,-1,-1,-1,-1,-1,-1,-1,-1,-1,-1,-1,-1,-1,-1,-1],"split_conditions":[1.7751E-2,1.2413793E-1,2.7839E-2,3.3333333E0,6.1226E-2,2.4859E-2,3.4889E-2,1.6666666E0,2.4304529E-1,3.2065E-2,8.3943E-2,2.027E-2,3.3333333E0,1.6666666E0,1.9324E-2,1.3197333E-1,-9.119191E-2,1.5873E-2,3.3333334E-1,4E-1,5.603448E-1,1.3382353E0,1.4134364E-1,2.526978E-1,2.849019E-2,2.0833E-2,2.551E-2,1.02935E-1,4.8795E-2,-6.6661024E-3,-1.2849994E-1,-1.3655755E-1,1.0561483E-1,5.246237E-2,-1.6144095E-1,-7.892E-2,1.3460939E-1,-2.50388E-2,-2.147876E-1,-2.0649736E-1,-6.072057E-2,3.945584E-2,-1.2656346E-1,2.1859415E-1,-1.9274537E-1,1.3938986E-1,-1.5939319E-3],"split_indices":[3,6,7,2,0,7,7,2,0,7,0,3,2,2,3,0,0,3,2,2,6,6,0,0,0,3,3,0,0,0,0,0,0,0,0,0,0,0,0,0,0,0,0,0,0,0,0],"split_type":[0,0,0,0,0,0,0,0,0,0,0,0,0,0,0,0,0,0,0,0,0,0,0,0,0,0,0,0,0,0,0,0,0,0,0,0,0,0,0,0,0,0,0,0,0,0,0],"sum_hessian":[6.150762E2,1.5039941E2,4.646768E2,6.38356E0,1.4401585E2,1.1735485E1,4.5294128E2,4.5575314E0,1.8260285E0,1.2399199E2,2.002387E1,5.7128572E0,6.022628E0,2.6509182E1,4.2643213E2,2.9189618E0,1.6385698E0,1.09600075E2,1.4391911E1,1.4587334E1,5.436537E0,4.342015E0,1.3708422E0,4.304638E0,1.7179902E0,1.3940943E1,1.2568238E1,1.2348697E1,4.1408344E2,9.656484E1,1.30352335E1,1.4594295E0,1.2932481E1,1.68047E0,1.2906863E1,2.1856065E0,3.2509303E0,3.1406324E0,1.2013823E0,6.514477E0,7.426466E0,1.0379718E1,2.1885202E0,1.0983496E1,1.3652006E0,1.0100343E1,4.039831E2],"tree_param":{"num_deleted":"0","num_feature":"9","num_nodes":"47","size_leaf_vector":"1"}},{"base_weights":[6.842406E-4,-1.3216323E-1,1.4351033E-2,1.2948239E-1,-2.6064458E-1,2.8178307E-1,5.172721E-3,-7.640052E-2,6.9708145E-1,-6.073596E-1,-1.3034718E-1,3.6378375E-1,-8.182521E-2,2.0868868E-2,-1.97594E-1,4.9095795E-1,-3.4051177E-1,2.005296E-1,-1.4743757E-2,-3.3639908E-1,-2.3433094E-1,7.98197E-1,-2.941676E-1,1.8965647E-1,2.4145725E-1,2.4652016E-1,5.648574E-3,-5.85225E-1,-3.9182333E-3,1.4981504E-1,-4.0139288E-2,3.810611E-2,-1.425954E-1,-1.2078234E-1,1.09407775E-1,-1.5002973E-2,2.6399705E-1,-3.9520446E-4,-1.2869823E-1,-9.288161E-3,1.0925563E-1,2.6543068E-3,2.0920265E-1,-8.867435E-2,2.4969883E-3,2.1074263E-3,-1.4853846E-1,9.839182E-2,-3.287929E-2],"categories":[],"categories_nodes":[],"categories_segments":[],"categories_sizes":[],"default_left":[0,0,0,0,0,0,0,0,0,0,0,0,0,0,0,0,0,0,0,0,0,0,0,0,0,0,0,0,0,0,0,0,0,0,0,0,0,0,0,0,0,0,0,0,0,0,0,0,0],"id":13,"left_children":[1,3,5,7,9,11,13,15,17,19,21,23,-1,25,27,29,31,-1,-1,33,-1,35,37,39,-1,41,43,45,47,-1,-1,-1,-1,-1,-1,-1,-1,-1,-1,-1,-1,-1,-1,-1,-1,-1,-1,-1,-1],"loss_changes":[1.1174854E0,1.9637877E0,1.3682772E0,2.3409054E0,1.6753418E0,1.1968162E0,1.7244632E0,2.4548209E0,1.3244619E0,1.1861303E0,4.722474E0,2.2774055E0,0E0,1.7247897E0,2.9205165E0,1.0891955E0,2.3131227E0,0E0,0E0,2.312041E0,0E0,2.2375965E0,2.6329622E0,1.3161939E0,0E0,5.904135E0,1.4540151E0,1.224052E0,2.2268944E0,0E0,0E0,0E0,0E0,0E0,0E0,0E0,0E0,0E0,0E0,0E0,0E0,0E0,0E0,0E0,0E0,0E0,0E0,0E0,0E0],"parents":[2147483647,0,0,1,1,2,2,3,3,4,4,5,5,6,6,7,7,8,8,9,9,10,10,11,11,13,13,14,14,15,15,16,16,19,19,21,21,22,22,23,23,25,25,26,26,27,27,28,28],"right_children":[2,4,6,8,10,12,14,16,18,20,22,24,-1,26,28,30,32,-1,-1,34,-1,36,38,40,-1,42,44,46,48,-1,-1,-1,-1,-1,-1,-1,-1,-1,-1,-1,-1,-1,-1,-1,-1,-1,-1,-1,-1],"split_conditions":[2.6181817E-1,4.6374E-2,3E-1,2.59E-2,6.0817E-2,1.3598E-1,8E0,2.5E0,3.2607E-2,4.1504E-2,6.8031E-2,1.31076E-1,-8.182521E-2,3.6734694E-1,4.1860464E-1,1.3793E-2,6.41E-3,2.005296E-1,-1.4743757E-2,3.98E-2,-2.3433094E-1,1.6666666E0,3.5E0,8E0,2.4145725E-1,3.5E0,3.7818182E-1,1E0,2.2776E-2,1.4981504E-1,-4.0139288E-2,3.810611E-2,-1.425954E-1,-1.2078234E-1,1.09407775E-1,-1.5002973E-2,2.6399705E-1,-3.9520446E-4,-1.2869823E-1,-9.288161E-3,1.0925563E-1,2.6543068E-3,2.0920265E-1,-8.867435E-2,2.4969883E-3,2.1074263E-3,-1.4853846E-1,9.839182E-2,-3.287929E-2],"split_indices":[6,0,6,7,0,7,2,2,7,7,0,0,0,6,6,3,3,0,0,7,0,2,2,2,0,2,6,1,7,0,0,0,0,0,0,0,0,0,0,0,0,0,0,0,0,0,0,0,0],"split_type":[0,0,0,0,0,0,0,0,0,0,0,0,0,0,0,0,0,0,0,0,0,0,0,0,0,0,0,0,0,0,0,0,0,0,0,0,0,0,0,0,0,0,0,0,0,0,0,0,0],"sum_hessian":[6.134467E2,5.64133E1,5.5703345E2,1.8576147E1,3.783715E1,1.7497616E1,5.395358E2,1.4266657E1,4.3094893E0,9.33523E0,2.8501923E1,1.6064472E1,1.433144E0,5.0160382E2,3.7932003E1,4.2588897E0,1.0007767E1,2.870683E0,1.4388064E0,7.385187E0,1.9500426E0,3.6936572E0,2.4808266E1,1.4330931E1,1.7335417E0,3.0735287E1,4.7086853E2,1.1964356E1,2.5967648E1,3.0410037E0,1.2178862E0,4.327003E0,5.680764E0,5.911532E0,1.4736552E0,1.7018492E0,1.9918078E0,1.4056428E1,1.0751838E1,9.145821E0,5.1851106E0,2.4580603E1,6.154684E0,6.1038804E0,4.6476465E2,2.6962905E0,9.268066E0,5.844029E0,2.012362E1],"tree_param":{"num_deleted":"0","num_feature":"9","num_nodes":"49","size_leaf_vector":"1"}},{"base_weights":[1.0536065E-3,-3.3385053E-3,3.5755438E-1,8.184059E-3,-2.0083374E-1,7.7513534E-1,-4.6067062E-1,-1.8613284E-2,1.01493694E-1,-8.3594346E-1,-8.159297E-2,4.9117643E-2,1.9672392E-1,4.2686146E-3,-1.4885502E-1,-1.0509114E-2,-8.369194E-1,-6.040007E-1,1.2672707E-1,-2.009374E-2,-2.053298E-1,1.833987E-1,-1.8584575E-1,2.9315576E-3,-3.699471E-2,-2.2143765E-1,-7.760211E-2,-1.987258E-1,5.7712335E-2,1.1968122E-1,1.5647613E-2,-5.2858915E-2,1.4211185E-1],"categories":[],"categories_nodes":[],"categories_segments":[],"categories_sizes":[],"default_left":[0,0,0,0,0,0,0,0,0,0,0,0,0,0,0,0,0,0,0,0,0,0,0,0,0,0,0,0,0,0,0,0,0],"id":14,"left_children":[1,3,5,7,9,11,13,15,17,19,21,-1,-1,-1,-1,23,25,27,29,-1,-1,-1,31,-1,-1,-1,-1,-1,-1,-1,-1,-1,-1],"loss_changes":[9.6116155E-1,1.3820935E0,2.9096036E0,1.4374905E0,2.467286E0,3.4566927E-1,4.467076E-1,2.9548094E0,2.3596869E0,6.239691E-1,3.2203102E0,0E0,0E0,0E0,0E0,1.9500678E0,1.0055208E-1,1.8872209E0,2.8040783E0,0E0,0E0,0E0,2.111682E0,0E0,0E0,0E0,0E0,0E0,0E0,0E0,0E0,0E0,0E0],"parents":[2147483647,0,0,1,1,2,2,3,3,4,4,5,5,6,6,7,7,8,8,9,9,10,10,15,15,16,16,17,17,18,18,22,22],"right_children":[2,4,6,8,10,12,14,16,18,20,22,-1,-1,-1,-1,24,26,28,30,-1,-1,-1,32,-1,-1,-1,-1,-1,-1,-1,-1,-1,-1],"split_conditions":[7.8571E-2,1.87264E-1,2.85884E-1,3.8043E-2,1.20145E-1,1.70166E-1,1.125E0,3.7736E-2,5.2945E-2,4E-1,2.9167E-2,4.9117643E-2,1.9672392E-1,4.2686146E-3,-1.4885502E-1,6.4634E-2,7.6295E-2,4.1667E-2,6.0597E-2,-2.009374E-2,-2.053298E-1,1.833987E-1,3.1505E-1,2.9315576E-3,-3.699471E-2,-2.2143765E-1,-7.760211E-2,-1.987258E-1,5.7712335E-2,1.1968122E-1,1.5647613E-2,-5.2858915E-2,1.4211185E-1],"split_indices":[3,0,0,3,7,0,6,3,7,2,3,0,0,0,0,7,0,3,7,0,0,0,0,0,0,0,0,0,0,0,0,0,0],"split_type":[0,0,0,0,0,0,0,0,0,0,0,0,0,0,0,0,0,0,0,0,0,0,0,0,0,0,0,0,0,0,0,0,0],"sum_hessian":[6.12088E2,6.0561743E2,6.470609E0,5.7313715E2,3.2480267E1,4.319047E0,2.1515622E0,4.458851E2,1.2725203E2,4.1840887E0,2.8296179E1,1.8353227E0,2.483724E0,1.1395419E0,1.0120203E0,4.4251547E2,3.3696506E0,3.6022058E0,1.2364982E2,1.1759082E0,3.0081806E0,1.9379203E0,2.6358257E1,3.8752942E2,5.4986034E1,1.1880046E0,2.1816459E0,2.4287548E0,1.1734511E0,1.0469194E1,1.13180626E2,2.4885561E1,1.4726965E0],"tree_param":{"num_deleted":"0","num_feature":"9","num_nodes":"33","size_leaf_vector":"1"}},{"base_weights":[5.322086E-4,-1.3233893E-1,1.2292563E-2,7.982471E-3,-8.410271E-1,1.9325335E-1,8.724221E-3,2.4662302E-1,-2.3213544E-1,-2.0676206E-1,7.5248973E-3,-1.7313235E-1,1.2093162E-2,-9.547173E-2,9.6809375E-1,-6.032837E-1,-4.1872878E-2,1.6350986E-1,-6.599919E-3,3.0726364E-2,-1.630563E-1,8.530579E-3,2.334162E-1,7.833649E-2,-1.8416019E-1,-6.499604E-2,1.2446568E-1,1.5747063E-2,1.938033E-1,-1.4963847E-1,3.3267927E-3],"categories":[],"categories_nodes":[],"categories_segments":[],"categories_sizes":[],"default_left":[0,0,0,0,0,0,0,0,0,0,0,0,0,0,0,0,0,0,0,0,0,0,0,0,0,0,0,0,0,0,0],"id":15,"left_children":[1,3,5,7,9,-1,11,13,15,-1,-1,-1,17,19,21,23,25,27,29,-1,-1,-1,-1,-1,-1,-1,-1,-1,-1,-1,-1],"loss_changes":[9.582508E-1,4.965412E0,1.9092102E0,2.4990776E0,1.436491E0,0E0,1.6666938E0,5.48706E0,1.5110577E0,0E0,0E0,0E0,1.5891554E0,2.94704E0,1.2614031E0,2.6664171E0,3.1088789E0,4.136555E0,8.633956E0,0E0,0E0,0E0,0E0,0E0,0E0,0E0,0E0,0E0,0E0,0E0,0E0],"parents":[2147483647,0,0,1,1,2,2,3,3,4,4,6,6,7,7,8,8,12,12,13,13,14,14,15,15,16,16,17,17,18,18],"right_children":[2,4,6,8,10,-1,12,14,16,-1,-1,-1,18,20,22,24,26,28,30,-1,-1,-1,-1,-1,-1,-1,-1,-1,-1,-1,-1],"split_conditions":[1.6112E-2,1.4689E-2,2.0447E-2,1.048387E0,1.5697675E0,1.9325335E-1,2.0874E-2,6.2857145E-1,1.4583334E0,-2.0676206E-1,7.5248973E-3,-1.7313235E-1,3.9123E-2,1.3105E-2,8.447E-3,7.543E-3,9.091E-3,2.2599E-2,4.239E-2,3.0726364E-2,-1.630563E-1,8.530579E-3,2.334162E-1,7.833649E-2,-1.8416019E-1,-6.499604E-2,1.2446568E-1,1.5747063E-2,1.938033E-1,-1.4963847E-1,3.3267927E-3],"split_indices":[7,7,0,6,6,0,0,6,6,0,0,0,0,7,0,0,3,3,0,0,0,0,0,0,0,0,0,0,0,0,0],"split_type":[0,0,0,0,0,0,0,0,0,0,0,0,0,0,0,0,0,0,0,0,0,0,0,0,0,0,0,0,0,0,0],"sum_hessian":[6.111957E2,4.886418E1,5.623315E2,4.16134E1,7.2507834E0,1.0901791E0,5.6124133E2,2.0857317E1,2.075608E1,5.8013363E0,1.449447E0,1.1717353E0,5.600696E2,1.4737167E1,6.1201496E0,6.298568E0,1.4457514E1,6.06938E1,4.9937576E2,1.1532647E1,3.204521E0,1.2979681E0,4.822181E0,1.467248E0,4.83132E0,1.0494912E1,3.9626017E0,5.5907623E1,4.7861814E0,1.4222156E1,4.8515363E2],"tree_param":{"num_deleted":"0","num_feature":"9","num_nodes":"31","size_leaf_vector":"1"}},{"base_weights":[2.886242E-4,9.801116E-3,-1.4671691E-1,-2.0063791E-2,8.9962326E-2,1.669928E-1,-4.6379858E-1,-2.0101814E-1,-6.904235E-3,3.1017575E-2,3.2261327E-1,-1.0159109E-1,1.0954069E0,-1.1474082E0,-8.548081E-2,2.4098758E-2,-4.4172966E-1,4.1714627E-2,-7.512855E-2,-4.4930745E-3,4.6110535E-1,-1.2087655E-1,5.5981284E-1,-2.617272E-1,1.0368957E-1,4.324173E-2,2.721321E-1,-2.707522E-1,-1.9916957E-2,2.7640265E-1,-1.896262E-1,-8.1374876E-2,1.121731E-1,-2.187957E-1,-5.228458E-2,1.2286021E-2,-1.05798356E-1,-5.3749345E-3,-1.1581947E-1,8.569649E-3,-1.0130999E-1,2.3726857E-1,-2.3561453E-2,1.7048724E-1,-1.03746906E-1,1.7176165E-1,3.5067674E-2,-9.862054E-2,5.855724E-2,9.9124E-2,-1.58262E-1],"categories":[],"categories_nodes":[],"categories_segments":[],"categories_sizes":[],"default_left":[0,0,0,0,0,0,0,0,0,0,0,0,0,0,0,0,0,0,0,0,0,0,0,0,0,0,0,0,0,0,0,0,0,0,0,0,0,0,0,0,0,0,0,0,0,0,0,0,0,0,0],"id":16,"left_children":[1,3,5,7,9,11,13,15,17,19,21,23,25,27,29,31,33,35,37,39,41,43,45,47,-1,-1,-1,-1,-1,49,-1,-1,-1,-1,-1,-1,-1,-1,-1,-1,-1,-1,-1,-1,-1,-1,-1,-1,-1,-1,-1],"loss_changes":[8.561427E-1,1.3783532E0,3.7787042E0,9.9813235E-1,2.1328273E0,4.9586067E0,4.756208E0,1.5506698E0,1.3044584E0,1.9230176E0,3.379248E0,1.7236077E0,7.4282646E-1,1.2936249E0,4.371425E0,3.8448315E0,1.3353076E0,2.6172237E0,3.9630127E0,2.8067002E0,4.1713495E0,5.008647E0,2.2276173E0,1.8603387E0,0E0,0E0,0E0,0E0,0E0,2.7439382E0,0E0,0E0,0E0,0E0,0E0,0E0,0E0,0E0,0E0,0E0,0E0,0E0,0E0,0E0,0E0,0E0,0E0,0E0,0E0,0E0,0E0],"parents":[2147483647,0,0,1,1,2,2,3,3,4,4,5,5,6,6,7,7,8,8,9,9,10,10,11,11,12,12,13,13,14,14,15,15,16,16,17,17,18,18,19,19,20,20,21,21,22,22,23,23,29,29],"right_children":[2,4,6,8,10,12,14,16,18,20,22,24,26,28,30,32,34,36,38,40,42,44,46,48,-1,-1,-1,-1,-1,50,-1,-1,-1,-1,-1,-1,-1,-1,-1,-1,-1,-1,-1,-1,-1,-1,-1,-1,-1,-1,-1],"split_conditions":[3.5555556E0,1.4117647E0,6.6145E-2,3.3333334E-1,2E0,5.5574E-2,8.6958E-2,8.727273E-1,2.5E0,5.2885E-2,2.2222E-2,5.9302325E0,4.0105E-2,1E0,4.3137E-2,6.486486E-1,9.72973E-1,2.49669E-1,1.0833334E0,8.7338E-2,6.1321E-2,2.5E0,3.6842E-2,6E-1,1.0368957E-1,4.324173E-2,2.721321E-1,-2.707522E-1,-1.9916957E-2,1.1666666E0,-1.896262E-1,-8.1374876E-2,1.121731E-1,-2.187957E-1,-5.228458E-2,1.2286021E-2,-1.05798356E-1,-5.3749345E-3,-1.1581947E-1,8.569649E-3,-1.0130999E-1,2.3726857E-1,-2.3561453E-2,1.7048724E-1,-1.03746906E-1,1.7176165E-1,3.5067674E-2,-9.862054E-2,5.855724E-2,9.9124E-2,-1.58262E-1],"split_indices":[6,6,0,2,2,0,0,6,2,3,3,6,7,2,3,6,6,0,6,7,3,2,3,2,0,0,0,0,0,2,0,0,0,0,0,0,0,0,0,0,0,0,0,0,0,0,0,0,0,0,0],"split_type":[0,0,0,0,0,0,0,0,0,0,0,0,0,0,0,0,0,0,0,0,0,0,0,0,0,0,0,0,0,0,0,0,0,0,0,0,0,0,0,0,0,0,0,0,0,0,0,0,0,0,0],"sum_hessian":[6.102067E2,5.739976E2,3.6209137E1,4.1874094E2,1.5525667E2,1.8439285E1,1.776985E1,2.7419912E1,3.9132104E2,1.2477646E2,3.0480207E1,1.4992603E1,3.4466827E0,5.606372E0,1.2163478E1,1.4633932E1,1.278598E1,2.2871783E2,1.626032E2,1.1617398E2,8.602474E0,1.0792317E1,1.968789E1,1.2374543E1,2.6180604E0,1.219542E0,2.2271407E0,4.4400063E0,1.1663656E0,9.047586E0,3.1158915E0,8.251081E0,6.382851E0,1.6716324E0,1.1114347E1,2.2194301E2,6.7748265E0,1.4935602E2,1.3247176E1,1.06999176E2,9.174805E0,3.3528738E0,5.2496E0,2.7999656E0,7.9923515E0,1.03810835E1,9.306807E0,8.809464E0,3.565078E0,7.9509497E0,1.096637E0],"tree_param":{"num_deleted":"0","num_feature":"9","num_nodes":"51","size_leaf_vector":"1"}},{"base_weights":[-9.004978E-5,-4.19302E-3,3.4537467E-1,-6.9440906E-3,1.338735E-1,7.087234E-1,-7.5221315E-2,1.2772788E-3,-3.1358647E-1,4.329255E-2,1.834189E-1,-5.5636126E-3,5.1748335E-1,-6.90296E-1,-8.68819E-2,7.3344173E-4,-1.0395654E-1,2.4902654E-1,1.221804E-2,-2.2119848E-1,-2.986904E-2,9.358739E-2,-1.0379159E-1],"categories":[],"categories_nodes":[],"categories_segments":[],"categories_sizes":[],"default_left":[0,0,0,0,0,0,0,0,0,0,0,0,0,0,0,0,0,0,0,0,0,0,0],"id":17,"left_children":[1,3,5,7,-1,9,-1,11,13,-1,-1,15,17,19,21,-1,-1,-1,-1,-1,-1,-1,-1],"loss_changes":[8.6502963E-1,1.1221908E0,2.1443362E0,1.5171257E0,0E0,3.2568836E-1,0E0,2.0754695E0,1.2819595E0,0E0,0E0,2.7560701E0,2.4767082E0,1.1299739E0,2.8686976E0,0E0,0E0,0E0,0E0,0E0,0E0,0E0,0E0],"parents":[2147483647,0,0,1,1,2,2,3,3,5,5,7,7,8,8,11,11,12,12,13,13,14,14],"right_children":[2,4,6,8,-1,10,-1,12,14,-1,-1,16,18,20,22,-1,-1,-1,-1,-1,-1,-1,-1],"split_conditions":[7.8571E-2,3.1505E-1,2.85884E-1,1.39497E-1,1.338735E-1,1.70166E-1,-7.5221315E-2,2.06464E-1,5.1136E-2,4.329255E-2,1.834189E-1,1.87264E-1,3.3708E-2,4.25E-1,6.2069E-2,7.3344173E-4,-1.0395654E-1,2.4902654E-1,1.221804E-2,-2.2119848E-1,-2.986904E-2,9.358739E-2,-1.0379159E-1],"split_indices":[3,0,0,7,0,0,0,0,3,0,0,0,3,6,3,0,0,0,0,0,0,0,0],"split_type":[0,0,0,0,0,0,0,0,0,0,0,0,0,0,0,0,0,0,0,0,0,0,0],"sum_hessian":[6.0825806E2,6.0209503E2,6.1630206E0,6.0063153E2,1.4635112E0,4.110563E0,2.052458E0,5.8591833E2,1.4713185E1,1.8288583E0,2.2817044E0,5.7923145E2,6.686897E0,4.759509E0,9.953676E0,5.699923E2,9.239145E0,1.9113457E0,4.7755513E0,2.1006892E0,2.6588197E0,4.3215184E0,5.6321583E0],"tree_param":{"num_deleted":"0","num_feature":"9","num_nodes":"23","size_leaf_vector":"1"}},{"base_weights":[2.3593225E-4,-2.8576886E-2,4.6502683E-2,1.1078283E-3,-3.0288795E-1,5.57624E-1,3.0478294E-4,1.7777516E-2,-2.675682E-1,-7.319531E-1,-6.433263E-2,-6.311342E-2,6.668083E-1,-2.1883023E-1,3.980697E-2,-7.598312E-2,9.422725E-2,5.505732E-1,-4.9393344E-1,-8.646809E-1,6.067545E-2,3.6040425E-1,-3.708225E-1,1.1461164E0,2.4463037E-1,-5.5982333E-1,4.248832E-3,6.67184E-1,2.3561204E-2,-4.8498143E-3,-7.827223E-2,4.7901455E-2,-7.8243995E-3,-6.634892E-2,2.6969823E-1,-2.629661E-1,-4.3462522E-2,-2.417911E-3,-2.108387E-1,2.9580528E-2,1.8736222E-1,8.700552E-2,-1.3690147E-1,2.8399178E-1,9.056764E-2,-1.14390306E-1,1.15983605E-1,-1.568005E-1,5.27936E-4,8.1192024E-2,-4.1391846E-2,-6.867841E-3,2.020155E-1,-4.873504E-2,9.847371E-3],"categories":[],"categories_nodes":[],"categories_segments":[],"categories_sizes":[],"default_left":[0,0,0,0,0,0,0,0,0,0,0,0,0,0,0,0,0,0,0,0,0,0,0,0,0,0,0,0,0,0,0,0,0,0,0,0,0,0,0,0,0,0,0,0,0,0,0,0,0,0,0,0,0,0,0],"id":18,"left_children":[1,3,5,7,9,11,13,15,17,19,21,-1,23,25,27,29,31,33,35,37,-1,39,41,43,45,47,49,51,53,-1,-1,-1,-1,-1,-1,-1,-1,-1,-1,-1,-1,-1,-1,-1,-1,-1,-1,-1,-1,-1,-1,-1,-1,-1,-1],"loss_changes":[8.1265676E-1,3.0593514E0,5.523897E0,1.5274494E0,3.7080529E0,2.059217E0,1.8746017E0,2.308497E0,3.96181E0,2.0504985E0,3.3456979E0,0E0,3.2725005E0,2.518395E0,1.8543175E0,2.3523238E0,3.444234E0,3.820137E0,3.3777146E0,1.8928652E0,0E0,1.1903412E0,4.0453176E0,8.6651325E-1,3.2356658E0,1.6524053E0,1.8646861E0,1.1398954E0,1.246255E0,0E0,0E0,0E0,0E0,0E0,0E0,0E0,0E0,0E0,0E0,0E0,0E0,0E0,0E0,0E0,0E0,0E0,0E0,0E0,0E0,0E0,0E0,0E0,0E0,0E0,0E0],"parents":[2147483647,0,0,1,1,2,2,3,3,4,4,5,5,6,6,7,7,8,8,9,9,10,10,12,12,13,13,14,14,15,15,16,16,17,17,18,18,19,19,21,21,22,22,23,23,24,24,25,25,26,26,27,27,28,28],"right_children":[2,4,6,8,10,12,14,16,18,20,22,-1,24,26,28,30,32,34,36,38,-1,40,42,44,46,48,50,52,54,-1,-1,-1,-1,-1,-1,-1,-1,-1,-1,-1,-1,-1,-1,-1,-1,-1,-1,-1,-1,-1,-1,-1,-1,-1,-1],"split_conditions":[8.6518E-2,7.9875E-2,6.0597E-2,1E0,5.6806E-2,1.6043E-2,2.9412E-2,1.7964E-2,1.7964E-2,2.4827585E0,7.5581396E-1,-6.311342E-2,2.3041E-2,6.3529414E-1,3.0303E-2,5.6436E-2,2.5316E-2,1.4019E-2,2.3148E-2,5.2454E-2,6.067545E-2,6.486486E-1,5.8221E-2,9.1486E-2,2.6178E-2,7.9421E-2,1.0208334E0,2.9661E-2,2.5E-1,-4.8498143E-3,-7.827223E-2,4.7901455E-2,-7.8243995E-3,-6.634892E-2,2.6969823E-1,-2.629661E-1,-4.3462522E-2,-2.417911E-3,-2.108387E-1,2.9580528E-2,1.8736222E-1,8.700552E-2,-1.3690147E-1,2.8399178E-1,9.056764E-2,-1.14390306E-1,1.15983605E-1,-1.568005E-1,5.27936E-4,8.1192024E-2,-4.1391846E-2,-6.867841E-3,2.020155E-1,-4.873504E-2,9.847371E-3],"split_indices":[0,0,7,8,7,3,3,3,3,6,6,0,3,6,3,0,3,3,3,7,0,6,7,0,3,7,6,3,2,0,0,0,0,0,0,0,0,0,0,0,0,0,0,0,0,0,0,0,0,0,0,0,0,0,0],"split_type":[0,0,0,0,0,0,0,0,0,0,0,0,0,0,0,0,0,0,0,0,0,0,0,0,0,0,0,0,0,0,0,0,0,0,0,0,0,0,0,0,0,0,0,0,0,0,0,0,0,0,0,0,0,0,0],"sum_hessian":[6.076135E2,3.746691E2,2.3294446E2,3.3898196E2,3.5687145E1,1.8391829E1,2.1455263E2,3.2005817E2,1.89238E1,1.2012755E1,2.367439E1,1.8340404E0,1.6557787E1,3.2075703E1,1.8247691E2,1.4375638E2,1.7630177E2,3.790768E0,1.5133031E1,1.0793829E1,1.2189267E0,9.849266E0,1.3825125E1,6.951183E0,9.606605E0,1.20883E1,1.9987402E1,3.5945573E0,1.7888237E2,1.2442313E2,1.933326E1,8.399531E1,9.2306465E1,2.077622E0,1.713146E0,2.8682015E0,1.2264829E1,2.1563768E0,8.637452E0,8.114368E0,1.7348979E0,3.7653036E0,1.0059821E1,4.231552E0,2.7196305E0,2.5908422E0,7.015763E0,8.361721E0,3.7265785E0,6.5697856E0,1.3417617E1,1.4755646E0,2.1189928E0,1.4935956E1,1.6394641E2],"tree_param":{"num_deleted":"0","num_feature":"9","num_nodes":"55","size_leaf_vector":"1"}},{"base_weights":[5.680281E-4,-3.2915E-2,4.099707E-2,8.885002E-3,-2.182981E-1,4.8805228E-1,1.8145828E-2,-6.5836497E-3,2.5077626E-1,-4.2836615E-1,9.347257E-2,-7.61371E-2,6.593653E-1,-2.646739E-1,4.617167E-2,3.2845852E-3,-2.2528373E-1,2.1734548E-1,2.3269406E-2,1.780219E-1,-5.299081E-1,1.8101923E-1,-6.512569E-2,7.739331E-1,-1.6265988E-2,9.723301E-3,-4.5990393E-1,9.500128E-2,-1.174397E-1,6.9792527E-3,-5.1623054E-2,-7.813545E-2,1.3744374E-1,-6.8023756E-2,-2.3093112E-1,-1.2583137E-1,3.3021912E-2,1.7546503E-1,4.045367E-3,6.590937E-2,-6.939911E-2,1.3322753E-2,-1.4945547E-1,1.6703086E-3,6.945912E-2,-6.751523E-2,2.9660141E-2],"categories":[],"categories_nodes":[],"categories_segments":[],"categories_sizes":[],"default_left":[0,0,0,0,0,0,0,0,0,0,0,0,0,0,0,0,0,0,0,0,0,0,0,0,0,0,0,0,0,0,0,0,0,0,0,0,0,0,0,0,0,0,0,0,0,0,0],"id":19,"left_children":[1,3,5,7,9,11,13,15,17,19,21,-1,23,25,27,29,-1,-1,31,-1,33,-1,35,37,-1,39,41,43,45,-1,-1,-1,-1,-1,-1,-1,-1,-1,-1,-1,-1,-1,-1,-1,-1,-1,-1],"loss_changes":[8.234751E-1,2.5804515E0,2.8063016E0,1.0212364E0,4.0523605E0,2.23965E0,2.0984735E0,2.8447113E0,3.0944333E0,5.3958898E0,3.3391228E0,0E0,1.0411434E0,1.2837025E0,1.9311595E0,2.1230702E0,0E0,0E0,4.0932236E0,0E0,3.7308493E0,0E0,2.993257E0,7.6761913E-1,0E0,1.3586133E0,2.16401E0,4.0554557E0,3.3076894E0,0E0,0E0,0E0,0E0,0E0,0E0,0E0,0E0,0E0,0E0,0E0,0E0,0E0,0E0,0E0,0E0,0E0,0E0],"parents":[2147483647,0,0,1,1,2,2,3,3,4,4,5,5,6,6,7,7,8,8,9,9,10,10,12,12,13,13,14,14,15,15,18,18,20,20,22,22,23,23,25,25,26,26,27,27,28,28],"right_children":[2,4,6,8,10,12,14,16,18,20,22,-1,24,26,28,30,-1,-1,32,-1,34,-1,36,38,-1,40,42,44,46,-1,-1,-1,-1,-1,-1,-1,-1,-1,-1,-1,-1,-1,-1,-1,-1,-1,-1],"split_conditions":[1E0,7.813954E-1,1.0588236E0,5.6075E-2,9.6179E-2,1E-1,1.0256E-2,5.5E-2,5.7471E-2,9.091E-3,1.05316E-1,-7.61371E-2,8E0,1E0,7.7012E-2,1.33826E-1,-2.2528373E-1,2.1734548E-1,2E0,1.780219E-1,7.9015E-2,1.8101923E-1,8.3507E-2,4.5455E-2,-1.6265988E-2,6.41E-3,1E-1,8.7594E-2,4.8673E-2,6.9792527E-3,-5.1623054E-2,-7.813545E-2,1.3744374E-1,-6.8023756E-2,-2.3093112E-1,-1.2583137E-1,3.3021912E-2,1.7546503E-1,4.045367E-3,6.590937E-2,-6.939911E-2,1.3322753E-2,-1.4945547E-1,1.6703086E-3,6.945912E-2,-6.751523E-2,2.9660141E-2],"split_indices":[6,6,6,3,0,2,3,3,3,3,0,0,2,4,7,0,0,0,2,0,0,0,7,3,0,3,2,0,3,0,0,0,0,0,0,0,0,0,0,0,0,0,0,0,0,0,0],"split_type":[0,0,0,0,0,0,0,0,0,0,0,0,0,0,0,0,0,0,0,0,0,0,0,0,0,0,0,0,0,0,0,0,0,0,0,0,0,0,0,0,0,0,0,0,0,0,0],"sum_hessian":[6.063235E2,3.3175354E2,2.7456992E2,2.7149026E2,6.0263287E1,1.2362168E1,2.6220776E2,2.560866E2,1.54036455E1,3.578065E1,2.4482634E1,1.8349371E0,1.0527231E1,2.2879353E1,2.393284E2,2.54838E2,1.2486224E0,2.4873707E0,1.2916275E1,2.0032637E0,3.377739E1,3.232668E0,2.1249966E1,9.07818E0,1.4490507E0,9.906247E0,1.29731045E1,1.8464168E2,5.468673E1,2.281177E2,2.672029E1,8.209535E0,4.706741E0,2.7091722E1,6.685667E0,5.6575093E0,1.5592457E1,7.838846E0,1.2393341E0,5.263406E0,4.6428413E0,4.851859E0,8.121245E0,1.3820773E2,4.6433937E1,2.976194E1,2.492479E1],"tree_param":{"num_deleted":"0","num_feature":"9","num_nodes":"47","size_leaf_vector":"1"}},{"base_weights":[3.3990588E-4,1.4525827E-2,-1.0787577E-1,7.9203595E-4,2.9623726E-1,-7.663063E-2,-1.7027757E-1,1.1826736E-2,-3.1925553E-1,5.075012E-1,-4.237092E-1,-1.178127E-1,5.449733E-1,-1.5570292E-2,1.5326554E-1,-8.205024E-1,-5.0862893E-2,-9.543591E-2,6.122597E-1,-1.9313215E-1,1.0315037E-1,-6.612277E-2,-2.148649E-1,2.1373175E-1,-9.109473E-2,-7.3718107E-3,1.958413E-2,3.927364E-2,-6.249375E-2,-9.2954247E-4,-2.3193207E-1,6.514474E-2,-1.4219107E-1,6.776565E-2,2.0222421E-1,-3.1044155E-2,6.4141594E-2],"categories":[],"categories_nodes":[],"categories_segments":[],"categories_sizes":[],"default_left":[0,0,0,0,0,0,0,0,0,0,0,0,0,0,0,0,0,0,0,0,0,0,0,0,0,0,0,0,0,0,0,0,0,0,0,0,0],"id":20,"left_children":[1,3,5,7,9,11,-1,13,15,17,19,21,23,25,27,29,31,-1,33,-1,-1,35,-1,-1,-1,-1,-1,-1,-1,-1,-1,-1,-1,-1,-1,-1,-1],"loss_changes":[9.306217E-1,2.0732763E0,1.56694E0,1.8120542E0,4.00385E0,1.8183426E0,0E0,1.9240887E0,2.2588887E0,2.3257155E0,3.6528835E0,3.147064E0,2.810574E0,1.009562E0,1.6786661E0,1.6264639E0,3.2651634E0,0E0,1.6484499E0,0E0,0E0,2.214819E0,0E0,0E0,0E0,0E0,0E0,0E0,0E0,0E0,0E0,0E0,0E0,0E0,0E0,0E0,0E0],"parents":[2147483647,0,0,1,1,2,2,3,3,4,4,5,5,7,7,8,8,9,9,10,10,11,11,12,12,13,13,14,14,15,15,16,16,18,18,21,21],"right_children":[2,4,6,8,10,12,-1,14,16,18,20,22,24,26,28,30,32,-1,34,-1,-1,36,-1,-1,-1,-1,-1,-1,-1,-1,-1,-1,-1,-1,-1,-1,-1],"split_conditions":[2.6666667E0,2.2857144E0,1.63055E-1,2.0833333E0,3.8251E-2,5.2885E-2,-1.7027757E-1,1.4117647E0,1.9608E-2,2E-1,4.6512E-2,4.6512E-2,3.5555556E0,8.9242E-2,1.40592E-1,5E-1,1.24391E-1,-9.543591E-2,2.7933E-2,-1.9313215E-1,1.0315037E-1,6.5991E-2,-2.148649E-1,2.1373175E-1,-9.109473E-2,-7.3718107E-3,1.958413E-2,3.927364E-2,-6.249375E-2,-9.2954247E-4,-2.3193207E-1,6.514474E-2,-1.4219107E-1,6.776565E-2,2.0222421E-1,-3.1044155E-2,6.4141594E-2],"split_indices":[6,6,0,6,3,3,0,6,3,2,3,3,6,7,0,2,0,0,3,0,0,7,0,0,0,0,0,0,0,0,0,0,0,0,0,0,0],"split_type":[0,0,0,0,0,0,0,0,0,0,0,0,0,0,0,0,0,0,0,0,0,0,0,0,0,0,0,0,0,0,0,0,0,0,0,0,0],"sum_hessian":[6.041925E2,5.3493414E2,6.9258385E1,5.1102386E2,2.3910252E1,6.752385E1,1.7345375E0,4.9492282E2,1.6101057E1,1.8713867E1,5.1963854E0,6.408838E1,3.4354687E0,4.153571E2,7.956573E1,4.8974814E0,1.1203575E1,1.4576449E0,1.7256222E1,3.2776837E0,1.9187014E0,6.181692E1,2.271459E0,2.2103019E0,1.2251668E0,3.5031906E2,6.503803E1,7.335524E1,6.210493E0,1.7357605E0,3.161721E0,7.456275E0,3.7472997E0,1.1335136E1,5.9210863E0,5.0730907E1,1.1086017E1],"tree_param":{"num_deleted":"0","num_feature":"9","num_nodes":"37","size_leaf_vector":"1"}},{"base_weights":[-4.9848895E-4,1.1276313E-2,-9.055035E-2,3.0409981E-5,2.4722649E-1,5.2693754E-2,-2.4339361E-1,9.48071E-3,-2.7511147E-1,4.2662132E-1,-3.6188912E-1,-2.0087714E-1,4.921852E-1,8.754388E-4,-6.5655446E-1,-1.9182388E-2,1.0003028E-1,-1.8751733E-1,-1.1748909E-1,5.18347E-2,7.016703E-1,-8.3868873E-1,9.050808E-2,-4.7786576E-1,1.9271703E-1,2.5329342E-1,2.64722E-1,-2.2003813E-1,2.0412402E-1,-1.0289327E0,-4.0384123E-1,-7.470688E-4,-1.16175964E-1,5.4303866E-2,6.761927E-3,-1.2836955E-1,2.5170693E-2,-9.0824954E-2,1.1140602E-1,3.822699E-2,2.1853518E-1,-2.0477931E-1,-6.475989E-2,-3.89045E-2,-1.7446227E-1,-4.235558E-2,2.0731722E-1,2.7685731E-3,1.64625E-1,1.2719044E-1,-1.8021371E-2,-2.34406E-1,-6.0614474E-2,6.3676806E-3,-1.5160622E-1],"categories":[],"categories_nodes":[],"categories_segments":[],"categories_sizes":[],"default_left":[0,0,0,0,0,0,0,0,0,0,0,0,0,0,0,0,0,0,0,0,0,0,0,0,0,0,0,0,0,0,0,0,0,0,0,0,0,0,0,0,0,0,0,0,0,0,0,0,0,0,0,0,0,0,0],"id":21,"left_children":[1,3,5,7,9,11,13,15,17,19,21,23,25,27,29,31,33,-1,35,37,39,41,-1,43,45,-1,47,-1,49,51,53,-1,-1,-1,-1,-1,-1,-1,-1,-1,-1,-1,-1,-1,-1,-1,-1,-1,-1,-1,-1,-1,-1,-1,-1],"loss_changes":[6.4074546E-1,1.4181211E0,1.5426812E0,1.3316317E0,2.8112035E0,4.2102714E0,3.4302447E0,1.2869755E0,1.6656355E0,1.9470851E0,2.737685E0,2.7200363E0,2.09305E0,5.2274885E0,7.7281713E-1,3.268167E0,1.3445438E0,0E0,1.9795496E0,2.61062E0,1.9904542E0,6.71463E-2,0E0,1.4436898E0,3.861393E0,0E0,1.6586784E0,0E0,2.5622728E0,1.0795689E-1,1.4389852E0,0E0,0E0,0E0,0E0,0E0,0E0,0E0,0E0,0E0,0E0,0E0,0E0,0E0,0E0,0E0,0E0,0E0,0E0,0E0,0E0,0E0,0E0,0E0,0E0],"parents":[2147483647,0,0,1,1,2,2,3,3,4,4,5,5,6,6,7,7,8,8,9,9,10,10,11,11,12,12,13,13,14,14,15,15,16,16,18,18,19,19,20,20,21,21,23,23,24,24,26,26,28,28,29,29,30,30],"right_children":[2,4,6,8,10,12,14,16,18,20,22,24,26,28,30,32,34,-1,36,38,40,42,-1,44,46,-1,48,-1,50,52,54,-1,-1,-1,-1,-1,-1,-1,-1,-1,-1,-1,-1,-1,-1,-1,-1,-1,-1,-1,-1,-1,-1,-1,-1],"split_conditions":[2.6666667E0,2.2857144E0,5.1035E-2,2.0833333E0,3.8251E-2,5.0669E-2,6.666667E-1,1.171875E0,1.4286E-2,5E-1,4.6512E-2,4E0,3.7851E-2,7.8374E-2,3.2609E-2,1.1428572E0,4.969E-2,-1.8751733E-1,2.121212E0,1E0,1E0,4.2453E-2,9.050808E-2,3.7748E-2,4E-1,2.5329342E-1,2.9289E-2,-2.2003813E-1,9.9646E-2,9.3944E-2,1.02935E-1,-7.470688E-4,-1.16175964E-1,5.4303866E-2,6.761927E-3,-1.2836955E-1,2.5170693E-2,-9.0824954E-2,1.1140602E-1,3.822699E-2,2.1853518E-1,-2.0477931E-1,-6.475989E-2,-3.89045E-2,-1.7446227E-1,-4.235558E-2,2.0731722E-1,2.7685731E-3,1.64625E-1,1.2719044E-1,-1.8021371E-2,-2.34406E-1,-6.0614474E-2,6.3676806E-3,-1.5160622E-1],"split_indices":[6,6,7,6,3,0,2,6,3,2,3,6,7,0,3,6,0,0,6,4,1,3,0,0,2,0,3,0,0,0,0,0,0,0,0,0,0,0,0,0,0,0,0,0,0,0,0,0,0,0,0,0,0,0,0],"split_type":[0,0,0,0,0,0,0,0,0,0,0,0,0,0,0,0,0,0,0,0,0,0,0,0,0,0,0,0,0,0,0,0,0,0,0,0,0,0,0,0,0,0,0,0,0,0,0,0,0,0,0,0,0,0,0],"sum_hessian":[6.023184E2,5.334425E2,6.887591E1,5.1012875E2,2.3313726E1,3.5892677E1,3.2983234E1,4.9412268E2,1.6006092E1,1.8241037E1,5.072688E0,2.3104904E1,1.2787773E1,2.1355381E1,1.1627852E1,3.759161E2,1.1820656E2,2.125301E0,1.3880791E1,8.223714E0,1.00173235E1,3.180758E0,1.8919299E0,1.3435603E1,9.669301E0,1.8664868E0,1.0921287E1,2.6400907E0,1.871529E1,3.4591622E0,8.16869E0,3.6683456E2,9.081538E0,3.2066067E1,8.6140495E1,3.880783E0,1.0000008E1,4.1592574E0,4.064457E0,4.990312E0,5.0270114E0,1.6122491E0,1.568509E0,8.68793E0,4.747672E0,7.0425897E0,2.6267116E0,8.242768E0,2.678518E0,7.113602E0,1.1601688E1,2.376064E0,1.0830983E0,4.0710754E0,4.0976143E0],"tree_param":{"num_deleted":"0","num_feature":"9","num_nodes":"55","size_leaf_vector":"1"}},{"base_weights":[-1.0945959E-3,-2.1177314E-2,5.654652E-2,-1.413854E-2,-7.426003E-1,-4.7821298E-1,7.1855225E-2,9.392535E-3,-1.512193E-1,-2.0155053E-1,-6.453187E-2,-1.6486177E-1,5.3239465E-2,4.6065995E-1,3.376981E-2,-3.8370797E-3,8.5872346E-1,-2.4102099E-1,-8.432202E-2,-1.288992E-1,6.25982E-1,-5.08219E-1,6.913666E-2,1.9361386E-3,-1.2859626E-1,2.50406E-1,-7.343097E-2,-2.9302439E-2,1.06471814E-1,1.5176769E-1,-6.6929005E-2,1.8700028E-2,-2.0427878E-1,-9.869131E-3,4.289421E-2],"categories":[],"categories_nodes":[],"categories_segments":[],"categories_sizes":[],"default_left":[0,0,0,0,0,0,0,0,0,0,0,0,0,0,0,0,0,0,0,0,0,0,0,0,0,0,0,0,0,0,0,0,0,0,0],"id":22,"left_children":[1,3,5,7,9,11,13,15,17,-1,-1,-1,-1,19,21,23,25,-1,27,-1,29,31,33,-1,-1,-1,-1,-1,-1,-1,-1,-1,-1,-1,-1],"loss_changes":[6.971466E-1,2.2572546E0,1.3083017E0,1.4313351E0,1.5316653E-1,1.3688742E0,2.2375035E0,4.2651086E0,4.481374E0,0E0,0E0,0E0,0E0,2.869147E0,2.712167E0,3.2415485E0,3.2666636E0,0E0,2.463471E0,0E0,1.8169227E0,2.774148E0,2.2832806E0,0E0,0E0,0E0,0E0,0E0,0E0,0E0,0E0,0E0,0E0,0E0,0E0],"parents":[2147483647,0,0,1,1,2,2,3,3,4,4,5,5,6,6,7,7,8,8,13,13,14,14,15,15,16,16,18,18,20,20,21,21,22,22],"right_children":[2,4,6,8,10,12,14,16,18,-1,-1,-1,-1,20,22,24,26,-1,28,-1,30,32,34,-1,-1,-1,-1,-1,-1,-1,-1,-1,-1,-1,-1],"split_conditions":[3.8043E-2,3.7736E-2,5.2945E-2,6.4307E-2,7.6295E-2,4.1667E-2,6.2169E-2,6.3327E-2,9.6179E-2,-2.0155053E-1,-6.453187E-2,-1.6486177E-1,5.3239465E-2,3.3333334E-1,8.5712E-2,6.1683E-2,2E0,-2.4102099E-1,3.6649E-2,-1.288992E-1,1E0,7.5581396E-1,1.0208334E0,1.9361386E-3,-1.2859626E-1,2.50406E-1,-7.343097E-2,-2.9302439E-2,1.06471814E-1,1.5176769E-1,-6.6929005E-2,1.8700028E-2,-2.0427878E-1,-9.869131E-3,4.289421E-2],"split_indices":[3,3,7,7,0,3,7,7,0,0,0,0,0,2,0,7,2,0,3,0,8,6,6,0,0,0,0,0,0,0,0,0,0,0,0],"split_type":[0,0,0,0,0,0,0,0,0,0,0,0,0,0,0,0,0,0,0,0,0,0,0,0,0,0,0,0,0,0,0,0,0,0,0],"sum_hessian":[6.002051E2,4.4558987E2,1.5461519E2,4.422941E2,3.295773E0,3.4614866E0,1.511537E2,3.7828906E2,6.400505E1,1.1622044E0,2.1335688E0,2.2896411E0,1.1718453E0,1.2495432E1,1.3865826E2,3.7346722E2,4.821835E0,2.804785E0,6.1200264E1,1.2488182E0,1.1246614E1,7.6747375E0,1.3098352E2,3.666965E2,6.7707047E0,3.6344404E0,1.1873945E0,5.628639E1,4.9138722E0,1.0064706E1,1.181908E0,3.9090323E0,3.7657049E0,7.252157E1,5.846196E1],"tree_param":{"num_deleted":"0","num_feature":"9","num_nodes":"35","size_leaf_vector":"1"}},{"base_weights":[-1.988714E-3,7.16078E-3,-1.0134328E-1,1.8344444E-1,-1.7329694E-3,1.3020128E-1,-3.0127022E-1,-4.5377616E-2,6.688119E-1,-4.2429048E-1,1.3269605E-2,-6.32982E-1,3.0709854E-1,-5.4670835E-1,2.0132896E-1,-2.0658302E-1,1.5038775E-1,7.271685E-2,2.1860221E-1,-1.7154746E-1,-2.0821336E-1,1.8862231E-1,8.096679E-3,-5.221891E-3,-1.9913046E-1,1.6352938E-1,1.9478133E-1,-2.3906069E-1,-8.993316E-1,2.1659683E-1,-3.6644214E-1,3.203468E-2,-1.4699651E-1,1.08358406E-1,-1.3868096E-1,-1.3583319E-1,3.3873462E-3,-2.3012368E-2,4.16696E-3,6.2208373E-2,-9.9008456E-2,-1.8648292E-1,-1.3142449E-2,-6.550423E-2,-2.1125714E-1,3.6082666E-2,-1.6692428E-1],"categories":[],"categories_nodes":[],"categories_segments":[],"categories_sizes":[],"default_left":[0,0,0,0,0,0,0,0,0,0,0,0,0,0,0,0,0,0,0,0,0,0,0,0,0,0,0,0,0,0,0,0,0,0,0,0,0,0,0,0,0,0,0,0,0,0,0],"id":23,"left_children":[1,3,5,7,9,11,13,15,17,19,21,23,25,27,29,31,-1,33,-1,35,-1,-1,37,-1,-1,39,-1,41,43,-1,45,-1,-1,-1,-1,-1,-1,-1,-1,-1,-1,-1,-1,-1,-1,-1,-1],"loss_changes":[5.4665875E-1,8.63953E-1,2.3865712E0,2.9697063E0,3.3362772E0,3.460706E0,3.5040312E0,2.5875082E0,2.0807276E0,2.634231E0,2.4374816E0,1.0479172E0,1.7855284E0,1.8196273E0,5.2816153E0,3.3201225E0,0E0,2.0370858E0,0E0,1.3506633E0,0E0,0E0,7.9705554E-1,0E0,0E0,1.894619E0,0E0,1.3063169E0,4.0583706E-1,0E0,1.861579E0,0E0,0E0,0E0,0E0,0E0,0E0,0E0,0E0,0E0,0E0,0E0,0E0,0E0,0E0,0E0,0E0],"parents":[2147483647,0,0,1,1,2,2,3,3,4,4,5,5,6,6,7,7,8,8,9,9,10,10,11,11,12,12,13,13,14,14,15,15,17,17,19,19,22,22,25,25,27,27,28,28,30,30],"right_children":[2,4,6,8,10,12,14,16,18,20,22,24,26,28,30,32,-1,34,-1,36,-1,-1,38,-1,-1,40,-1,42,44,-1,46,-1,-1,-1,-1,-1,-1,-1,-1,-1,-1,-1,-1,-1,-1,-1,-1],"split_conditions":[3.0270271E0,1.2508E-2,6.6145E-2,1.0276E-2,1.6112E-2,1.4523E-2,4.0462E-2,1.7297298E0,7.353E-3,1.5407E-2,1.6766E-2,1E0,5.8754E-2,3.1447E-2,4.3689E-2,8.727273E-1,1.5038775E-1,5.882E-3,2.1860221E-1,3.272727E-1,-2.0821336E-1,1.8862231E-1,3.3333334E-1,-5.221891E-3,-1.9913046E-1,3.8914E-2,1.9478133E-1,2E-1,1E0,2.1659683E-1,3.5555556E0,3.203468E-2,-1.4699651E-1,1.08358406E-1,-1.3868096E-1,-1.3583319E-1,3.3873462E-3,-2.3012368E-2,4.16696E-3,6.2208373E-2,-9.9008456E-2,-1.8648292E-1,-1.3142449E-2,-6.550423E-2,-2.1125714E-1,3.6082666E-2,-1.6692428E-1],"split_indices":[6,7,0,7,7,0,3,6,3,7,7,4,0,3,3,6,0,3,0,6,0,0,2,0,0,7,0,2,1,0,6,0,0,0,0,0,0,0,0,0,0,0,0,0,0,0,0],"split_type":[0,0,0,0,0,0,0,0,0,0,0,0,0,0,0,0,0,0,0,0,0,0,0,0,0,0,0,0,0,0,0,0,0,0,0,0,0,0,0,0,0,0,0,0,0,0,0],"sum_hessian":[5.995573E2,5.498499E2,4.970738E1,2.5465725E1,5.243842E2,2.3194046E1,2.6513334E1,1.7922728E1,7.542997E0,1.7044117E1,5.073401E2,3.8793256E0,1.931472E1,1.775509E1,8.758244E0,1.5524757E1,2.3979712E0,3.6231203E0,3.9198768E0,1.2996527E1,4.0475903E0,1.8037086E0,5.055364E2,1.8521057E0,2.02722E0,1.691749E1,2.39723E0,1.0378378E1,7.376712E0,3.0753307E0,5.6829133E0,9.575427E0,5.94933E0,2.4288278E0,1.1942924E0,2.8141801E0,1.0182346E1,4.6632935E1,4.5890344E2,1.4252742E1,2.664748E0,1.1999617E0,9.178416E0,2.2535133E0,5.1231985E0,2.9047165E0,2.7781968E0],"tree_param":{"num_deleted":"0","num_feature":"9","num_nodes":"47","size_leaf_vector":"1"}},{"base_weights":[-2.3440542E-3,1.8503249E-2,-4.945817E-2,5.4544013E-2,-7.199416E-2,-1.4934899E-1,1.4588869E-1,2.595012E-2,5.139943E-1,-2.0567249E-1,1.0540657E-1,-9.7258516E-2,-9.3158454E-1,1.06589E0,6.653768E-2,4.5962393E-2,-5.208403E-1,8.5020554E-1,-3.388881E-2,-5.8974737E-1,-1.2292225E-1,5.578695E-1,-6.749275E-2,-1.3760243E-1,8.000491E-1,-1.0917224E0,-1.0248388E-2,2.463973E-1,5.1649243E-2,1.14381686E-1,-1.9499683E-1,-1.2302016E-2,2.4474693E-2,7.0402965E-2,-1.5060394E-1,8.741789E-2,2.7566513E-1,1.6041882E-1,-1.5813228E-1,5.488804E-2,-1.8559125E-1,2.0967658E-1,-3.3168044E-2,2.3832197E-1,5.649921E-2,-8.005432E-2,7.89923E-3,-1.5313792E-2,-1.7337754E-1,-2.7901126E-2,2.3936419E-1,-2.7332023E-2,-2.6686618E-1,6.0311574E-3,2.2858201E-1],"categories":[],"categories_nodes":[],"categories_segments":[],"categories_sizes":[],"default_left":[0,0,0,0,0,0,0,0,0,0,0,0,0,0,0,0,0,0,0,0,0,0,0,0,0,0,0,0,0,0,0,0,0,0,0,0,0,0,0,0,0,0,0,0,0,0,0,0,0,0,0,0,0,0,0],"id":24,"left_children":[1,3,5,7,9,11,13,15,17,19,21,23,25,27,29,31,33,35,37,39,41,43,45,47,49,51,-1,-1,-1,53,-1,-1,-1,-1,-1,-1,-1,-1,-1,-1,-1,-1,-1,-1,-1,-1,-1,-1,-1,-1,-1,-1,-1,-1,-1],"loss_changes":[5.8940035E-1,1.3610327E0,3.6134634E0,3.9035347E0,2.8423285E0,4.8919735E0,4.5123243E0,3.1067786E0,3.236692E0,2.0940468E0,4.087894E0,4.3008094E0,1.0039067E0,3.4163523E-1,3.0447054E0,2.2469804E0,2.2973843E0,1.7604823E0,5.4323936E0,3.709454E0,3.0567424E0,2.1802526E0,1.3812469E0,4.9025974E0,2.0784857E0,1.2800913E0,0E0,0E0,0E0,4.918353E0,0E0,0E0,0E0,0E0,0E0,0E0,0E0,0E0,0E0,0E0,0E0,0E0,0E0,0E0,0E0,0E0,0E0,0E0,0E0,0E0,0E0,0E0,0E0,0E0,0E0],"parents":[2147483647,0,0,1,1,2,2,3,3,4,4,5,5,6,6,7,7,8,8,9,9,10,10,11,11,12,12,13,13,14,14,15,15,16,16,17,17,18,18,19,19,20,20,21,21,22,22,23,23,24,24,25,25,29,29],"right_children":[2,4,6,8,10,12,14,16,18,20,22,24,26,28,30,32,34,36,38,40,42,44,46,48,50,52,-1,-1,-1,54,-1,-1,-1,-1,-1,-1,-1,-1,-1,-1,-1,-1,-1,-1,-1,-1,-1,-1,-1,-1,-1,-1,-1,-1,-1],"split_conditions":[2.5E0,1.05316E-1,8.5712E-2,9.8654E-2,4.6875E-2,8.2029E-2,5.8374E-2,4.3689E-2,1.6E0,1.10652E-1,5.1948E-2,5.7036E-2,4.3689E-2,1.1020408E0,2.625E0,6E-1,7.6689E-2,1.02935E-1,1.01513E-1,6.666667E-1,1.7045E-2,8.5596E-2,5.714286E-1,5.2454E-2,3.0697674E-1,3.6734694E-1,-1.0248388E-2,2.463973E-1,5.1649243E-2,1.5555556E0,-1.9499683E-1,-1.2302016E-2,2.4474693E-2,7.0402965E-2,-1.5060394E-1,8.741789E-2,2.7566513E-1,1.6041882E-1,-1.5813228E-1,5.488804E-2,-1.8559125E-1,2.0967658E-1,-3.3168044E-2,2.3832197E-1,5.649921E-2,-8.005432E-2,7.89923E-3,-1.5313792E-2,-1.7337754E-1,-2.7901126E-2,2.3936419E-1,-2.7332023E-2,-2.6686618E-1,6.0311574E-3,2.2858201E-1],"split_indices":[2,0,0,0,3,0,7,3,6,0,3,7,3,6,6,2,0,0,0,2,3,7,6,7,6,6,0,0,0,6,0,0,0,0,0,0,0,0,0,0,0,0,0,0,0,0,0,0,0,0,0,0,0,0,0],"split_type":[0,0,0,0,0,0,0,0,0,0,0,0,0,0,0,0,0,0,0,0,0,0,0,0,0,0,0,0,0,0,0,0,0,0,0,0,0,0,0,0,0,0,0,0,0,0,0,0,0,0,0,0,0,0,0],"sum_hessian":[5.9814874E2,4.150864E2,1.8306236E2,2.9714508E2,1.1794131E2,1.2128077E2,6.1781586E1,2.8073032E2,1.6414774E1,6.7168144E1,5.0773167E1,1.1476284E2,6.5179315E0,3.9184306E0,5.7863155E1,2.717021E2,9.028228E0,9.830461E0,6.584314E0,1.0820289E1,5.634786E1,1.3422101E1,3.7351063E1,1.1063521E2,4.1276293E0,5.3116164E0,1.2063149E0,2.8142548E0,1.1041759E0,5.617294E1,1.6902174E0,1.12984276E2,1.5871782E2,1.7884808E0,7.239747E0,6.541263E0,3.2891977E0,3.0999777E0,3.4843361E0,3.096554E0,7.723734E0,1.1636001E0,5.5184258E1,3.0577626E0,1.0364338E1,8.420051E0,2.8931013E1,1.0311091E2,7.524303E0,1.4180615E0,2.709568E0,1.3926302E0,3.9189863E0,5.287254E1,3.3003983E0],"tree_param":{"num_deleted":"0","num_feature":"9","num_nodes":"55","size_leaf_vector":"1"}},{"base_weights":[-7.3935033E-4,-2.901966E-3,3.9906618E-1,2.3539339E-3,-2.5863844E-1,1.4748083E-1,-1.8422514E-2,-1.1674119E-3,5.039604E-1,8.106475E-2,-3.615331E-1,-7.150296E-2,1.3942908E-2,3.5436943E-2,1.4987783E-1,-4.8910925E-1,6.2026855E-2,-9.158825E-3,-2.136151E-1,5.149878E-3,-5.5690486E-2,-1.2687734E-1,4.475874E-2],"categories":[],"categories_nodes":[],"categories_segments":[],"categories_sizes":[],"default_left":[0,0,0,0,0,0,0,0,0,0,0,0,0,0,0,0,0,0,0,0,0,0,0],"id":25,"left_children":[1,3,5,7,9,-1,-1,11,13,-1,15,17,19,-1,-1,21,-1,-1,-1,-1,-1,-1,-1],"loss_changes":[5.172497E-1,7.999298E-1,6.0279864E-1,1.031582E0,9.6531165E-1,0E0,0E0,6.1807704E-1,1.9374228E-1,0E0,1.0861416E0,2.585943E0,1.6599973E0,0E0,0E0,1.1313143E0,0E0,0E0,0E0,0E0,0E0,0E0,0E0],"parents":[2147483647,0,0,1,1,2,2,3,3,4,4,7,7,8,8,10,10,11,11,12,12,15,15],"right_children":[2,4,6,8,10,-1,-1,12,14,-1,16,18,20,-1,-1,22,-1,-1,-1,-1,-1,-1,-1],"split_conditions":[1.91091E-1,2.49669E-1,8.727273E-1,7.8571E-2,2.5E-1,1.4748083E-1,-1.8422514E-2,1E0,1E0,8.106475E-2,5E0,1.03083E-1,3.5555556E0,3.5436943E-2,1.4987783E-1,1.4285715E0,6.2026855E-2,-9.158825E-3,-2.136151E-1,5.149878E-3,-5.5690486E-2,-1.2687734E-1,4.475874E-2],"split_indices":[7,0,6,3,2,0,0,1,8,0,2,7,6,0,0,6,0,0,0,0,0,0,0],"split_type":[0,0,0,0,0,0,0,0,0,0,0,0,0,0,0,0,0,0,0,0,0,0,0],"sum_hessian":[5.9589594E2,5.9367737E2,2.2185597E0,5.826927E2,1.0984713E1,1.016838E0,1.2017217E0,5.7962134E2,3.0713482E0,1.0795227E0,9.90519E0,1.0184074E2,4.7778058E2,2.055927E0,1.0154212E0,8.552526E0,1.3526638E0,1.0029925E2,1.5414941E0,4.6011383E2,1.7666767E1,7.1962004E0,1.356326E0],"tree_param":{"num_deleted":"0","num_feature":"9","num_nodes":"23","size_leaf_vector":"1"}},{"base_weights":[-4.4200808E-4,-4.1123116E-3,2.7457172E-1,1.8851465E-3,-4.989727E-1,6.122784E-1,-2.8157303E-1,-2.2439368E-3,3.3407453E-1,-6.3194835E-1,4.213559E-3,2.0394638E-1,-6.661769E-2,-1.16004385E-1,2.790671E-2,1.4801534E-3,-6.297774E-1,-1.4461477E-1,6.510148E-1,-2.2138046E-2,-1.7773102E-1,1.5171922E-2,-3.4013565E-3,-1.705491E-1,-1.2923829E-2,1.1385818E-1,-1.8880631E-1,2.2470038E-1,-2.8859565E-6],"categories":[],"categories_nodes":[],"categories_segments":[],"categories_sizes":[],"default_left":[0,0,0,0,0,0,0,0,0,0,0,0,0,0,0,0,0,0,0,0,0,0,0,0,0,0,0,0,0],"id":26,"left_children":[1,3,5,7,9,11,13,15,17,19,-1,-1,-1,-1,-1,21,23,25,27,-1,-1,-1,-1,-1,-1,-1,-1,-1,-1],"loss_changes":[6.0307306E-1,1.7504586E0,1.6502577E0,8.0098605E-1,5.016984E-1,2.3468447E0,5.406506E-1,1.3499541E0,1.1818666E0,6.585374E-1,0E0,0E0,0E0,0E0,0E0,7.917221E-1,3.7432122E-1,2.634326E0,1.3827695E0,0E0,0E0,0E0,0E0,0E0,0E0,0E0,0E0,0E0,0E0],"parents":[2147483647,0,0,1,1,2,2,3,3,4,4,5,5,6,6,7,7,8,8,9,9,15,15,16,16,17,17,18,18],"right_children":[2,4,6,8,10,12,14,16,18,20,-1,-1,-1,-1,-1,22,24,26,28,-1,-1,-1,-1,-1,-1,-1,-1,-1,-1],"split_conditions":[5.9302325E0,4.952381E0,2.5974E-2,4.2352943E0,3.3333334E-1,9.411765E0,6.5174E-2,4.1666665E0,2.5641E-2,1E-1,4.213559E-3,2.0394638E-1,-6.661769E-2,-1.16004385E-1,2.790671E-2,4E-1,2.6178E-2,2.0408E-2,3.125E-2,-2.2138046E-2,-1.7773102E-1,1.5171922E-2,-3.4013565E-3,-1.705491E-1,-1.2923829E-2,1.1385818E-1,-1.8880631E-1,2.2470038E-1,-2.8859565E-6],"split_indices":[6,6,3,6,2,6,7,6,3,2,0,0,0,0,0,2,3,3,3,0,0,0,0,0,0,0,0,0,0],"split_type":[0,0,0,0,0,0,0,0,0,0,0,0,0,0,0,0,0,0,0,0,0,0,0,0,0,0,0,0,0],"sum_hessian":[5.953479E2,5.884792E2,6.868733E0,5.824168E2,6.0624065E0,4.210852E0,2.6578813E0,5.762473E2,6.1694555E0,4.65653E0,1.4058766E0,2.8876228E0,1.3232292E0,1.3346238E0,1.3232573E0,5.7383954E2,2.407803E0,2.6742022E0,3.4952536E0,2.0087788E0,2.6477509E0,1.13616585E2,4.6022293E2,1.3617136E0,1.0460893E0,1.5647215E0,1.1094809E0,1.6048181E0,1.8904353E0],"tree_param":{"num_deleted":"0","num_feature":"9","num_nodes":"29","size_leaf_vector":"1"}},{"base_weights":[-6.659207E-4,-9.102149E-2,8.542702E-3,-2.123573E-2,-5.3395325E-1,1.4915934E-1,-8.7061925E-3,4.178601E-2,-6.956567E-1,-8.077954E-1,5.332616E-2,-7.235076E-3,4.0637565E-1,-6.969962E-1,-3.303156E-4,-2.0934086E-2,1.7716609E-1,-1.8525027E-1,-6.0370665E-2,-1.9862181E-1,-9.35357E-3,1.8816374E-1,-1.0649719E0,5.7618606E-1,-6.1289144E-1,-2.1120732E-1,-2.0295818E-1,4.374355E-1,-7.042739E-3,4.3289986E-2,-3.0580971E-2,2.1775596E-2,2.4449308E-1,-2.7031463E-3,-2.7876338E-1,3.443464E-2,1.7565633E-1,-2.1980901E-1,6.326421E-2,3.2812774E-2,-1.0367556E-1,1.9342914E-1,-2.609909E-2,-1.1586616E-1,-4.8850703E-5],"categories":[],"categories_nodes":[],"categories_segments":[],"categories_sizes":[],"default_left":[0,0,0,0,0,0,0,0,0,0,0,0,0,0,0,0,0,0,0,0,0,0,0,0,0,0,0,0,0,0,0,0,0,0,0,0,0,0,0,0,0,0,0,0,0],"id":27,"left_children":[1,3,5,7,9,11,13,15,17,19,-1,21,23,25,27,29,-1,-1,-1,-1,-1,31,33,35,37,-1,39,41,43,-1,-1,-1,-1,-1,-1,-1,-1,-1,-1,-1,-1,-1,-1,-1,-1],"loss_changes":[4.966683E-1,1.6951637E0,1.3153719E0,2.1004713E0,1.853704E0,2.3864655E0,2.787317E0,2.427971E0,1.0376406E-1,7.738416E-1,0E0,8.019093E0,4.2339344E0,8.167541E-1,1.4097669E0,1.3909171E0,0E0,0E0,0E0,0E0,0E0,2.5551193E0,2.0726624E0,2.257464E0,2.013024E0,0E0,5.1157653E-1,2.305872E0,1.8380883E0,0E0,0E0,0E0,0E0,0E0,0E0,0E0,0E0,0E0,0E0,0E0,0E0,0E0,0E0,0E0,0E0],"parents":[2147483647,0,0,1,1,2,2,3,3,4,4,5,5,6,6,7,7,8,8,9,9,11,11,12,12,13,13,14,14,15,15,21,21,22,22,23,23,24,24,26,26,27,27,28,28],"right_children":[2,4,6,8,10,12,14,16,18,20,-1,22,24,26,28,30,-1,-1,-1,-1,-1,32,34,36,38,-1,40,42,44,-1,-1,-1,-1,-1,-1,-1,-1,-1,-1,-1,-1,-1,-1,-1,-1],"split_conditions":[2.6181817E-1,2.4E-1,3.7241378E-1,4.6218E-2,4.4304E-2,5.6806E-2,3.7818182E-1,4.2194E-2,5.2885E-2,8E0,5.332616E-2,5.0742E-2,1.3598E-1,4.969E-2,4.0625E-1,3.022E-2,1.7716609E-1,-1.8525027E-1,-6.0370665E-2,-1.9862181E-1,-9.35357E-3,4.9743E-2,3.137931E-1,3.137931E-1,1.54579E-1,-2.1120732E-1,3E0,4.8888E-2,4.1860464E-1,4.3289986E-2,-3.0580971E-2,2.1775596E-2,2.4449308E-1,-2.7031463E-3,-2.7876338E-1,3.443464E-2,1.7565633E-1,-2.1980901E-1,6.326421E-2,3.2812774E-2,-1.0367556E-1,1.9342914E-1,-2.609909E-2,-1.1586616E-1,-4.8850703E-5],"split_indices":[6,6,6,3,3,7,6,3,3,2,0,7,7,0,6,7,0,0,0,0,0,7,6,6,7,0,2,7,6,0,0,0,0,0,0,0,0,0,0,0,0,0,0,0,0],"split_type":[0,0,0,0,0,0,0,0,0,0,0,0,0,0,0,0,0,0,0,0,0,0,0,0,0,0,0,0,0,0,0,0,0,0,0,0,0,0,0,0,0,0,0,0,0],"sum_hessian":[5.949865E2,5.420817E1,5.407783E2,4.7735226E1,6.472943E0,5.8251583E1,4.8252673E2,4.451366E1,3.2215686E0,4.816453E0,1.6564898E0,3.6829895E1,2.142169E1,4.8128724E0,4.7771387E2,4.2342434E1,2.171226E0,1.1790825E0,2.042486E0,3.6280484E0,1.1884043E0,3.1781004E1,5.04889E0,1.8735117E1,2.686574E0,2.1284602E0,2.684412E0,6.245288E0,4.7146857E2,1.4900266E1,2.7442167E1,3.0544817E1,1.2361863E0,1.4508885E0,3.5980017E0,8.687142E0,1.0047974E1,1.6437907E0,1.0427833E0,1.4625015E0,1.2219106E0,2.8676746E0,3.3776133E0,4.546367E0,4.669222E2],"tree_param":{"num_deleted":"0","num_feature":"9","num_nodes":"45","size_leaf_vector":"1"}},{"base_weights":[-1.317465E-3,-3.8380124E-2,2.0560091E-2,4.373316E-1,-6.2448766E-2,3.448107E-1,-1.5454372E-2,2.0222907E-1,2.0190494E-1,-5.9158874E-1,-3.0119296E-2,5.8121085E-1,-8.453409E-2,-6.523574E-1,-4.740282E-3,-1.0802432E-1,1.9077249E-1,-2.9354402E-1,-2.0147769E-1,-2.3541456E-1,3.0833505E-2,3.3522776E-1,1.2402735E0,-1.8493895E-1,8.32752E-2,9.371921E-2,-2.5123003E-1,2.273145E-1,-2.0127807E-2,6.282561E-2,-9.285591E-2,-1.226066E-1,1.294562E-1,5.8996524E-3,-7.6491036E-2,8.540531E-2,6.2036555E-4,-2.3883257E-2,1.22838676E-1,6.622601E-2,2.9746857E-1,-1.4772873E-1,6.957187E-2,-3.9414242E-2,5.2397414E-3],"categories":[],"categories_nodes":[],"categories_segments":[],"categories_sizes":[],"default_left":[0,0,0,0,0,0,0,0,0,0,0,0,0,0,0,0,0,0,0,0,0,0,0,0,0,0,0,0,0,0,0,0,0,0,0,0,0,0,0,0,0,0,0,0,0],"id":28,"left_children":[1,3,5,7,9,11,13,-1,15,17,19,21,23,25,27,29,-1,31,-1,33,35,37,39,-1,41,-1,-1,-1,43,-1,-1,-1,-1,-1,-1,-1,-1,-1,-1,-1,-1,-1,-1,-1,-1],"loss_changes":[4.8337778E-1,2.5607448E0,4.383365E0,1.2522297E0,3.6000159E0,3.857397E0,2.3059876E0,0E0,2.175794E0,1.206737E0,2.5144434E0,3.5276766E0,2.0785034E0,4.372657E0,5.884952E0,1.2281286E0,0E0,2.94365E0,0E0,1.8025317E0,1.7058097E0,2.4937377E0,9.093094E-1,0E0,3.0297096E0,0E0,0E0,0E0,2.7129812E0,0E0,0E0,0E0,0E0,0E0,0E0,0E0,0E0,0E0,0E0,0E0,0E0,0E0,0E0,0E0,0E0],"parents":[2147483647,0,0,1,1,2,2,3,3,4,4,5,5,6,6,8,8,9,9,10,10,11,11,12,12,13,13,14,14,15,15,17,17,19,19,20,20,21,21,22,22,24,24,28,28],"right_children":[2,4,6,8,10,12,14,-1,16,18,20,22,24,26,28,30,-1,32,-1,34,36,38,40,-1,42,-1,-1,-1,44,-1,-1,-1,-1,-1,-1,-1,-1,-1,-1,-1,-1,-1,-1,-1,-1],"split_conditions":[2.2599E-2,1.2413793E-1,2.4735E-2,1.9048E-2,2.25E-1,7.2773E-2,4.239E-2,2.0222907E-1,5.9594E-2,4.6374E-2,1E0,2.4242E-2,4E-1,3.7182E-2,4.5091E-2,1.4019E-2,1.9077249E-1,3.1435E-2,-2.0147769E-1,1.3158E-2,1.105E-2,3.674E-2,1E0,-1.8493895E-1,1E0,9.371921E-2,-2.5123003E-1,2.273145E-1,2.9661E-2,6.282561E-2,-9.285591E-2,-1.226066E-1,1.294562E-1,5.8996524E-3,-7.6491036E-2,8.540531E-2,6.2036555E-4,-2.3883257E-2,1.22838676E-1,6.622601E-2,2.9746857E-1,-1.4772873E-1,6.957187E-2,-3.9414242E-2,5.2397414E-3],"split_indices":[3,6,3,0,6,0,0,0,0,0,1,3,2,0,0,3,0,0,0,3,0,7,4,0,1,0,0,0,3,0,0,0,0,0,0,0,0,0,0,0,0,0,0,0,0],"split_type":[0,0,0,0,0,0,0,0,0,0,0,0,0,0,0,0,0,0,0,0,0,0,0,0,0,0,0,0,0,0,0,0,0,0,0,0,0,0,0,0,0,0,0,0,0],"sum_hessian":[5.94171E2,2.202657E2,3.739053E2,9.780765E0,2.1048494E2,3.6520897E1,3.3738443E2,1.8868732E0,7.8938913E0,1.1123682E1,1.9936125E2,2.3324533E1,1.3196363E1,4.5908666E0,3.3279355E2,6.196333E0,1.6975583E0,7.473012E0,3.6506703E0,4.498498E1,1.5437627E2,1.8083748E1,5.240786E0,1.4460618E0,1.1750302E1,1.68554E0,2.9053266E0,3.4578395E0,3.2933572E2,2.8900063E0,3.3063266E0,5.8386946E0,1.634317E0,1.6342045E1,2.8642939E1,9.156857E0,1.4521942E2,7.094091E0,1.0989657E1,1.619976E0,3.62081E0,2.4251053E0,9.325197E0,6.765905E1,2.6167667E2],"tree_param":{"num_deleted":"0","num_feature":"9","num_nodes":"45","size_leaf_vector":"1"}},{"base_weights":[-3.565302E-4,-6.4730994E-2,1.2046749E-2,-4.0191077E-3,-7.507954E-1,2.5410578E-1,2.1367318E-3,-4.9712334E-2,7.698767E-1,-9.6976453E-1,4.8995357E-2,6.6387254E-1,-6.538512E-2,-1.4465718E-1,2.2347732E-2,1.4780906E-2,-7.0342475E-1,2.1851258E-1,3.436968E-1,-2.263109E-1,-4.231432E-2,4.113081E-1,2.1418622E-1,7.693253E-1,-4.6705636E-1,1.1003329E-2,-6.000694E-1,4.335756E-1,-3.664481E-4,1.2916015E-1,-5.043453E-3,-1.7263281E-1,1.1937122E-2,2.790208E-3,1.13406435E-1,1.349452E-1,-1.1022126E-1,3.55083E-2,2.0729892E-1,4.5775287E-2,-1.4177565E-1,-4.8139002E-2,7.217088E-2,-1.5066978E-1,2.9915545E-2,1.589595E-1,-6.0596657E-3,-8.6596675E-2,4.097541E-3],"categories":[],"categories_nodes":[],"categories_segments":[],"categories_sizes":[],"default_left":[0,0,0,0,0,0,0,0,0,0,0,0,0,0,0,0,0,0,0,0,0,0,0,0,0,0,0,0,0,0,0,0,0,0,0,0,0,0,0,0,0,0,0,0,0,0,0,0,0],"id":29,"left_children":[1,3,5,7,9,11,13,15,17,19,-1,21,23,25,27,29,31,-1,33,-1,-1,35,-1,37,39,41,43,45,47,-1,-1,-1,-1,-1,-1,-1,-1,-1,-1,-1,-1,-1,-1,-1,-1,-1,-1,-1,-1],"loss_changes":[4.7468084E-1,3.9972358E0,1.1952243E0,3.193846E0,1.938848E0,2.6089876E0,1.4269857E0,3.602477E0,3.1701517E-1,5.6991863E-1,0E0,4.5140195E-1,4.35646E0,4.1330843E0,3.9482582E0,1.9983445E0,9.866574E-1,0E0,2.5933197E-1,0E0,0E0,2.140657E0,0E0,4.880712E-1,1.6214945E0,3.9934046E0,1.8185716E0,3.7314367E0,3.6316118E0,0E0,0E0,0E0,0E0,0E0,0E0,0E0,0E0,0E0,0E0,0E0,0E0,0E0,0E0,0E0,0E0,0E0,0E0,0E0,0E0],"parents":[2147483647,0,0,1,1,2,2,3,3,4,4,5,5,6,6,7,7,8,8,9,9,11,11,12,12,13,13,14,14,15,15,16,16,18,18,21,21,23,23,24,24,25,25,26,26,27,27,28,28],"right_children":[2,4,6,8,10,12,14,16,18,20,-1,22,24,26,28,30,32,-1,34,-1,-1,36,-1,38,40,42,44,46,48,-1,-1,-1,-1,-1,-1,-1,-1,-1,-1,-1,-1,-1,-1,-1,-1,-1,-1,-1,-1],"split_conditions":[1.4286E-2,3.5059E-2,1.5544E-2,5.016E-2,3.3333333E0,7.5E-1,3.5266E-2,1.3636E-2,5.2799E-2,7.6295E-2,4.8995357E-2,2.7575758E0,3.7818182E-1,1.7454545E0,3.8289E-2,1.2413793E-1,1.5697675E0,2.1851258E-1,8.8235295E-1,-2.263109E-1,-4.231432E-2,2.2790697E0,2.1418622E-1,2.689655E-1,1E0,1.9231E-2,2.3669E-2,1.6666666E0,5.608E-2,1.2916015E-1,-5.043453E-3,-1.7263281E-1,1.1937122E-2,2.790208E-3,1.13406435E-1,1.349452E-1,-1.1022126E-1,3.55083E-2,2.0729892E-1,4.5775287E-2,-1.4177565E-1,-4.8139002E-2,7.217088E-2,-1.5066978E-1,2.9915545E-2,1.589595E-1,-6.0596657E-3,-8.6596675E-2,4.097541E-3],"split_indices":[3,7,3,0,2,2,7,3,0,0,0,6,6,6,7,6,6,0,6,0,0,6,0,6,4,3,3,2,0,0,0,0,0,0,0,0,0,0,0,0,0,0,0,0,0,0,0,0,0],"split_type":[0,0,0,0,0,0,0,0,0,0,0,0,0,0,0,0,0,0,0,0,0,0,0,0,0,0,0,0,0,0,0,0,0,0,0,0,0,0,0,0,0,0,0,0,0,0,0,0,0],"sum_hessian":[5.92523E2,9.5039276E1,4.9748376E2,8.82368E1,6.802479E0,1.8597034E1,4.7888672E2,8.4201065E1,4.035731E0,5.597675E0,1.2048038E0,7.675204E0,1.092183E1,5.7209892E1,4.2167682E2,7.7529625E1,6.671443E0,1.4068794E0,2.6288512E0,4.2074213E0,1.3902535E0,5.977087E0,1.6981168E0,3.2508821E0,7.670948E0,4.3363895E1,1.3846E1,2.112536E1,4.0055148E2,3.7185898E0,7.3811035E1,5.4082413E0,1.2632017E0,1.4905621E0,1.1382892E0,4.9273653E0,1.049722E0,1.5288922E0,1.7219899E0,1.9919373E0,5.679011E0,2.5401175E1,1.796272E1,1.1491424E1,2.3545759E0,1.1475736E1,9.649624E0,1.7511662E1,3.830398E2],"tree_param":{"num_deleted":"0","num_feature":"9","num_nodes":"49","size_leaf_vector":"1"}},{"base_weights":[4.1572013E-4,-2.5881594E-2,3.2679606E-2,1.1792634E-2,-1.7631254E-1,4.3112153E-1,1.213977E-2,-1.4239802E-2,1.7841414E-1,1.902109E-1,-2.3726206E-1,-5.9590977E-2,5.693171E-1,-2.3377417E-1,3.4990128E-2,1.9966701E-2,-7.76719E-1,-4.513581E-1,2.6015684E-1,-4.4419637E-1,7.235569E-2,1.8078415E-1,2.581211E-1,1.06805354E-1,-4.634694E-1,8.0805875E-2,-1.20639175E-1,-9.698256E-2,6.996285E-3,-2.4156299E-1,-5.7927847E-2,-2.1899569E-1,2.6623115E-2,1.0345068E-1,-9.0513895E-5,-5.4807182E-2,-2.022862E-1,-2.7956715E-2,1.3193898E-1,-7.993993E-2,1.4393418E-1,1.0457852E-1,-1.1685363E-1,-1.2099923E-1,1.11815944E-1,6.0043386E-3,7.9247154E-2,-1.9273528E-1,-1.1186519E-2],"categories":[],"categories_nodes":[],"categories_segments":[],"categories_sizes":[],"default_left":[0,0,0,0,0,0,0,0,0,0,0,0,0,0,0,0,0,0,0,0,0,0,0,0,0,0,0,0,0,0,0,0,0,0,0,0,0,0,0,0,0,0,0,0,0,0,0,0,0],"id":30,"left_children":[1,3,5,7,9,11,13,15,17,-1,19,-1,21,23,25,27,29,31,33,35,37,-1,39,41,43,45,47,-1,-1,-1,-1,-1,-1,-1,-1,-1,-1,-1,-1,-1,-1,-1,-1,-1,-1,-1,-1,-1,-1],"loss_changes":[5.034325E-1,1.854814E0,2.175323E0,1.1406087E0,4.7289033E0,1.4827676E0,1.43777E0,5.95817E0,1.9463502E0,0E0,4.06708E0,0E0,9.432931E-1,1.7517905E0,1.6757402E0,1.6774204E0,1.7096186E0,1.8187106E0,2.1496649E0,3.3797932E0,3.3428137E0,0E0,2.4902E0,3.059428E0,2.2460475E0,2.8892612E0,2.8667932E0,0E0,0E0,0E0,0E0,0E0,0E0,0E0,0E0,0E0,0E0,0E0,0E0,0E0,0E0,0E0,0E0,0E0,0E0,0E0,0E0,0E0,0E0],"parents":[2147483647,0,0,1,1,2,2,3,3,4,4,5,5,6,6,7,7,8,8,10,10,12,12,13,13,14,14,15,15,16,16,17,17,18,18,19,19,20,20,22,22,23,23,24,24,25,25,26,26],"right_children":[2,4,6,8,10,12,14,16,18,-1,20,-1,22,24,26,28,30,32,34,36,38,-1,40,42,44,46,48,-1,-1,-1,-1,-1,-1,-1,-1,-1,-1,-1,-1,-1,-1,-1,-1,-1,-1,-1,-1,-1,-1],"split_conditions":[1E0,7.6363635E-1,1.0588236E0,6.486486E-1,9.091E-3,1E-1,9.901E-3,6.2068963E-1,1E0,1.902109E-1,9.7912E-2,-5.9590977E-2,6.1226E-2,2.5E-1,7.7012E-2,2.5E-1,1.6666666E0,2.2857E-2,3.0043E-2,7.9015E-2,2E0,1.8078415E-1,9.0276E-2,3.0952382E0,4E0,6.6931E-2,7.7954E-2,-9.698256E-2,6.996285E-3,-2.4156299E-1,-5.7927847E-2,-2.1899569E-1,2.6623115E-2,1.0345068E-1,-9.0513895E-5,-5.4807182E-2,-2.022862E-1,-2.7956715E-2,1.3193898E-1,-7.993993E-2,1.4393418E-1,1.0457852E-1,-1.1685363E-1,-1.2099923E-1,1.11815944E-1,6.0043386E-3,7.9247154E-2,-1.9273528E-1,-1.1186519E-2],"split_indices":[6,6,6,6,3,2,3,6,4,0,0,0,0,2,7,2,2,3,3,0,2,0,0,6,6,7,7,0,0,0,0,0,0,0,0,0,0,0,0,0,0,0,0,0,0,0,0,0,0],"split_type":[0,0,0,0,0,0,0,0,0,0,0,0,0,0,0,0,0,0,0,0,0,0,0,0,0,0,0,0,0,0,0,0,0,0,0,0,0,0,0,0,0,0,0,0,0,0,0,0,0],"sum_hessian":[5.9135626E2,3.259126E2,2.6544366E2,2.6137494E2,6.453766E1,1.2032952E1,2.5341069E2,2.2684752E2,3.4527428E1,2.5611308E0,6.197653E1,1.7331829E0,1.0299769E1,2.0760204E1,2.326505E2,2.180396E2,8.807925E0,3.4472208E0,3.1080206E1,3.688777E1,2.5088758E1,4.045407E0,6.2543626E0,8.577286E0,1.2182918E1,1.8010895E2,5.254154E1,5.3932242E0,2.1264638E2,3.8875208E0,4.920405E0,1.2249103E0,2.2223105E0,1.51498165E1,1.593039E1,2.9516457E1,7.3713126E0,1.8991339E1,6.0974193E0,2.6341138E0,3.6202486E0,5.5057187E0,3.071567E0,1.1060434E1,1.1224836E0,1.5607593E2,2.4033033E1,2.7549775E0,4.978656E1],"tree_param":{"num_deleted":"0","num_feature":"9","num_nodes":"49","size_leaf_vector":"1"}},{"base_weights":[-4.14852E-4,-3.5951762E-3,2.4005179E-1,1.2929792E-3,-4.1744816E-1,5.4878783E-1,-2.64188E-1,-2.214627E-3,2.8984535E-1,-1.329262E-1,-1.4648734E-1,8.851868E-1,-4.9927633E-2,-1.0270494E-1,1.9554643E-2,9.993787E-4,-5.625932E-1,1.3934602E-1,9.17278E-3,-8.653244E-2,4.7906857E-2,4.8798736E-2,2.1538924E-1,1.2945152E-2,-2.966657E-3,-1.5195082E-1,-1.4271143E-2,-1.2816487E-1,8.089006E-2],"categories":[],"categories_nodes":[],"categories_segments":[],"categories_sizes":[],"default_left":[0,0,0,0,0,0,0,0,0,0,0,0,0,0,0,0,0,0,0,0,0,0,0,0,0,0,0,0,0],"id":31,"left_children":[1,3,5,7,9,11,13,15,17,19,-1,21,-1,-1,-1,23,25,-1,27,-1,-1,-1,-1,-1,-1,-1,-1,-1,-1],"loss_changes":[4.522705E-1,1.1810272E0,1.3467171E0,5.85373E-1,5.134088E-1,1.5942336E0,3.757018E-1,1.0303696E0,7.8685033E-1,6.397758E-1,0E0,2.0657611E-1,0E0,0E0,0E0,5.7557803E-1,2.6176572E-1,0E0,1.5756506E0,0E0,0E0,0E0,0E0,0E0,0E0,0E0,0E0,0E0,0E0],"parents":[2147483647,0,0,1,1,2,2,3,3,4,4,5,5,6,6,7,7,8,8,9,9,11,11,15,15,16,16,18,18],"right_children":[2,4,6,8,10,12,14,16,18,20,-1,22,-1,-1,-1,24,26,-1,28,-1,-1,-1,-1,-1,-1,-1,-1,-1,-1],"split_conditions":[5.9302325E0,4.952381E0,2.5974E-2,4.2352943E0,2.3952E-2,9.411765E0,6.5174E-2,4.1666665E0,5.2129E-2,3.2969E-2,-1.4648734E-1,1E-1,-4.9927633E-2,-1.0270494E-1,1.9554643E-2,4E-1,2.6178E-2,1.3934602E-1,2.5641E-2,-8.653244E-2,4.7906857E-2,4.8798736E-2,2.1538924E-1,1.2945152E-2,-2.966657E-3,-1.5195082E-1,-1.4271143E-2,-1.2816487E-1,8.089006E-2],"split_indices":[6,6,3,6,3,6,7,6,0,0,0,2,0,0,0,2,3,0,3,0,0,0,0,0,0,0,0,0,0],"split_type":[0,0,0,0,0,0,0,0,0,0,0,0,0,0,0,0,0,0,0,0,0,0,0,0,0,0,0,0,0],"sum_hessian":[5.8925885E2,5.825395E2,6.7194057E0,5.767245E2,5.8150086E0,4.112845E0,2.6065607E0,5.707785E2,5.9459863E0,3.802395E0,2.0126138E0,2.8172114E0,1.2956336E0,1.2954574E0,1.3111035E0,5.68516E2,2.2624607E0,1.8221285E0,4.123858E0,2.0173273E0,1.7850678E0,1.1717111E0,1.6455002E0,1.1252309E2,4.5599292E2,1.2244203E0,1.0380404E0,1.3245529E0,2.799305E0],"tree_param":{"num_deleted":"0","num_feature":"9","num_nodes":"29","size_leaf_vector":"1"}},{"base_weights":[-5.51729E-4,-9.506706E-2,7.6125814E-3,1.1431338E-2,-6.2944466E-1,4.366246E-1,1.5373903E-3,9.977478E-2,-3.1800854E-1,-8.0556816E-1,2.4274483E-2,-1.4337099E-1,7.8141856E-1,2.55477E-2,-3.3021282E-2,4.150832E-1,-7.1965404E-2,-8.27942E-2,-1.9402857E-1,-4.8240554E-1,-2.116164E-1,-1.3746792E-1,9.301229E-2,1.986944E-1,3.0711014E-2,3.2420507E-5,4.4043645E-1,-1.0147257E0,-1.6575433E-2,5.902985E-3,1.4289322E-1,-5.855134E-2,3.509246E-2,-7.35026E-2,1.08541586E-1,2.1816045E-2,-1.6346256E-1,-3.4842931E-3,6.2169947E-2,1.2033659E-1,-2.3683293E-2,-2.6878488E-1,-3.5212927E-2,-2.227076E-2,8.075977E-3],"categories":[],"categories_nodes":[],"categories_segments":[],"categories_sizes":[],"default_left":[0,0,0,0,0,0,0,0,0,0,0,0,0,0,0,0,0,0,0,0,0,0,0,0,0,0,0,0,0,0,0,0,0,0,0,0,0,0,0,0,0,0,0,0,0],"id":32,"left_children":[1,3,5,7,9,11,13,15,17,19,-1,21,23,25,27,29,31,33,-1,35,-1,-1,-1,-1,-1,37,39,41,43,-1,-1,-1,-1,-1,-1,-1,-1,-1,-1,-1,-1,-1,-1,-1,-1],"loss_changes":[4.5595405E-1,2.6809514E0,1.4170686E0,1.2004461E0,1.1325402E0,1.630247E0,4.4673282E-1,1.7858031E0,1.258826E0,1.7485142E-2,0E0,1.5361233E0,5.0201774E-1,3.362507E0,3.5468576E0,1.3158289E0,1.2447413E0,1.5368172E0,0E0,1.0153631E0,0E0,0E0,0E0,0E0,0E0,1.6341854E0,1.729568E0,7.6287246E-1,1.1818815E0,0E0,0E0,0E0,0E0,0E0,0E0,0E0,0E0,0E0,0E0,0E0,0E0,0E0,0E0,0E0,0E0],"parents":[2147483647,0,0,1,1,2,2,3,3,4,4,5,5,6,6,7,7,8,8,9,9,11,11,12,12,13,13,14,14,15,15,16,16,17,17,19,19,25,25,26,26,27,27,28,28],"right_children":[2,4,6,8,10,12,14,16,18,20,-1,22,24,26,28,30,32,34,-1,36,-1,-1,-1,-1,-1,38,40,42,44,-1,-1,-1,-1,-1,-1,-1,-1,-1,-1,-1,-1,-1,-1,-1,-1],"split_conditions":[1.6112E-2,1.4689E-2,1.7897E-2,8E0,1.5697675E0,6.666667E-1,6.0597E-2,8.181818E-1,1.7121E-2,1.5729E-2,2.4274483E-2,1.171875E0,3.3333333E0,8.6518E-2,8.1502E-2,4.25E-1,1.1244E-2,5.877551E-1,-1.9402857E-1,6.2068963E-1,-2.116164E-1,-1.3746792E-1,9.301229E-2,1.986944E-1,3.0711014E-2,5.7564E-2,1.7297298E0,2E0,3.8043E-2,5.902985E-3,1.4289322E-1,-5.855134E-2,3.509246E-2,-7.35026E-2,1.08541586E-1,2.1816045E-2,-1.6346256E-1,-3.4842931E-3,6.2169947E-2,1.2033659E-1,-2.3683293E-2,-2.6878488E-1,-3.5212927E-2,-2.227076E-2,8.075977E-3],"split_indices":[7,7,7,2,6,2,7,6,0,7,0,6,2,0,0,6,7,6,0,6,0,0,0,0,0,7,6,2,3,0,0,0,0,0,0,0,0,0,0,0,0,0,0,0,0],"split_type":[0,0,0,0,0,0,0,0,0,0,0,0,0,0,0,0,0,0,0,0,0,0,0,0,0,0,0,0,0,0,0,0,0,0,0,0,0,0,0,0,0,0,0,0,0],"sum_hessian":[5.8894214E2,4.5981888E1,5.4296027E2,3.9156773E1,6.8251133E0,6.5918694E0,5.363684E2,3.14265E1,7.730273E0,5.4692397E0,1.3558735E0,2.675484E0,3.9163852E0,3.1663843E2,2.1972997E2,1.0581798E1,2.0844704E1,6.5093966E0,1.2208759E0,3.6756375E0,1.7936023E0,1.3441014E0,1.3313825E0,2.4923263E0,1.4240589E0,2.9923578E2,1.7402649E1,2.6202126E0,2.1710976E2,5.105337E0,5.47646E0,1.0918454E1,9.926249E0,4.756681E0,1.7527158E0,1.5725774E0,2.10306E0,2.8421945E2,1.5016339E1,1.3446325E1,3.9563231E0,1.4489812E0,1.1712315E0,8.113661E1,1.3597314E2],"tree_param":{"num_deleted":"0","num_feature":"9","num_nodes":"45","size_leaf_vector":"1"}},{"base_weights":[-9.832275E-4,-2.9434657E-3,7.287294E-2,-6.034277E-4,-4.373327E-1,-4.532916E-3,5.204454E-1,-1.6698603E-1,3.5995565E-2,1.1492722E-2,-7.138923E-2,2.2210913E-2,1.5204555E-1,-1.6182779E-3,2.5954342E-2,-1.4420033E-1,-7.246148E-3],"categories":[],"categories_nodes":[],"categories_segments":[],"categories_sizes":[],"default_left":[0,0,0,0,0,0,0,0,0,0,0,0,0,0,0,0,0],"id":33,"left_children":[1,3,-1,5,7,9,11,-1,-1,13,15,-1,-1,-1,-1,-1,-1],"loss_changes":[4.226893E-1,5.959685E-1,0E0,1.1989334E0,9.213155E-1,6.233523E-1,3.4583378E-1,0E0,0E0,1.088715E0,2.5429678E0,0E0,0E0,0E0,0E0,0E0,0E0],"parents":[2147483647,0,0,1,1,3,3,4,4,5,5,6,6,9,9,10,10],"right_children":[2,4,-1,6,8,10,12,-1,-1,14,16,-1,-1,-1,-1,-1,-1],"split_conditions":[1.91091E-1,1.82525E-1,7.287294E-2,7.8571E-2,1.25E0,1.16514E-1,1.70166E-1,-1.6698603E-1,3.5995565E-2,9.6179E-2,1.18173E-1,2.2210913E-2,1.5204555E-1,-1.6182779E-3,2.5954342E-2,-1.4420033E-1,-7.246148E-3],"split_indices":[7,7,0,3,2,0,0,0,0,0,0,0,0,0,0,0,0],"split_type":[0,0,0,0,0,0,0,0,0,0,0,0,0,0,0,0,0],"sum_hessian":[5.877114E2,5.855616E2,2.1498296E0,5.834201E2,2.1414726E0,5.8003705E2,3.3830476E0,1.0881122E0,1.0533602E0,4.68552E2,1.1148508E2,1.7900183E0,1.5930291E0,4.027912E2,6.576079E1,4.7224607E0,1.0676261E2],"tree_param":{"num_deleted":"0","num_feature":"9","num_nodes":"17","size_leaf_vector":"1"}},{"base_weights":[-7.991653E-4,-2.3387186E-2,2.6920434E-2,-1.6259667E-2,-5.8204526E-1,3.7301263E-1,9.327755E-3,1.119201E-2,-1.073979E-1,-1.507986E-1,-2.7958969E-2,-5.159336E-2,4.922674E-1,-6.1811063E-2,7.605104E-2,-8.594281E-3,5.8926135E-1,1.8291275E-1,-1.9365484E-1,2.0936857E-1,3.0336598E-1,-8.677635E-3,-2.8367418E-1,2.1288635E-1,-4.64402E-2,3.2865999E-3,-4.8192322E-2,-6.2430776E-3,1.7138447E-1,-1.5554859E-1,8.4157355E-2,-6.7163885E-2,1.8733583E-2,-3.6436804E-2,9.723794E-2,-3.122274E-2,1.9255402E-2,2.3968942E-2,-9.018866E-2,8.0983005E-2,